svm_type c_svc
kernel_type rbf
gamma 0.0078125
nr_class 2
total_sv 1404
rho 1.79274
label 1 2
nr_sv 691 713
SV
1.735909265282196 15:1 32:1 43:1 55:1 81:1 82:1 83:1 88:1 106:1 123:1 127:1 137:1 145:1 156:1 166:1 190:1 216:1 223:1 229:1 272:1 353:1 431:1 442:1 489:1 491:1 514:1 517:1 521:1 523:1 557:1 564:1 581:1 623:1 659:1 674:1 708:1 718:1 758:1 806:1 822:1 851:1 853:1 896:1 902:1 910:1 921:1 922:1 940:1 957:1 990:1 999:1 1031:1 1036:1 1057:1 1064:1 1093:1 1106:1 1108:1 1109:1 1111:1 1190:1 1203:1 1205:1 1224:1 1281:1 1294:1 1301:1 1307:1 1325:1 1329:1 1344:1 1417:1 1453:1 1479:1 1490:1 1494:1 1513:1 1557:1 1584:1 1593:1 1599:1 1601:1 1668:1 1678:1 1682:1 1713:1 1716:1 1762:1 1774:1 1808:1 1826:1 1829:1 1832:1 1837:1 1838:1 1873:1 1882:1 1890:1 1891:1 1895:1 1942:1 1946:1 1998:1 1999:1 2000:1 
0.8613528844479989 3:1 21:1 32:1 43:1 63:1 64:1 78:1 79:1 82:1 83:1 85:1 123:1 129:1 131:1 137:1 169:1 170:1 173:1 178:1 191:1 207:1 216:1 226:1 229:1 240:1 272:1 281:1 323:1 352:1 353:1 364:1 367:1 398:1 418:1 440:1 442:1 449:1 469:1 489:1 491:1 521:1 524:1 545:1 557:1 563:1 609:1 620:1 623:1 629:1 668:1 674:1 689:1 698:1 707:1 740:1 741:1 806:1 822:1 823:1 827:1 851:1 893:1 904:1 911:1 919:1 921:1 922:1 923:1 951:1 957:1 1012:1 1031:1 1047:1 1075:1 1088:1 1091:1 1093:1 1096:1 1108:1 1111:1 1133:1 1186:1 1197:1 1203:1 1251:1 1282:1 1290:1 1344:1 1348:1 1363:1 1427:1 1435:1 1479:1 1482:1 1494:1 1500:1 1513:1 1557:1 1562:1 1584:1 1593:1 1599:1 1663:1 1666:1 1682:1 1685:1 1716:1 1723:1 1731:1 1743:1 1762:1 1829:1 1838:1 1898:1 1909:1 1911:1 1997:1 1998:1 1999:1 2000:1 2001:1 
0.6929798155363809 78:1 79:1 81:1 82:1 83:1 89:1 137:1 165:1 170:1 191:1 205:1 212:1 223:1 224:1 229:1 254:1 257:1 278:1 312:1 322:1 323:1 353:1 385:1 392:1 398:1 408:1 415:1 441:1 442:1 449:1 453:1 481:1 489:1 491:1 502:1 597:1 611:1 640:1 674:1 708:1 718:1 723:1 751:1 754:1 806:1 823:1 850:1 874:1 911:1 919:1 920:1 959:1 1011:1 1024:1 1041:1 1107:1 1119:1 1123:1 1171:1 1195:1 1203:1 1231:1 1251:1 1261:1 1329:1 1390:1 1417:1 1454:1 1479:1 1494:1 1533:1 1566:1 1620:1 1627:1 1634:1 1637:1 1656:1 1663:1 1768:1 1832:1 1835:1 1882:1 1981:1 1996:1 1997:1 1998:1 1999:1 2000:1 
7.974429470126994 137:1 229:1 278:1 902:1 1031:1 1068:1 1166:1 1244:1 1479:1 1546:1 1716:1 1793:1 1794:1 1834:1 1882:1 1997:1 
2.716136961264421 21:1 43:1 78:1 79:1 81:1 82:1 123:1 137:1 158:1 170:1 180:1 223:1 229:1 246:1 278:1 304:1 337:1 406:1 442:1 489:1 491:1 514:1 581:1 647:1 684:1 688:1 722:1 726:1 731:1 775:1 851:1 919:1 999:1 1031:1 1048:1 1091:1 1151:1 1203:1 1243:1 1294:1 1329:1 1335:1 1479:1 1490:1 1494:1 1554:1 1556:1 1599:1 1682:1 1731:1 1762:1 1826:1 1829:1 1839:1 1843:1 1852:1 1997:1 2000:1 
1.044529877842114 82:1 83:1 88:1 98:1 127:1 130:1 137:1 165:1 170:1 229:1 278:1 398:1 481:1 489:1 521:1 558:1 561:1 611:1 647:1 690:1 718:1 722:1 743:1 782:1 822:1 850:1 893:1 1031:1 1055:1 1057:1 1091:1 1167:1 1192:1 1203:1 1305:1 1329:1 1338:1 1407:1 1458:1 1479:1 1490:1 1494:1 1503:1 1599:1 1682:1 1716:1 1754:1 1762:1 1796:1 1829:1 1832:1 1835:1 1882:1 1911:1 1917:1 1981:1 2000:1 
7.544592747699582 229:1 398:1 601:1 674:1 700:1 713:1 911:1 931:1 1041:1 1203:1 1341:1 1344:1 1479:1 1494:1 1762:1 1829:1 1832:1 1837:1 1997:1 2000:1 
0.229376614278113 1:1 137:1 190:1 229:1 287:1 367:1 398:1 442:1 521:1 578:1 632:1 661:1 740:1 959:1 1031:1 1057:1 1076:1 1091:1 1205:1 1244:1 1256:1 1291:1 1329:1 1335:1 1479:1 1490:1 1494:1 1495:1 1504:1 1599:1 1627:1 1718:1 1746:1 1793:1 1848:1 1882:1 1911:1 1942:1 
4.797243995612949 82:1 137:1 223:1 264:1 309:1 323:1 415:1 451:1 620:1 629:1 674:1 686:1 740:1 754:1 1017:1 1125:1 1190:1 1203:1 1335:1 1395:1 1479:1 1663:1 1911:1 
8 82:1 85:1 264:1 439:1 489:1 521:1 559:1 876:1 919:1 1025:1 1031:1 1192:1 1203:1 1335:1 1479:1 1494:1 1716:1 1731:1 1762:1 1777:1 1829:1 2000:1 
0.5447384110590902 81:1 82:1 83:1 85:1 106:1 123:1 127:1 137:1 190:1 207:1 223:1 229:1 232:1 242:1 276:1 278:1 323:1 337:1 364:1 366:1 385:1 395:1 408:1 420:1 442:1 445:1 481:1 486:1 489:1 512:1 521:1 523:1 561:1 564:1 578:1 599:1 622:1 623:1 629:1 659:1 666:1 674:1 708:1 718:1 728:1 805:1 806:1 822:1 824:1 922:1 950:1 965:1 990:1 999:1 1001:1 1013:1 1047:1 1091:1 1121:1 1171:1 1179:1 1203:1 1251:1 1329:1 1358:1 1370:1 1373:1 1400:1 1433:1 1454:1 1479:1 1490:1 1494:1 1513:1 1532:1 1578:1 1601:1 1627:1 1663:1 1682:1 1731:1 1762:1 1832:1 1844:1 1873:1 1882:1 1895:1 1912:1 1997:1 2001:1 
0.8711273827459292 56:1 75:1 82:1 123:1 137:1 180:1 190:1 229:1 353:1 364:1 398:1 442:1 489:1 491:1 578:1 646:1 665:1 666:1 668:1 693:1 708:1 795:1 798:1 806:1 933:1 957:1 973:1 1091:1 1106:1 1111:1 1186:1 1203:1 1223:1 1224:1 1263:1 1273:1 1276:1 1281:1 1335:1 1344:1 1348:1 1363:1 1385:1 1417:1 1479:1 1494:1 1495:1 1513:1 1663:1 1762:1 1829:1 1832:1 1837:1 1838:1 1848:1 1882:1 1951:1 1997:1 2000:1 
8 88:1 137:1 223:1 229:1 264:1 278:1 353:1 398:1 442:1 456:1 533:1 561:1 564:1 622:1 722:1 822:1 999:1 1031:1 1117:1 1128:1 1203:1 1342:1 1453:1 1454:1 1479:1 1566:1 1601:1 1731:1 1837:1 1930:1 2000:1 
8 82:1 83:1 137:1 178:1 190:1 229:1 364:1 442:1 457:1 523:1 581:1 674:1 722:1 728:1 1017:1 1203:1 1224:1 1344:1 1403:1 1677:1 1705:1 1785:1 1832:1 1877:1 
0.8542276051641441 63:1 83:1 119:1 124:1 195:1 229:1 231:1 264:1 278:1 323:1 367:1 521:1 580:1 581:1 588:1 599:1 623:1 666:1 740:1 850:1 893:1 1031:1 1057:1 1093:1 1344:1 1453:1 1494:1 1557:1 1646:1 1682:1 1746:1 1747:1 1762:1 1829:1 1858:1 1895:1 1909:1 1912:1 1981:1 2000:1 
0.5824197743002794 3:1 41:1 49:1 88:1 89:1 123:1 137:1 188:1 190:1 196:1 229:1 232:1 239:1 312:1 415:1 418:1 423:1 442:1 456:1 489:1 491:1 531:1 569:1 587:1 674:1 722:1 789:1 806:1 807:1 830:1 832:1 850:1 851:1 970:1 987:1 990:1 1057:1 1088:1 1149:1 1190:1 1199:1 1203:1 1242:1 1305:1 1335:1 1344:1 1439:1 1479:1 1494:1 1513:1 1606:1 1652:1 1710:1 1757:1 1829:1 1832:1 1837:1 1915:1 1997:1 2000:1 
0.5382306073071161 85:1 137:1 223:1 229:1 323:1 368:1 779:1 822:1 893:1 911:1 1017:1 1031:1 1064:1 1192:1 1203:1 1263:1 1294:1 1335:1 1479:1 1494:1 1571:1 1601:1 1682:1 1700:1 1731:1 1757:1 1802:1 1882:1 
1.437401841806954 3:1 24:1 82:1 83:1 137:1 210:1 226:1 229:1 246:1 308:1 323:1 365:1 453:1 456:1 471:1 521:1 557:1 601:1 629:1 665:1 674:1 682:1 722:1 740:1 753:1 822:1 893:1 908:1 931:1 999:1 1031:1 1066:1 1088:1 1149:1 1165:1 1166:1 1167:1 1203:1 1218:1 1237:1 1294:1 1329:1 1439:1 1479:1 1504:1 1556:1 1596:1 1601:1 1677:1 1713:1 1716:1 1734:1 1754:1 1826:1 1832:1 1898:1 1959:1 1997:1 
8 130:1 190:1 278:1 718:1 822:1 919:1 1017:1 1057:1 1203:1 1261:1 1479:1 1494:1 1600:1 
0.2748184783253458 3:1 51:1 61:1 78:1 79:1 82:1 83:1 88:1 103:1 123:1 130:1 137:1 180:1 190:1 191:1 205:1 207:1 223:1 229:1 232:1 264:1 310:1 324:1 353:1 354:1 362:1 367:1 391:1 398:1 438:1 441:1 442:1 449:1 470:1 491:1 494:1 501:1 504:1 521:1 531:1 551:1 554:1 557:1 561:1 578:1 581:1 599:1 610:1 611:1 620:1 629:1 648:1 652:1 654:1 668:1 674:1 682:1 690:1 708:1 722:1 726:1 728:1 733:1 740:1 743:1 758:1 770:1 782:1 806:1 822:1 824:1 854:1 876:1 886:1 889:1 893:1 912:1 921:1 931:1 990:1 1027:1 1031:1 1036:1 1064:1 1078:1 1091:1 1111:1 1114:1 1186:1 1203:1 1224:1 1241:1 1243:1 1251:1 1294:1 1321:1 1329:1 1351:1 1370:1 1386:1 1402:1 1407:1 1435:1 1454:1 1473:1 1479:1 1490:1 1494:1 1504:1 1555:1 1557:1 1558:1 1590:1 1599:1 1619:1 1627:1 1643:1 1663:1 1667:1 1670:1 1716:1 1723:1 1754:1 1762:1 1768:1 1770:1 1785:1 1798:1 1809:1 1810:1 1818:1 1829:1 1836:1 1837:1 1841:1 1842:1 1871:1 1875:1 1882:1 1898:1 1909:1 1911:1 1912:1 1930:1 1941:1 1951:1 1957:1 1997:1 2000:1 
2.289552160787367 1:1 83:1 85:1 106:1 113:1 123:1 130:1 137:1 144:1 180:1 188:1 190:1 193:1 195:1 207:1 214:1 223:1 229:1 232:1 236:1 240:1 246:1 293:1 321:1 354:1 364:1 367:1 382:1 383:1 391:1 398:1 401:1 415:1 418:1 440:1 442:1 449:1 489:1 491:1 504:1 521:1 523:1 528:1 529:1 557:1 569:1 578:1 581:1 584:1 599:1 601:1 605:1 611:1 620:1 629:1 642:1 652:1 657:1 659:1 668:1 674:1 678:1 684:1 689:1 708:1 718:1 722:1 726:1 740:1 797:1 798:1 817:1 822:1 823:1 851:1 876:1 886:1 889:1 893:1 908:1 919:1 938:1 955:1 962:1 979:1 993:1 994:1 1016:1 1017:1 1031:1 1036:1 1047:1 1058:1 1064:1 1088:1 1091:1 1095:1 1111:1 1139:1 1186:1 1203:1 1205:1 1220:1 1223:1 1251:1 1274:1 1290:1 1294:1 1305:1 1316:1 1329:1 1335:1 1417:1 1453:1 1474:1 1478:1 1479:1 1482:1 1486:1 1490:1 1504:1 1506:1 1507:1 1508:1 1513:1 1523:1 1552:1 1554:1 1557:1 1590:1 1601:1 1663:1 1682:1 1699:1 1703:1 1718:1 1762:1 1764:1 1777:1 1789:1 1798:1 1808:1 1811:1 1826:1 1829:1 1832:1 1842:1 1861:1 1871:1 1873:1 1891:1 1895:1 1898:1 
2.386199697371517 83:1 123:1 130:1 137:1 147:1 191:1 212:1 217:1 223:1 229:1 246:1 283:1 287:1 353:1 398:1 418:1 461:1 523:1 544:1 557:1 564:1 578:1 599:1 605:1 648:1 660:1 674:1 708:1 711:1 726:1 762:1 797:1 851:1 874:1 911:1 916:1 965:1 990:1 999:1 1031:1 1047:1 1070:1 1085:1 1091:1 1106:1 1111:1 1181:1 1203:1 1205:1 1251:1 1294:1 1329:1 1344:1 1348:1 1417:1 1433:1 1435:1 1451:1 1479:1 1494:1 1504:1 1513:1 1522:1 1554:1 1603:1 1663:1 1713:1 1716:1 1723:1 1746:1 1829:1 1832:1 1837:1 1839:1 1871:1 1892:1 1894:1 2000:1 
3.689969226181323 1:1 72:1 83:1 123:1 137:1 139:1 165:1 170:1 173:1 180:1 251:1 283:1 312:1 323:1 418:1 424:1 440:1 441:1 442:1 491:1 521:1 523:1 578:1 599:1 601:1 609:1 610:1 623:1 674:1 722:1 743:1 751:1 822:1 851:1 908:1 933:1 1031:1 1041:1 1057:1 1091:1 1203:1 1251:1 1294:1 1305:1 1341:1 1344:1 1453:1 1462:1 1470:1 1479:1 1494:1 1504:1 1532:1 1552:1 1555:1 1576:1 1601:1 1762:1 1791:1 1829:1 1881:1 1892:1 1942:1 2000:1 
0.6151185910484631 21:1 82:1 137:1 190:1 229:1 353:1 599:1 708:1 790:1 958:1 1041:1 1177:1 1203:1 1224:1 1246:1 1301:1 1451:1 1479:1 1625:1 1704:1 1731:1 1997:1 
1.38802157957382 3:1 82:1 83:1 137:1 138:1 190:1 191:1 212:1 216:1 223:1 229:1 272:1 392:1 415:1 453:1 491:1 518:1 520:1 521:1 523:1 572:1 581:1 601:1 674:1 722:1 726:1 728:1 775:1 836:1 911:1 931:1 987:1 1031:1 1036:1 1057:1 1058:1 1064:1 1081:1 1165:1 1199:1 1203:1 1219:1 1294:1 1301:1 1329:1 1335:1 1344:1 1382:1 1386:1 1479:1 1490:1 1494:1 1576:1 1601:1 1682:1 1766:1 1829:1 1832:1 1946:1 2000:1 
7.148934735645561 82:1 111:1 137:1 223:1 229:1 489:1 629:1 893:1 959:1 994:1 1281:1 1344:1 1454:1 1485:1 1494:1 1663:1 1682:1 1829:1 2000:1 
5.036968367516987 3:1 168:1 170:1 229:1 278:1 306:1 408:1 410:1 439:1 489:1 666:1 695:1 708:1 722:1 807:1 823:1 940:1 959:1 1043:1 1058:1 1091:1 1203:1 1454:1 1479:1 1731:1 1781:1 1844:1 1911:1 1997:1 1998:1 1999:1 
0.7733762090328545 11:1 85:1 137:1 161:1 223:1 229:1 442:1 447:1 448:1 489:1 521:1 578:1 646:1 675:1 708:1 822:1 893:1 920:1 967:1 1024:1 1047:1 1091:1 1093:1 1186:1 1344:1 1446:1 1494:1 1495:1 1682:1 1738:1 1829:1 1912:1 1917:1 1997:1 2000:1 
6.188805667691925 83:1 190:1 229:1 489:1 521:1 554:1 578:1 648:1 654:1 718:1 806:1 866:1 1031:1 1091:1 1171:1 1185:1 1203:1 1251:1 1329:1 1344:1 1391:1 1479:1 1490:1 1494:1 1714:1 1759:1 1762:1 1798:1 1829:1 1997:1 2000:1 
1.861319679048396 3:1 78:1 79:1 89:1 137:1 144:1 163:1 165:1 170:1 173:1 229:1 323:1 331:1 489:1 491:1 502:1 521:1 666:1 708:1 743:1 822:1 876:1 919:1 933:1 999:1 1017:1 1158:1 1203:1 1344:1 1403:1 1454:1 1479:1 1498:1 1623:1 1663:1 1882:1 1911:1 1915:1 1928:1 1960:1 1996:1 
0.4628272078819958 21:1 39:1 43:1 81:1 82:1 83:1 127:1 137:1 190:1 223:1 229:1 239:1 283:1 285:1 354:1 477:1 489:1 490:1 535:1 558:1 572:1 581:1 599:1 662:1 708:1 718:1 726:1 731:1 806:1 817:1 822:1 866:1 940:1 955:1 1036:1 1203:1 1244:1 1294:1 1322:1 1344:1 1355:1 1403:1 1454:1 1479:1 1490:1 1494:1 1504:1 1506:1 1599:1 1622:1 1663:1 1682:1 1731:1 1762:1 1793:1 1829:1 1834:1 1837:1 1839:1 1882:1 1908:1 1912:1 1915:1 1998:1 1999:1 2000:1 
8 3:1 130:1 190:1 645:1 708:1 808:1 874:1 876:1 987:1 999:1 1031:1 1057:1 1251:1 1479:1 1494:1 1777:1 1811:1 1829:1 2000:1 
2.038687553345017 82:1 162:1 223:1 398:1 461:1 468:1 580:1 599:1 629:1 666:1 667:1 894:1 899:1 1024:1 1031:1 1202:1 1399:1 1479:1 1564:1 1644:1 1912:1 1998:1 1999:1 
8 82:1 137:1 180:1 190:1 229:1 278:1 489:1 495:1 521:1 629:1 674:1 708:1 798:1 801:1 823:1 827:1 919:1 931:1 1017:1 1031:1 1192:1 1202:1 1213:1 1220:1 1413:1 1417:1 1446:1 1454:1 1494:1 1511:1 1591:1 1601:1 1627:1 1644:1 1810:1 1832:1 1871:1 1877:1 1895:1 
8 82:1 137:1 168:1 225:1 278:1 572:1 592:1 629:1 743:1 806:1 866:1 1344:1 1453:1 1454:1 1479:1 1494:1 1536:1 1629:1 1630:1 1781:1 1809:1 1824:1 1829:1 1912:1 2000:1 
2.555965789866643 21:1 22:1 78:1 79:1 82:1 85:1 88:1 130:1 163:1 190:1 212:1 214:1 229:1 276:1 278:1 309:1 398:1 479:1 489:1 491:1 502:1 518:1 521:1 533:1 581:1 597:1 611:1 649:1 666:1 667:1 674:1 696:1 708:1 786:1 806:1 822:1 853:1 893:1 895:1 925:1 931:1 959:1 999:1 1024:1 1031:1 1064:1 1070:1 1088:1 1171:1 1203:1 1224:1 1251:1 1335:1 1344:1 1369:1 1389:1 1417:1 1453:1 1454:1 1466:1 1479:1 1490:1 1494:1 1504:1 1551:1 1558:1 1572:1 1595:1 1601:1 1623:1 1650:1 1674:1 1682:1 1687:1 1716:1 1729:1 1738:1 1762:1 1764:1 1765:1 1777:1 1798:1 1832:1 1837:1 1882:1 1912:1 1981:1 1996:1 1997:1 2000:1 
5.704089602956662 137:1 418:1 580:1 822:1 994:1 1007:1 1038:1 1167:1 1203:1 1344:1 1454:1 1479:1 1494:1 1777:1 1893:1 1932:1 2001:1 
8 102:1 137:1 190:1 191:1 229:1 442:1 491:1 494:1 502:1 874:1 893:1 1031:1 1224:1 1344:1 1494:1 1716:1 1826:1 1829:1 1996:1 2000:1 
3.800642595997436 21:1 43:1 82:1 137:1 222:1 229:1 270:1 272:1 278:1 323:1 327:1 392:1 442:1 471:1 489:1 491:1 518:1 531:1 561:1 578:1 581:1 609:1 611:1 620:1 623:1 629:1 647:1 660:1 666:1 668:1 713:1 726:1 732:1 735:1 750:1 806:1 817:1 822:1 851:1 874:1 893:1 916:1 1031:1 1091:1 1171:1 1203:1 1294:1 1335:1 1344:1 1403:1 1430:1 1454:1 1479:1 1490:1 1494:1 1506:1 1532:1 1657:1 1682:1 1762:1 1785:1 1826:1 1829:1 1832:1 1871:1 1912:1 1930:1 1974:1 2000:1 2001:1 
5.94545843057796 1:1 3:1 123:1 127:1 137:1 205:1 229:1 264:1 408:1 489:1 629:1 806:1 822:1 959:1 990:1 1324:1 1454:1 1464:1 1479:1 1727:1 1779:1 1927:1 1946:1 
8 137:1 229:1 728:1 990:1 1013:1 1421:1 1479:1 
0.3666667694376308 3:1 82:1 83:1 99:1 106:1 137:1 190:1 221:1 223:1 229:1 232:1 238:1 278:1 336:1 442:1 449:1 489:1 518:1 521:1 522:1 523:1 536:1 551:1 569:1 581:1 629:1 668:1 674:1 675:1 718:1 735:1 740:1 822:1 866:1 893:1 919:1 955:1 1031:1 1119:1 1203:1 1224:1 1230:1 1311:1 1335:1 1344:1 1400:1 1417:1 1435:1 1479:1 1490:1 1494:1 1599:1 1663:1 1682:1 1713:1 1716:1 1731:1 1762:1 1826:1 1829:1 1832:1 1835:1 1838:1 1877:1 1959:1 1972:1 2000:1 
0.2932236204167344 39:1 46:1 47:1 59:1 82:1 83:1 123:1 124:1 137:1 144:1 152:1 167:1 170:1 180:1 190:1 229:1 246:1 278:1 287:1 296:1 323:1 353:1 364:1 367:1 392:1 398:1 420:1 442:1 449:1 450:1 455:1 456:1 521:1 523:1 535:1 557:1 558:1 578:1 599:1 620:1 629:1 726:1 728:1 753:1 798:1 822:1 853:1 892:1 893:1 911:1 919:1 950:1 965:1 973:1 999:1 1013:1 1031:1 1041:1 1057:1 1083:1 1089:1 1091:1 1101:1 1108:1 1121:1 1127:1 1144:1 1149:1 1203:1 1236:1 1242:1 1251:1 1309:1 1329:1 1335:1 1345:1 1393:1 1401:1 1407:1 1408:1 1458:1 1479:1 1490:1 1494:1 1495:1 1504:1 1556:1 1599:1 1601:1 1630:1 1649:1 1677:1 1682:1 1731:1 1748:1 1762:1 1798:1 1806:1 1808:1 1826:1 1829:1 1832:1 1878:1 1882:1 1908:1 1909:1 1911:1 1912:1 1930:1 1963:1 1981:1 1997:1 1998:1 1999:1 2000:1 
0.6899590895964362 82:1 85:1 106:1 137:1 170:1 180:1 223:1 229:1 264:1 287:1 323:1 398:1 403:1 441:1 489:1 532:1 554:1 561:1 578:1 619:1 648:1 668:1 674:1 722:1 740:1 822:1 824:1 965:1 999:1 1009:1 1031:1 1083:1 1084:1 1091:1 1116:1 1197:1 1203:1 1251:1 1294:1 1329:1 1335:1 1344:1 1400:1 1417:1 1479:1 1490:1 1554:1 1556:1 1601:1 1658:1 1668:1 1719:1 1723:1 1731:1 1754:1 1762:1 1826:1 1832:1 1837:1 1871:1 1894:1 
1.011851969714259 3:1 7:1 21:1 39:1 43:1 70:1 71:1 78:1 79:1 81:1 82:1 83:1 85:1 88:1 89:1 96:1 97:1 101:1 103:1 110:1 113:1 123:1 124:1 130:1 131:1 133:1 137:1 159:1 164:1 170:1 190:1 191:1 207:1 216:1 217:1 223:1 229:1 239:1 240:1 249:1 264:1 278:1 293:1 296:1 307:1 320:1 323:1 340:1 344:1 353:1 358:1 364:1 366:1 367:1 390:1 398:1 415:1 427:1 441:1 442:1 451:1 465:1 471:1 477:1 489:1 491:1 500:1 504:1 518:1 520:1 521:1 523:1 524:1 532:1 557:1 561:1 569:1 572:1 575:1 599:1 609:1 610:1 620:1 621:1 622:1 623:1 629:1 635:1 640:1 659:1 668:1 671:1 674:1 677:1 680:1 704:1 708:1 713:1 722:1 726:1 733:1 750:1 753:1 782:1 783:1 785:1 798:1 806:1 821:1 822:1 824:1 832:1 851:1 872:1 874:1 876:1 886:1 893:1 896:1 906:1 908:1 911:1 919:1 923:1 931:1 933:1 935:1 955:1 967:1 973:1 990:1 999:1 1017:1 1022:1 1031:1 1036:1 1038:1 1047:1 1048:1 1057:1 1064:1 1088:1 1091:1 1093:1 1095:1 1111:1 1137:1 1168:1 1171:1 1180:1 1189:1 1190:1 1192:1 1195:1 1202:1 1203:1 1214:1 1223:1 1232:1 1251:1 1272:1 1290:1 1294:1 1307:1 1329:1 1335:1 1341:1 1342:1 1343:1 1344:1 1386:1 1393:1 1403:1 1407:1 1417:1 1435:1 1437:1 1439:1 1441:1 1446:1 1448:1 1451:1 1453:1 1464:1 1478:1 1479:1 1485:1 1486:1 1490:1 1494:1 1495:1 1504:1 1513:1 1532:1 1533:1 1551:1 1554:1 1564:1 1595:1 1601:1 1606:1 1609:1 1628:1 1643:1 1658:1 1677:1 1700:1 1715:1 1723:1 1731:1 1757:1 1760:1 1762:1 1767:1 1768:1 1793:1 1797:1 1811:1 1815:1 1824:1 1826:1 1829:1 1832:1 1835:1 1836:1 1837:1 1843:1 1844:1 1852:1 1862:1 1865:1 1871:1 1873:1 1882:1 1892:1 1894:1 1898:1 1911:1 1912:1 1942:1 1946:1 1954:1 1962:1 1981:1 1997:1 1998:1 1999:1 2000:1 
1.300215259327014 43:1 64:1 78:1 79:1 82:1 83:1 88:1 106:1 110:1 123:1 124:1 131:1 134:1 137:1 161:1 190:1 207:1 216:1 223:1 229:1 232:1 261:1 264:1 272:1 278:1 287:1 304:1 311:1 313:1 320:1 323:1 324:1 336:1 353:1 367:1 392:1 398:1 416:1 419:1 420:1 422:1 439:1 441:1 442:1 489:1 491:1 514:1 520:1 521:1 523:1 557:1 559:1 575:1 578:1 593:1 599:1 609:1 610:1 611:1 657:1 659:1 668:1 674:1 680:1 708:1 720:1 722:1 725:1 726:1 728:1 765:1 791:1 806:1 807:1 814:1 817:1 822:1 823:1 827:1 851:1 866:1 917:1 919:1 928:1 931:1 935:1 947:1 965:1 966:1 987:1 990:1 991:1 999:1 1012:1 1019:1 1029:1 1031:1 1035:1 1047:1 1057:1 1059:1 1064:1 1088:1 1091:1 1093:1 1111:1 1170:1 1180:1 1186:1 1190:1 1192:1 1200:1 1203:1 1243:1 1251:1 1316:1 1329:1 1331:1 1344:1 1357:1 1391:1 1417:1 1431:1 1432:1 1435:1 1453:1 1454:1 1456:1 1479:1 1490:1 1494:1 1504:1 1511:1 1513:1 1549:1 1551:1 1557:1 1558:1 1601:1 1612:1 1628:1 1663:1 1703:1 1715:1 1716:1 1731:1 1734:1 1746:1 1762:1 1768:1 1771:1 1772:1 1785:1 1793:1 1798:1 1809:1 1829:1 1832:1 1835:1 1837:1 1843:1 1846:1 1861:1 1867:1 1871:1 1873:1 1882:1 1900:1 1910:1 1912:1 1914:1 1915:1 1946:1 1960:1 1961:1 1972:1 1997:1 1998:1 1999:1 2000:1 2001:1 
1.180927801702167 3:1 81:1 82:1 123:1 190:1 223:1 229:1 367:1 400:1 413:1 578:1 581:1 596:1 609:1 722:1 748:1 822:1 824:1 893:1 1031:1 1091:1 1167:1 1224:1 1237:1 1329:1 1344:1 1479:1 1494:1 1599:1 1829:1 1912:1 1940:1 2000:1 
1.488284579843437 3:1 21:1 82:1 137:1 144:1 190:1 229:1 278:1 442:1 581:1 674:1 722:1 921:1 959:1 1031:1 1203:1 1224:1 1333:1 1479:1 1682:1 1785:1 1838:1 1871:1 1911:1 
8 27:1 82:1 83:1 99:1 184:1 321:1 398:1 521:1 581:1 629:1 822:1 931:1 1031:1 1223:1 1294:1 1329:1 1335:1 1402:1 1479:1 1490:1 1762:1 1789:1 1826:1 1832:1 
2.883819756560227 82:1 223:1 229:1 581:1 674:1 722:1 731:1 750:1 782:1 850:1 893:1 919:1 1031:1 1106:1 1328:1 1335:1 1344:1 1446:1 1479:1 1483:1 1532:1 1601:1 1668:1 1682:1 1731:1 1762:1 1832:1 
1.296545136911456 78:1 79:1 82:1 83:1 162:1 203:1 213:1 223:1 229:1 431:1 523:1 545:1 564:1 578:1 581:1 606:1 646:1 660:1 674:1 708:1 722:1 740:1 822:1 850:1 851:1 893:1 896:1 931:1 947:1 974:1 1031:1 1048:1 1057:1 1091:1 1111:1 1130:1 1203:1 1265:1 1301:1 1341:1 1386:1 1390:1 1454:1 1479:1 1490:1 1591:1 1601:1 1645:1 1646:1 1682:1 1751:1 1789:1 1832:1 1838:1 1861:1 1912:1 1915:1 1959:1 2001:1 
0.2948278103017969 3:1 82:1 98:1 137:1 139:1 229:1 240:1 270:1 309:1 414:1 442:1 449:1 523:1 581:1 582:1 682:1 708:1 722:1 822:1 893:1 1031:1 1064:1 1201:1 1203:1 1344:1 1451:1 1454:1 1479:1 1490:1 1494:1 1682:1 1762:1 1815:1 1829:1 1837:1 1882:1 1898:1 1963:1 2000:1 
5.002167598001988 3:1 34:1 41:1 81:1 82:1 130:1 223:1 229:1 489:1 578:1 581:1 599:1 604:1 708:1 760:1 893:1 931:1 1031:1 1091:1 1344:1 1400:1 1417:1 1479:1 1490:1 1494:1 1601:1 1646:1 1682:1 1716:1 1829:1 1858:1 1882:1 1977:1 1996:1 2000:1 
0.6942809963256086 82:1 83:1 88:1 123:1 130:1 137:1 207:1 223:1 229:1 278:1 308:1 309:1 328:1 353:1 442:1 449:1 459:1 523:1 524:1 557:1 559:1 589:1 593:1 599:1 629:1 668:1 674:1 722:1 726:1 782:1 850:1 919:1 990:1 994:1 1031:1 1057:1 1116:1 1168:1 1177:1 1195:1 1202:1 1203:1 1244:1 1251:1 1329:1 1344:1 1451:1 1462:1 1470:1 1479:1 1494:1 1556:1 1576:1 1595:1 1601:1 1677:1 1709:1 1726:1 1731:1 1785:1 1829:1 1842:1 1887:1 1898:1 1912:1 1978:1 1998:1 1999:1 2000:1 
5.502560576362833 3:1 137:1 180:1 229:1 270:1 271:1 278:1 353:1 471:1 491:1 521:1 578:1 581:1 599:1 662:1 798:1 893:1 919:1 955:1 979:1 999:1 1025:1 1031:1 1203:1 1256:1 1294:1 1344:1 1386:1 1470:1 1479:1 1490:1 1494:1 1636:1 1682:1 1715:1 1777:1 1811:1 1829:1 1872:1 1930:1 2000:1 
2.527105324932404 43:1 72:1 130:1 137:1 223:1 229:1 264:1 276:1 309:1 323:1 420:1 581:1 592:1 599:1 622:1 722:1 728:1 743:1 807:1 851:1 947:1 959:1 961:1 965:1 1031:1 1036:1 1203:1 1294:1 1329:1 1386:1 1454:1 1460:1 1479:1 1490:1 1513:1 1601:1 1682:1 1716:1 1762:1 1848:1 1882:1 1912:1 
0.5284320196185852 4:1 11:1 47:1 82:1 83:1 137:1 139:1 170:1 190:1 191:1 229:1 283:1 285:1 301:1 442:1 485:1 518:1 521:1 557:1 578:1 718:1 723:1 726:1 740:1 770:1 806:1 822:1 851:1 893:1 911:1 919:1 955:1 1031:1 1036:1 1048:1 1091:1 1185:1 1186:1 1190:1 1203:1 1225:1 1243:1 1262:1 1335:1 1479:1 1490:1 1559:1 1560:1 1599:1 1627:1 1680:1 1682:1 1743:1 1762:1 1774:1 1809:1 1813:1 1873:1 1997:1 2000:1 
8 81:1 83:1 690:1 718:1 1145:1 1330:1 1403:1 1479:1 1599:1 1682:1 1762:1 1789:1 1832:1 1997:1 
0.2646437428217609 39:1 41:1 43:1 82:1 83:1 85:1 88:1 89:1 93:1 98:1 110:1 123:1 130:1 137:1 142:1 155:1 170:1 180:1 188:1 190:1 205:1 212:1 214:1 216:1 217:1 223:1 229:1 246:1 251:1 264:1 289:1 308:1 312:1 353:1 383:1 392:1 398:1 400:1 401:1 418:1 422:1 442:1 453:1 469:1 470:1 471:1 481:1 491:1 514:1 521:1 523:1 554:1 559:1 578:1 593:1 601:1 623:1 629:1 662:1 668:1 674:1 680:1 690:1 708:1 718:1 722:1 726:1 740:1 741:1 753:1 775:1 788:1 791:1 798:1 805:1 806:1 822:1 823:1 824:1 846:1 854:1 855:1 859:1 876:1 892:1 893:1 904:1 910:1 919:1 921:1 954:1 959:1 984:1 985:1 990:1 999:1 1013:1 1031:1 1033:1 1036:1 1047:1 1050:1 1057:1 1058:1 1064:1 1088:1 1151:1 1171:1 1185:1 1190:1 1192:1 1203:1 1214:1 1220:1 1224:1 1236:1 1251:1 1273:1 1274:1 1281:1 1325:1 1329:1 1382:1 1393:1 1453:1 1456:1 1479:1 1490:1 1500:1 1504:1 1514:1 1532:1 1544:1 1557:1 1567:1 1599:1 1624:1 1649:1 1663:1 1675:1 1682:1 1716:1 1724:1 1731:1 1742:1 1743:1 1754:1 1762:1 1769:1 1806:1 1813:1 1832:1 1839:1 1841:1 1843:1 1848:1 1865:1 1882:1 1888:1 1912:1 1942:1 
0.1429727436572338 56:1 82:1 83:1 106:1 109:1 137:1 170:1 205:1 223:1 226:1 229:1 245:1 264:1 270:1 278:1 308:1 319:1 353:1 420:1 461:1 471:1 521:1 523:1 532:1 578:1 581:1 592:1 599:1 600:1 619:1 622:1 654:1 665:1 674:1 682:1 696:1 722:1 740:1 743:1 750:1 782:1 805:1 822:1 892:1 893:1 919:1 922:1 955:1 1031:1 1046:1 1057:1 1088:1 1091:1 1203:1 1214:1 1263:1 1329:1 1335:1 1375:1 1435:1 1439:1 1442:1 1453:1 1479:1 1480:1 1490:1 1494:1 1527:1 1532:1 1554:1 1557:1 1566:1 1663:1 1677:1 1682:1 1716:1 1725:1 1731:1 1746:1 1762:1 1806:1 1827:1 1832:1 1872:1 1882:1 1898:1 1912:1 
8 83:1 106:1 157:1 564:1 578:1 620:1 708:1 722:1 740:1 892:1 893:1 919:1 1031:1 1091:1 1137:1 1203:1 1294:1 1305:1 1344:1 1413:1 1446:1 1453:1 1479:1 1819:1 1826:1 1981:1 1997:1 
1.103020700163118 59:1 64:1 82:1 85:1 123:1 130:1 137:1 144:1 170:1 229:1 283:1 284:1 309:1 411:1 491:1 495:1 521:1 578:1 593:1 674:1 675:1 708:1 722:1 728:1 731:1 741:1 822:1 874:1 893:1 1031:1 1050:1 1091:1 1108:1 1219:1 1230:1 1344:1 1377:1 1386:1 1479:1 1511:1 1542:1 1580:1 1601:1 1649:1 1694:1 1731:1 1757:1 1777:1 1871:1 1882:1 
2.103952682036688 3:1 34:1 49:1 82:1 83:1 88:1 91:1 93:1 98:1 103:1 110:1 123:1 130:1 137:1 149:1 156:1 180:1 190:1 191:1 204:1 205:1 216:1 217:1 223:1 229:1 264:1 278:1 287:1 311:1 331:1 353:1 355:1 368:1 369:1 392:1 398:1 401:1 410:1 418:1 420:1 424:1 433:1 442:1 449:1 467:1 489:1 491:1 521:1 522:1 523:1 535:1 557:1 569:1 599:1 605:1 623:1 627:1 629:1 642:1 660:1 668:1 672:1 674:1 708:1 726:1 734:1 743:1 753:1 760:1 798:1 806:1 822:1 830:1 842:1 854:1 891:1 896:1 915:1 923:1 936:1 940:1 955:1 959:1 994:1 999:1 1022:1 1031:1 1041:1 1047:1 1048:1 1070:1 1083:1 1101:1 1112:1 1113:1 1146:1 1165:1 1169:1 1203:1 1220:1 1223:1 1230:1 1246:1 1276:1 1288:1 1294:1 1334:1 1335:1 1341:1 1344:1 1395:1 1401:1 1403:1 1417:1 1470:1 1479:1 1484:1 1490:1 1494:1 1504:1 1508:1 1513:1 1525:1 1533:1 1548:1 1555:1 1578:1 1594:1 1599:1 1623:1 1643:1 1677:1 1716:1 1722:1 1723:1 1731:1 1738:1 1760:1 1762:1 1798:1 1811:1 1817:1 1826:1 1829:1 1832:1 1835:1 1837:1 1838:1 1843:1 1846:1 1881:1 1882:1 1892:1 1895:1 1912:1 1915:1 1930:1 1946:1 1958:1 1962:1 1997:1 2000:1 
8 1:1 125:1 439:1 498:1 648:1 
8 137:1 481:1 722:1 846:1 959:1 1335:1 1627:1 1981:1 
5.879984702302774 82:1 137:1 180:1 190:1 270:1 353:1 415:1 449:1 454:1 481:1 564:1 572:1 600:1 708:1 722:1 739:1 798:1 806:1 824:1 836:1 919:1 928:1 1031:1 1041:1 1232:1 1386:1 1403:1 1417:1 1443:1 1479:1 1504:1 1601:1 1658:1 1680:1 1716:1 1793:1 1813:1 1941:1 1981:1 
3.835459641555627 82:1 83:1 135:1 137:1 139:1 161:1 188:1 223:1 229:1 239:1 272:1 284:1 376:1 377:1 415:1 489:1 528:1 599:1 629:1 675:1 711:1 722:1 822:1 836:1 850:1 874:1 892:1 919:1 928:1 931:1 988:1 1029:1 1031:1 1041:1 1057:1 1203:1 1224:1 1294:1 1335:1 1344:1 1417:1 1471:1 1479:1 1490:1 1494:1 1504:1 1546:1 1593:1 1632:1 1643:1 1669:1 1704:1 1762:1 1809:1 1829:1 1832:1 1835:1 1838:1 1882:1 1981:1 2000:1 
3.980881426445575 82:1 110:1 137:1 139:1 144:1 489:1 599:1 665:1 947:1 959:1 1227:1 1403:1 1494:1 1716:1 
1.123758293646376 3:1 70:1 81:1 82:1 83:1 85:1 103:1 130:1 137:1 144:1 163:1 164:1 169:1 173:1 181:1 188:1 190:1 191:1 205:1 212:1 215:1 223:1 229:1 232:1 242:1 257:1 258:1 261:1 264:1 285:1 309:1 353:1 362:1 369:1 398:1 406:1 415:1 418:1 420:1 438:1 440:1 442:1 455:1 489:1 491:1 521:1 532:1 557:1 559:1 561:1 578:1 580:1 590:1 599:1 606:1 609:1 610:1 611:1 620:1 622:1 623:1 629:1 662:1 666:1 668:1 674:1 708:1 718:1 722:1 726:1 728:1 740:1 767:1 779:1 782:1 790:1 798:1 814:1 822:1 827:1 842:1 848:1 854:1 876:1 880:1 896:1 911:1 912:1 919:1 922:1 923:1 931:1 948:1 979:1 990:1 999:1 1009:1 1017:1 1031:1 1036:1 1045:1 1047:1 1050:1 1054:1 1057:1 1058:1 1064:1 1106:1 1107:1 1132:1 1140:1 1168:1 1192:1 1199:1 1203:1 1223:1 1224:1 1236:1 1239:1 1242:1 1294:1 1305:1 1329:1 1332:1 1335:1 1341:1 1344:1 1416:1 1425:1 1435:1 1479:1 1490:1 1494:1 1504:1 1533:1 1551:1 1554:1 1556:1 1557:1 1561:1 1578:1 1584:1 1627:1 1655:1 1663:1 1682:1 1713:1 1723:1 1731:1 1741:1 1742:1 1762:1 1789:1 1790:1 1793:1 1809:1 1817:1 1826:1 1829:1 1832:1 1835:1 1837:1 1844:1 1871:1 1877:1 1882:1 1895:1 1912:1 1915:1 1917:1 1995:1 2000:1 2001:1 
4.261862483132775 73:1 180:1 229:1 232:1 312:1 416:1 430:1 491:1 521:1 523:1 556:1 582:1 608:1 648:1 798:1 822:1 876:1 1031:1 1203:1 1263:1 1301:1 1329:1 1344:1 1393:1 1494:1 1599:1 1731:1 1762:1 1801:1 1829:1 1878:1 1882:1 1997:1 2000:1 
8 82:1 89:1 106:1 137:1 223:1 229:1 278:1 521:1 722:1 745:1 774:1 919:1 1057:1 1203:1 1490:1 1494:1 1601:1 1729:1 1878:1 1882:1 
8 3:1 31:1 82:1 180:1 188:1 190:1 442:1 471:1 491:1 581:1 599:1 667:1 827:1 919:1 1224:1 1239:1 1335:1 1344:1 1479:1 1494:1 1593:1 1667:1 1682:1 1747:1 1829:1 1928:1 2000:1 
0.4048276105932896 3:1 81:1 82:1 166:1 229:1 412:1 442:1 471:1 491:1 518:1 521:1 523:1 581:1 606:1 718:1 734:1 775:1 854:1 1031:1 1312:1 1341:1 1344:1 1375:1 1417:1 1494:1 1803:1 1829:1 2000:1 
1.020776925065406 3:1 15:1 24:1 43:1 54:1 61:1 73:1 81:1 82:1 83:1 98:1 103:1 119:1 130:1 137:1 145:1 170:1 180:1 190:1 191:1 195:1 205:1 213:1 223:1 229:1 264:1 287:1 289:1 309:1 315:1 323:1 337:1 353:1 362:1 367:1 369:1 392:1 398:1 400:1 401:1 418:1 420:1 439:1 442:1 470:1 491:1 498:1 517:1 520:1 521:1 523:1 554:1 557:1 561:1 564:1 572:1 578:1 581:1 584:1 599:1 620:1 622:1 623:1 629:1 642:1 649:1 654:1 659:1 662:1 665:1 674:1 684:1 708:1 718:1 722:1 726:1 728:1 733:1 740:1 758:1 759:1 782:1 791:1 806:1 808:1 822:1 824:1 851:1 854:1 859:1 866:1 874:1 876:1 889:1 892:1 893:1 896:1 911:1 940:1 946:1 957:1 976:1 991:1 994:1 999:1 1017:1 1029:1 1031:1 1036:1 1047:1 1048:1 1050:1 1054:1 1055:1 1057:1 1065:1 1066:1 1067:1 1076:1 1091:1 1097:1 1108:1 1109:1 1111:1 1112:1 1130:1 1185:1 1190:1 1192:1 1195:1 1203:1 1204:1 1207:1 1211:1 1220:1 1223:1 1224:1 1225:1 1251:1 1260:1 1274:1 1281:1 1294:1 1301:1 1323:1 1329:1 1330:1 1335:1 1344:1 1372:1 1393:1 1403:1 1416:1 1435:1 1453:1 1455:1 1458:1 1473:1 1475:1 1479:1 1483:1 1485:1 1490:1 1494:1 1495:1 1504:1 1513:1 1554:1 1555:1 1556:1 1571:1 1599:1 1601:1 1619:1 1623:1 1628:1 1643:1 1650:1 1663:1 1664:1 1667:1 1673:1 1682:1 1687:1 1700:1 1713:1 1714:1 1716:1 1731:1 1736:1 1762:1 1793:1 1796:1 1798:1 1801:1 1809:1 1821:1 1829:1 1832:1 1835:1 1837:1 1838:1 1839:1 1841:1 1842:1 1844:1 1846:1 1872:1 1882:1 1895:1 1912:1 1915:1 1942:1 1946:1 1951:1 1960:1 1998:1 1999:1 2000:1 2001:1 
0.6589026206324964 24:1 82:1 83:1 111:1 130:1 137:1 223:1 229:1 386:1 393:1 398:1 442:1 581:1 610:1 611:1 622:1 626:1 629:1 674:1 708:1 740:1 746:1 779:1 822:1 846:1 919:1 931:1 951:1 959:1 994:1 999:1 1031:1 1095:1 1203:1 1220:1 1244:1 1251:1 1294:1 1329:1 1336:1 1417:1 1454:1 1470:1 1479:1 1490:1 1494:1 1566:1 1682:1 1716:1 1754:1 1762:1 1829:1 1832:1 1837:1 1873:1 1882:1 1942:1 2000:1 
0.2788789626751441 3:1 73:1 82:1 98:1 123:1 137:1 139:1 143:1 145:1 165:1 167:1 169:1 180:1 188:1 190:1 205:1 223:1 229:1 293:1 328:1 337:1 353:1 376:1 441:1 442:1 469:1 481:1 489:1 491:1 521:1 523:1 524:1 533:1 564:1 578:1 581:1 599:1 610:1 666:1 674:1 722:1 739:1 740:1 741:1 775:1 803:1 806:1 822:1 851:1 854:1 876:1 892:1 896:1 919:1 921:1 947:1 959:1 970:1 994:1 1017:1 1031:1 1035:1 1036:1 1047:1 1051:1 1064:1 1091:1 1118:1 1151:1 1177:1 1203:1 1224:1 1225:1 1251:1 1256:1 1327:1 1329:1 1335:1 1342:1 1344:1 1417:1 1452:1 1453:1 1454:1 1479:1 1490:1 1494:1 1549:1 1587:1 1593:1 1599:1 1623:1 1625:1 1700:1 1713:1 1716:1 1718:1 1734:1 1742:1 1801:1 1809:1 1818:1 1822:1 1829:1 1832:1 1835:1 1839:1 1842:1 1871:1 1882:1 1915:1 1960:1 1981:1 1997:1 1998:1 1999:1 2000:1 
0.9218066535407236 24:1 43:1 82:1 83:1 98:1 123:1 137:1 157:1 167:1 190:1 191:1 193:1 216:1 223:1 229:1 276:1 309:1 315:1 323:1 340:1 353:1 362:1 364:1 442:1 455:1 456:1 489:1 491:1 503:1 516:1 555:1 564:1 572:1 581:1 596:1 609:1 616:1 622:1 629:1 640:1 649:1 668:1 674:1 689:1 708:1 718:1 722:1 726:1 740:1 764:1 782:1 785:1 806:1 807:1 822:1 851:1 858:1 889:1 893:1 896:1 919:1 957:1 959:1 965:1 990:1 996:1 999:1 1020:1 1031:1 1036:1 1041:1 1047:1 1057:1 1093:1 1095:1 1105:1 1106:1 1108:1 1192:1 1203:1 1220:1 1251:1 1272:1 1273:1 1281:1 1329:1 1344:1 1381:1 1417:1 1425:1 1453:1 1454:1 1476:1 1479:1 1483:1 1490:1 1494:1 1498:1 1513:1 1560:1 1593:1 1601:1 1650:1 1668:1 1677:1 1682:1 1689:1 1716:1 1723:1 1731:1 1762:1 1768:1 1774:1 1777:1 1798:1 1799:1 1826:1 1829:1 1832:1 1835:1 1839:1 1854:1 1871:1 1873:1 1882:1 1898:1 1912:1 1946:1 1981:1 1997:1 1998:1 1999:1 2000:1 2001:1 
1.674136359208136 7:1 24:1 43:1 78:1 79:1 81:1 82:1 83:1 85:1 88:1 89:1 110:1 123:1 129:1 130:1 133:1 137:1 156:1 163:1 167:1 180:1 190:1 191:1 193:1 215:1 217:1 223:1 229:1 246:1 264:1 278:1 290:1 308:1 309:1 321:1 323:1 337:1 364:1 367:1 392:1 398:1 401:1 418:1 420:1 442:1 445:1 451:1 457:1 462:1 471:1 481:1 489:1 491:1 516:1 520:1 521:1 523:1 554:1 555:1 557:1 578:1 580:1 581:1 592:1 603:1 609:1 610:1 611:1 629:1 642:1 648:1 668:1 674:1 677:1 680:1 707:1 708:1 718:1 722:1 728:1 740:1 743:1 750:1 791:1 806:1 822:1 824:1 858:1 859:1 876:1 892:1 893:1 904:1 907:1 911:1 919:1 921:1 947:1 957:1 987:1 990:1 991:1 994:1 999:1 1001:1 1022:1 1031:1 1036:1 1047:1 1057:1 1064:1 1066:1 1091:1 1093:1 1095:1 1106:1 1109:1 1119:1 1166:1 1168:1 1170:1 1190:1 1192:1 1203:1 1204:1 1208:1 1223:1 1224:1 1225:1 1229:1 1245:1 1251:1 1263:1 1294:1 1301:1 1329:1 1330:1 1335:1 1342:1 1344:1 1393:1 1402:1 1417:1 1430:1 1435:1 1453:1 1454:1 1455:1 1479:1 1490:1 1494:1 1495:1 1504:1 1513:1 1532:1 1560:1 1601:1 1619:1 1649:1 1663:1 1682:1 1686:1 1687:1 1700:1 1714:1 1716:1 1723:1 1731:1 1738:1 1740:1 1743:1 1754:1 1762:1 1775:1 1777:1 1798:1 1811:1 1826:1 1829:1 1832:1 1836:1 1837:1 1839:1 1841:1 1842:1 1843:1 1861:1 1871:1 1882:1 1887:1 1898:1 1912:1 1914:1 1930:1 1941:1 1942:1 1981:1 1993:1 1997:1 1998:1 1999:1 2000:1 2001:1 
4.152289954778389 82:1 137:1 229:1 362:1 418:1 451:1 569:1 674:1 708:1 733:1 740:1 753:1 822:1 893:1 999:1 1203:1 1225:1 1230:1 1244:1 1344:1 1417:1 1458:1 1479:1 1490:1 1494:1 1596:1 1601:1 1682:1 1738:1 1768:1 1774:1 1826:1 1829:1 1835:1 1997:1 2000:1 
0.3071686160323228 3:1 10:1 43:1 78:1 79:1 81:1 82:1 83:1 88:1 101:1 106:1 123:1 131:1 137:1 144:1 168:1 170:1 180:1 181:1 188:1 190:1 195:1 205:1 207:1 208:1 217:1 223:1 229:1 230:1 240:1 246:1 278:1 282:1 288:1 309:1 312:1 323:1 353:1 385:1 393:1 398:1 401:1 415:1 442:1 471:1 491:1 521:1 523:1 550:1 554:1 557:1 558:1 572:1 578:1 581:1 610:1 611:1 629:1 643:1 644:1 653:1 665:1 666:1 668:1 669:1 671:1 674:1 675:1 700:1 708:1 718:1 722:1 726:1 728:1 740:1 741:1 768:1 775:1 803:1 822:1 836:1 851:1 858:1 876:1 889:1 890:1 893:1 896:1 911:1 919:1 921:1 922:1 931:1 947:1 959:1 991:1 994:1 999:1 1010:1 1022:1 1031:1 1035:1 1043:1 1046:1 1052:1 1057:1 1088:1 1091:1 1119:1 1125:1 1130:1 1190:1 1203:1 1224:1 1232:1 1251:1 1294:1 1312:1 1329:1 1341:1 1342:1 1344:1 1386:1 1417:1 1432:1 1439:1 1442:1 1453:1 1454:1 1479:1 1490:1 1494:1 1495:1 1504:1 1508:1 1513:1 1557:1 1563:1 1601:1 1627:1 1670:1 1682:1 1713:1 1719:1 1729:1 1731:1 1738:1 1742:1 1762:1 1768:1 1808:1 1826:1 1829:1 1837:1 1839:1 1842:1 1850:1 1871:1 1882:1 1883:1 1912:1 1915:1 1946:1 1998:1 1999:1 2000:1 2001:1 
2.623271271373524 1:1 3:1 83:1 123:1 130:1 131:1 137:1 180:1 188:1 190:1 193:1 229:1 309:1 431:1 449:1 471:1 491:1 521:1 522:1 559:1 578:1 581:1 599:1 601:1 611:1 652:1 653:1 662:1 668:1 674:1 722:1 726:1 743:1 747:1 775:1 798:1 805:1 822:1 836:1 851:1 893:1 919:1 999:1 1031:1 1064:1 1091:1 1195:1 1203:1 1244:1 1251:1 1294:1 1301:1 1344:1 1369:1 1386:1 1479:1 1490:1 1494:1 1506:1 1556:1 1560:1 1599:1 1601:1 1625:1 1670:1 1682:1 1697:1 1705:1 1722:1 1766:1 1777:1 1810:1 1829:1 1832:1 1836:1 1837:1 1848:1 1865:1 1959:1 2000:1 
2.959922801396806 1:1 3:1 83:1 98:1 190:1 214:1 229:1 312:1 364:1 423:1 581:1 708:1 1011:1 1031:1 1224:1 1237:1 1344:1 1417:1 1446:1 1494:1 1677:1 1731:1 1829:1 2000:1 
8 3:1 81:1 82:1 166:1 229:1 412:1 442:1 471:1 491:1 518:1 521:1 523:1 581:1 606:1 718:1 734:1 775:1 854:1 1031:1 1312:1 1341:1 1344:1 1375:1 1417:1 1494:1 1803:1 1829:1 2000:1 
8 89:1 246:1 353:1 442:1 477:1 481:1 722:1 812:1 928:1 931:1 991:1 1192:1 1454:1 1479:1 1486:1 1494:1 1601:1 1997:1 
6.308164659657132 82:1 137:1 188:1 229:1 278:1 564:1 581:1 599:1 708:1 893:1 931:1 1203:1 1244:1 1344:1 1402:1 1479:1 1494:1 1682:1 1829:1 2000:1 
7.2908162632059 82:1 103:1 137:1 139:1 161:1 229:1 415:1 578:1 629:1 718:1 722:1 919:1 999:1 1031:1 1057:1 1076:1 1091:1 1294:1 1329:1 1416:1 1423:1 1479:1 1490:1 1494:1 1504:1 1601:1 1757:1 1829:1 1981:1 2000:1 
4.957484163087525 3:1 35:1 49:1 73:1 82:1 131:1 137:1 149:1 197:1 279:1 338:1 408:1 415:1 441:1 471:1 491:1 514:1 521:1 523:1 581:1 629:1 722:1 726:1 731:1 740:1 806:1 824:1 1026:1 1031:1 1076:1 1203:1 1252:1 1282:1 1344:1 1417:1 1453:1 1479:1 1490:1 1494:1 1504:1 1533:1 1557:1 1627:1 1701:1 1729:1 1731:1 1777:1 1801:1 1811:1 1829:1 1836:1 1837:1 1882:1 1946:1 1981:1 2000:1 
0.6254598258221383 1:1 2:1 7:1 72:1 82:1 83:1 88:1 123:1 137:1 170:1 190:1 229:1 289:1 339:1 398:1 401:1 418:1 442:1 523:1 557:1 568:1 578:1 581:1 584:1 599:1 629:1 643:1 708:1 726:1 740:1 824:1 850:1 866:1 999:1 1010:1 1031:1 1036:1 1064:1 1091:1 1203:1 1211:1 1224:1 1243:1 1294:1 1329:1 1341:1 1407:1 1416:1 1458:1 1479:1 1490:1 1495:1 1538:1 1592:1 1599:1 1601:1 1605:1 1716:1 1882:1 1974:1 1981:1 1998:1 2000:1 2001:1 
6.180238129231954 7:1 8:1 195:1 229:1 439:1 521:1 629:1 708:1 722:1 728:1 760:1 785:1 846:1 1031:1 1479:1 1490:1 1500:1 1601:1 1762:1 1808:1 1826:1 1838:1 1997:1 
8 82:1 137:1 181:1 190:1 229:1 581:1 708:1 782:1 806:1 893:1 919:1 1224:1 1334:1 1454:1 1479:1 1627:1 1682:1 1801:1 1832:1 1882:1 
0.2085292835813453 82:1 83:1 168:1 170:1 212:1 223:1 229:1 261:1 309:1 353:1 369:1 389:1 420:1 461:1 521:1 523:1 578:1 599:1 629:1 649:1 722:1 780:1 889:1 892:1 1031:1 1041:1 1091:1 1224:1 1329:1 1335:1 1401:1 1451:1 1479:1 1490:1 1494:1 1599:1 1659:1 1762:1 1829:1 1837:1 1848:1 1882:1 1915:1 1998:1 1999:1 2000:1 
8 1:1 125:1 439:1 498:1 648:1 
8 63:1 223:1 323:1 420:1 659:1 836:1 1031:1 1199:1 1203:1 1329:1 1344:1 1417:1 1454:1 1479:1 1490:1 1494:1 1829:1 1962:1 2000:1 
2.28870092267339 1:1 88:1 119:1 137:1 223:1 229:1 278:1 340:1 354:1 491:1 501:1 521:1 557:1 581:1 596:1 599:1 613:1 722:1 754:1 780:1 785:1 822:1 893:1 904:1 1031:1 1064:1 1117:1 1192:1 1203:1 1236:1 1344:1 1370:1 1453:1 1454:1 1479:1 1490:1 1494:1 1523:1 1593:1 1599:1 1663:1 1682:1 1699:1 1731:1 1762:1 1827:1 1829:1 1837:1 1895:1 2000:1 
0.5237109928565582 3:1 83:1 89:1 137:1 169:1 217:1 431:1 740:1 822:1 827:1 959:1 1391:1 1393:1 1479:1 1738:1 1946:1 
2.496723600780957 8:1 21:1 24:1 30:1 43:1 81:1 82:1 83:1 88:1 99:1 123:1 137:1 160:1 177:1 178:1 191:1 193:1 205:1 218:1 223:1 224:1 229:1 240:1 251:1 264:1 278:1 287:1 308:1 309:1 311:1 320:1 323:1 364:1 389:1 393:1 398:1 418:1 420:1 424:1 425:1 442:1 489:1 491:1 518:1 521:1 523:1 524:1 528:1 555:1 561:1 599:1 609:1 620:1 623:1 667:1 674:1 677:1 682:1 696:1 708:1 722:1 726:1 728:1 733:1 743:1 745:1 746:1 770:1 782:1 798:1 822:1 854:1 883:1 893:1 911:1 919:1 922:1 970:1 1031:1 1036:1 1057:1 1064:1 1088:1 1203:1 1205:1 1231:1 1243:1 1301:1 1329:1 1335:1 1344:1 1369:1 1394:1 1400:1 1417:1 1439:1 1448:1 1451:1 1456:1 1479:1 1490:1 1494:1 1504:1 1545:1 1601:1 1625:1 1659:1 1666:1 1669:1 1678:1 1682:1 1743:1 1760:1 1762:1 1791:1 1793:1 1809:1 1826:1 1829:1 1832:1 1837:1 1848:1 1871:1 1872:1 1878:1 1882:1 1892:1 1911:1 1915:1 1977:1 1981:1 1998:1 1999:1 2000:1 2001:1 
8 21:1 82:1 137:1 190:1 229:1 353:1 599:1 708:1 790:1 958:1 1041:1 1177:1 1203:1 1224:1 1246:1 1301:1 1451:1 1479:1 1625:1 1704:1 1731:1 1997:1 
8 82:1 418:1 812:1 959:1 985:1 1031:1 1294:1 1554:1 1556:1 1796:1 1832:1 
0.5228080080609606 3:1 73:1 82:1 88:1 137:1 205:1 223:1 229:1 393:1 415:1 495:1 578:1 581:1 708:1 740:1 822:1 874:1 876:1 904:1 1031:1 1047:1 1090:1 1106:1 1149:1 1203:1 1214:1 1217:1 1232:1 1274:1 1301:1 1329:1 1335:1 1344:1 1386:1 1479:1 1494:1 1557:1 1590:1 1599:1 1650:1 1663:1 1682:1 1703:1 1762:1 1801:1 1829:1 1908:1 2000:1 
1.181049437389553 3:1 43:1 81:1 82:1 85:1 88:1 110:1 123:1 137:1 156:1 170:1 180:1 190:1 207:1 216:1 223:1 229:1 276:1 278:1 284:1 312:1 338:1 353:1 354:1 415:1 442:1 449:1 469:1 470:1 471:1 489:1 491:1 494:1 500:1 521:1 522:1 523:1 549:1 559:1 581:1 596:1 599:1 629:1 648:1 674:1 708:1 718:1 735:1 806:1 822:1 842:1 854:1 874:1 893:1 896:1 908:1 911:1 919:1 921:1 931:1 1031:1 1048:1 1057:1 1064:1 1093:1 1165:1 1177:1 1203:1 1224:1 1236:1 1251:1 1274:1 1294:1 1301:1 1335:1 1341:1 1344:1 1347:1 1410:1 1417:1 1453:1 1454:1 1479:1 1490:1 1494:1 1499:1 1504:1 1599:1 1601:1 1655:1 1682:1 1731:1 1738:1 1762:1 1809:1 1829:1 1832:1 1837:1 1841:1 1843:1 1861:1 1882:1 1935:1 1960:1 1981:1 1997:1 1998:1 1999:1 2000:1 
0.3756344992028969 11:1 32:1 43:1 78:1 79:1 82:1 83:1 123:1 130:1 137:1 165:1 180:1 190:1 223:1 229:1 235:1 239:1 242:1 246:1 264:1 300:1 383:1 398:1 410:1 420:1 442:1 453:1 456:1 489:1 518:1 523:1 524:1 557:1 575:1 578:1 581:1 599:1 605:1 609:1 652:1 674:1 675:1 693:1 708:1 722:1 770:1 774:1 782:1 812:1 817:1 822:1 851:1 854:1 874:1 889:1 893:1 896:1 919:1 931:1 998:1 1031:1 1036:1 1088:1 1091:1 1170:1 1203:1 1250:1 1251:1 1294:1 1329:1 1341:1 1344:1 1345:1 1386:1 1403:1 1453:1 1454:1 1464:1 1479:1 1490:1 1494:1 1503:1 1504:1 1533:1 1554:1 1564:1 1566:1 1595:1 1599:1 1601:1 1670:1 1682:1 1687:1 1713:1 1716:1 1731:1 1762:1 1764:1 1781:1 1809:1 1815:1 1822:1 1829:1 1837:1 1842:1 1844:1 1856:1 1882:1 1895:1 1912:1 1917:1 1997:1 1998:1 1999:1 2000:1 2001:1 
8 82:1 110:1 137:1 139:1 144:1 489:1 599:1 665:1 947:1 959:1 1227:1 1403:1 1494:1 1716:1 
4.865309936183359 11:1 20:1 34:1 82:1 83:1 123:1 155:1 188:1 229:1 491:1 578:1 581:1 623:1 674:1 705:1 708:1 722:1 782:1 893:1 959:1 1031:1 1047:1 1091:1 1186:1 1203:1 1250:1 1330:1 1344:1 1417:1 1453:1 1479:1 1490:1 1494:1 1601:1 1682:1 1723:1 1829:1 1832:1 2000:1 
8 83:1 144:1 229:1 278:1 556:1 964:1 1203:1 1453:1 1490:1 1532:1 1601:1 1627:1 1713:1 1814:1 
2.668609435741572 40:1 110:1 137:1 229:1 312:1 353:1 449:1 555:1 599:1 611:1 674:1 722:1 726:1 812:1 876:1 955:1 1031:1 1041:1 1047:1 1171:1 1218:1 1242:1 1246:1 1335:1 1362:1 1417:1 1479:1 1762:1 1826:1 1842:1 1846:1 1877:1 
1.194306219409323 3:1 28:1 63:1 82:1 83:1 88:1 103:1 120:1 123:1 126:1 130:1 137:1 188:1 190:1 205:1 207:1 214:1 223:1 229:1 232:1 246:1 256:1 287:1 323:1 355:1 367:1 415:1 439:1 442:1 449:1 455:1 471:1 491:1 521:1 523:1 564:1 569:1 581:1 592:1 599:1 609:1 610:1 611:1 619:1 622:1 662:1 674:1 709:1 722:1 726:1 728:1 753:1 775:1 782:1 806:1 822:1 827:1 836:1 850:1 851:1 874:1 893:1 911:1 919:1 959:1 965:1 990:1 991:1 993:1 994:1 999:1 1031:1 1047:1 1088:1 1177:1 1180:1 1197:1 1203:1 1220:1 1224:1 1250:1 1252:1 1263:1 1329:1 1335:1 1341:1 1342:1 1344:1 1386:1 1394:1 1400:1 1416:1 1417:1 1439:1 1453:1 1460:1 1479:1 1504:1 1522:1 1540:1 1543:1 1556:1 1601:1 1645:1 1647:1 1658:1 1663:1 1677:1 1682:1 1700:1 1713:1 1716:1 1731:1 1747:1 1754:1 1762:1 1793:1 1811:1 1821:1 1826:1 1832:1 1837:1 1858:1 1871:1 1898:1 1912:1 1981:1 1998:1 1999:1 
0.9754785032757599 3:1 21:1 42:1 82:1 131:1 169:1 191:1 229:1 611:1 675:1 720:1 722:1 740:1 817:1 850:1 923:1 1031:1 1093:1 1111:1 1335:1 1344:1 1369:1 1435:1 1479:1 1494:1 1552:1 1759:1 1762:1 1826:1 1829:1 1838:1 1898:1 1915:1 1946:1 1997:1 2000:1 
0.8954607542980223 3:1 43:1 47:1 51:1 78:1 79:1 82:1 83:1 85:1 130:1 137:1 177:1 190:1 191:1 223:1 226:1 229:1 264:1 278:1 296:1 308:1 309:1 311:1 323:1 354:1 398:1 401:1 442:1 489:1 491:1 521:1 572:1 578:1 599:1 601:1 606:1 611:1 674:1 682:1 708:1 722:1 740:1 760:1 773:1 798:1 817:1 822:1 848:1 866:1 875:1 893:1 896:1 911:1 919:1 950:1 990:1 1031:1 1046:1 1064:1 1091:1 1171:1 1174:1 1181:1 1203:1 1207:1 1214:1 1232:1 1274:1 1294:1 1301:1 1309:1 1354:1 1393:1 1465:1 1479:1 1490:1 1494:1 1504:1 1554:1 1557:1 1576:1 1583:1 1599:1 1601:1 1663:1 1682:1 1688:1 1701:1 1713:1 1731:1 1762:1 1818:1 1829:1 1837:1 1841:1 1882:1 1891:1 1898:1 1929:1 1981:1 1998:1 1999:1 2000:1 
5.189227754137917 63:1 82:1 83:1 88:1 131:1 137:1 148:1 170:1 223:1 229:1 276:1 308:1 366:1 440:1 471:1 489:1 521:1 611:1 632:1 668:1 680:1 722:1 740:1 775:1 803:1 805:1 806:1 854:1 880:1 893:1 919:1 959:1 994:1 999:1 1011:1 1017:1 1031:1 1036:1 1047:1 1190:1 1192:1 1203:1 1251:1 1294:1 1341:1 1344:1 1453:1 1479:1 1490:1 1494:1 1623:1 1627:1 1682:1 1723:1 1762:1 1819:1 1829:1 1838:1 1866:1 2000:1 
1.953272968365985 82:1 83:1 137:1 144:1 161:1 223:1 229:1 367:1 445:1 501:1 521:1 554:1 708:1 718:1 722:1 874:1 919:1 990:1 1203:1 1425:1 1490:1 1557:1 1627:1 1808:1 1882:1 1997:1 
0.7865802184630951 3:1 33:1 43:1 54:1 82:1 83:1 188:1 190:1 223:1 229:1 408:1 491:1 601:1 684:1 708:1 718:1 722:1 728:1 743:1 822:1 893:1 919:1 1106:1 1203:1 1224:1 1329:1 1344:1 1375:1 1402:1 1417:1 1479:1 1490:1 1494:1 1682:1 1688:1 1789:1 1829:1 1832:1 1882:1 1942:1 1997:1 2000:1 
0.1906200704750335 78:1 79:1 82:1 83:1 123:1 137:1 190:1 229:1 308:1 398:1 442:1 477:1 489:1 491:1 581:1 586:1 611:1 629:1 674:1 722:1 749:1 874:1 959:1 987:1 999:1 1013:1 1017:1 1031:1 1093:1 1106:1 1123:1 1139:1 1177:1 1203:1 1205:1 1214:1 1251:1 1329:1 1330:1 1335:1 1344:1 1453:1 1479:1 1494:1 1571:1 1731:1 1743:1 1762:1 1787:1 1829:1 1838:1 1843:1 1861:1 1873:1 2000:1 
0.2971879956297694 81:1 82:1 83:1 130:1 137:1 190:1 195:1 197:1 229:1 293:1 308:1 392:1 401:1 406:1 442:1 481:1 514:1 522:1 523:1 559:1 572:1 578:1 629:1 666:1 668:1 674:1 675:1 688:1 708:1 722:1 740:1 842:1 851:1 874:1 876:1 893:1 919:1 936:1 959:1 984:1 990:1 1009:1 1017:1 1031:1 1091:1 1106:1 1151:1 1183:1 1203:1 1223:1 1309:1 1325:1 1330:1 1335:1 1341:1 1344:1 1417:1 1429:1 1433:1 1446:1 1458:1 1466:1 1479:1 1490:1 1494:1 1595:1 1663:1 1682:1 1731:1 1789:1 1800:1 1819:1 1826:1 1829:1 1877:1 1915:1 2000:1 
0.4003550715806175 3:1 63:1 78:1 79:1 81:1 82:1 83:1 88:1 93:1 101:1 103:1 110:1 111:1 123:1 134:1 137:1 170:1 172:1 173:1 178:1 180:1 188:1 190:1 191:1 193:1 205:1 216:1 223:1 226:1 229:1 247:1 264:1 285:1 290:1 308:1 323:1 328:1 330:1 339:1 340:1 353:1 359:1 364:1 367:1 375:1 393:1 395:1 398:1 401:1 403:1 415:1 418:1 420:1 429:1 438:1 441:1 442:1 445:1 449:1 457:1 459:1 461:1 464:1 471:1 473:1 481:1 489:1 491:1 505:1 510:1 521:1 523:1 530:1 532:1 537:1 554:1 557:1 564:1 568:1 572:1 578:1 588:1 589:1 599:1 601:1 609:1 610:1 619:1 622:1 623:1 629:1 640:1 648:1 668:1 674:1 682:1 708:1 709:1 718:1 722:1 728:1 775:1 782:1 783:1 795:1 798:1 805:1 822:1 824:1 826:1 851:1 854:1 867:1 876:1 882:1 893:1 904:1 911:1 919:1 931:1 948:1 955:1 965:1 994:1 999:1 1000:1 1001:1 1031:1 1035:1 1036:1 1045:1 1047:1 1048:1 1054:1 1057:1 1064:1 1088:1 1091:1 1093:1 1108:1 1171:1 1197:1 1203:1 1223:1 1232:1 1241:1 1244:1 1251:1 1252:1 1263:1 1281:1 1283:1 1294:1 1329:1 1344:1 1386:1 1393:1 1402:1 1403:1 1407:1 1417:1 1430:1 1435:1 1453:1 1454:1 1472:1 1479:1 1485:1 1490:1 1494:1 1495:1 1504:1 1513:1 1532:1 1548:1 1557:1 1566:1 1581:1 1588:1 1592:1 1599:1 1601:1 1609:1 1633:1 1663:1 1666:1 1682:1 1713:1 1716:1 1731:1 1746:1 1762:1 1772:1 1797:1 1808:1 1815:1 1826:1 1829:1 1832:1 1835:1 1837:1 1839:1 1843:1 1846:1 1858:1 1871:1 1876:1 1877:1 1882:1 1895:1 1898:1 1911:1 1912:1 1932:1 1941:1 1951:1 1960:1 1997:1 1998:1 1999:1 2000:1 2001:1 
0.2585325462545928 2:1 72:1 73:1 83:1 89:1 123:1 130:1 137:1 147:1 161:1 169:1 170:1 180:1 184:1 188:1 190:1 191:1 213:1 216:1 223:1 229:1 246:1 249:1 261:1 264:1 278:1 323:1 330:1 353:1 393:1 398:1 401:1 410:1 415:1 418:1 439:1 442:1 449:1 462:1 473:1 489:1 491:1 497:1 501:1 504:1 516:1 521:1 523:1 545:1 564:1 572:1 578:1 581:1 587:1 601:1 606:1 609:1 610:1 611:1 619:1 641:1 643:1 649:1 668:1 674:1 675:1 707:1 708:1 718:1 722:1 726:1 740:1 746:1 756:1 775:1 797:1 806:1 822:1 858:1 875:1 882:1 889:1 893:1 896:1 919:1 937:1 940:1 948:1 950:1 955:1 959:1 965:1 972:1 973:1 993:1 994:1 999:1 1009:1 1017:1 1020:1 1026:1 1031:1 1036:1 1047:1 1048:1 1057:1 1064:1 1085:1 1088:1 1091:1 1093:1 1099:1 1108:1 1109:1 1130:1 1170:1 1185:1 1190:1 1192:1 1202:1 1203:1 1211:1 1214:1 1224:1 1225:1 1251:1 1280:1 1281:1 1294:1 1330:1 1335:1 1344:1 1385:1 1386:1 1417:1 1430:1 1435:1 1453:1 1454:1 1456:1 1479:1 1482:1 1490:1 1494:1 1495:1 1504:1 1513:1 1532:1 1535:1 1557:1 1561:1 1594:1 1599:1 1601:1 1619:1 1666:1 1673:1 1682:1 1684:1 1716:1 1723:1 1731:1 1754:1 1759:1 1762:1 1774:1 1777:1 1778:1 1789:1 1801:1 1815:1 1826:1 1829:1 1832:1 1835:1 1837:1 1838:1 1839:1 1841:1 1848:1 1871:1 1872:1 1873:1 1878:1 1882:1 1900:1 1912:1 1922:1 1951:1 2000:1 
0.3244513190038695 3:1 42:1 43:1 81:1 82:1 83:1 130:1 131:1 137:1 190:1 195:1 217:1 229:1 415:1 442:1 444:1 449:1 491:1 521:1 557:1 580:1 599:1 620:1 668:1 674:1 682:1 722:1 740:1 817:1 822:1 851:1 904:1 912:1 919:1 933:1 957:1 994:1 1031:1 1047:1 1088:1 1092:1 1186:1 1203:1 1205:1 1223:1 1225:1 1242:1 1281:1 1286:1 1294:1 1344:1 1357:1 1453:1 1479:1 1490:1 1494:1 1500:1 1513:1 1557:1 1593:1 1599:1 1609:1 1682:1 1731:1 1774:1 1789:1 1802:1 1815:1 1826:1 1829:1 1832:1 1837:1 1847:1 1869:1 1882:1 1898:1 1920:1 1997:1 1998:1 1999:1 2000:1 
2.048110544355255 3:1 81:1 82:1 88:1 123:1 130:1 257:1 364:1 392:1 418:1 489:1 557:1 629:1 708:1 740:1 790:1 931:1 1031:1 1047:1 1190:1 1199:1 1203:1 1274:1 1294:1 1329:1 1344:1 1435:1 1479:1 1494:1 1554:1 1633:1 1731:1 1826:1 1829:1 1832:1 1882:1 1892:1 1894:1 1898:1 2000:1 
8 83:1 123:1 137:1 207:1 229:1 232:1 460:1 581:1 583:1 648:1 659:1 674:1 708:1 718:1 722:1 726:1 771:1 822:1 886:1 965:1 991:1 992:1 1010:1 1031:1 1151:1 1203:1 1239:1 1344:1 1479:1 1494:1 1682:1 1829:1 1836:1 1837:1 2000:1 2001:1 
8 83:1 137:1 229:1 431:1 489:1 581:1 623:1 893:1 959:1 967:1 1199:1 1344:1 1479:1 1513:1 1682:1 
8 385:1 605:1 623:1 722:1 773:1 806:1 1159:1 1335:1 1454:1 1479:1 1627:1 1915:1 
0.2819491243441137 3:1 82:1 229:1 459:1 824:1 919:1 959:1 1031:1 1045:1 1190:1 1203:1 1245:1 1281:1 1375:1 1403:1 1479:1 1566:1 1637:1 1731:1 1832:1 
7.556368452090752 82:1 96:1 137:1 293:1 312:1 666:1 675:1 807:1 1022:1 1454:1 1479:1 1718:1 1915:1 1997:1 
1.797117623522213 3:1 33:1 52:1 82:1 89:1 170:1 205:1 229:1 304:1 312:1 364:1 521:1 557:1 581:1 601:1 623:1 722:1 725:1 726:1 740:1 822:1 893:1 911:1 994:1 1031:1 1162:1 1203:1 1263:1 1281:1 1344:1 1363:1 1479:1 1490:1 1494:1 1495:1 1601:1 1634:1 1635:1 1682:1 1716:1 1791:1 1820:1 1829:1 1911:1 1960:1 2000:1 
8 82:1 137:1 611:1 806:1 822:1 893:1 990:1 1627:1 1682:1 1745:1 1946:1 
8 82:1 83:1 161:1 195:1 223:1 457:1 690:1 718:1 1203:1 1344:1 1435:1 1479:1 1490:1 1494:1 1580:1 1714:1 1829:1 1835:1 2000:1 
2.424780750440678 82:1 99:1 137:1 216:1 223:1 229:1 521:1 581:1 708:1 718:1 921:1 931:1 1093:1 1185:1 1203:1 1329:1 1341:1 1344:1 1453:1 1479:1 1494:1 1498:1 1677:1 1682:1 1716:1 1798:1 1826:1 1829:1 1898:1 2000:1 
1.196762532155941 3:1 82:1 83:1 110:1 229:1 278:1 412:1 460:1 581:1 674:1 690:1 718:1 740:1 832:1 874:1 973:1 1031:1 1099:1 1193:1 1203:1 1220:1 1237:1 1251:1 1301:1 1312:1 1329:1 1344:1 1436:1 1479:1 1494:1 1532:1 1557:1 1599:1 1682:1 1716:1 1826:1 1829:1 1832:1 1871:1 2000:1 
4.427361176675828 61:1 82:1 83:1 137:1 190:1 229:1 264:1 278:1 457:1 464:1 489:1 557:1 578:1 718:1 728:1 836:1 854:1 999:1 1058:1 1185:1 1335:1 1344:1 1479:1 1490:1 1494:1 1504:1 1566:1 1762:1 1829:1 2000:1 
1.711423565489289 39:1 82:1 137:1 406:1 442:1 450:1 477:1 959:1 984:1 1151:1 
0.8915137693719133 3:1 83:1 85:1 123:1 137:1 291:1 323:1 330:1 367:1 385:1 674:1 806:1 822:1 893:1 904:1 1035:1 1088:1 1203:1 1274:1 1344:1 1393:1 1435:1 1479:1 1494:1 1650:1 1682:1 1829:1 1832:1 1912:1 2000:1 
8 48:1 155:1 246:1 489:1 632:1 959:1 987:1 1057:1 1479:1 1490:1 1757:1 1781:1 1997:1 
1.768370435424101 21:1 78:1 79:1 82:1 83:1 85:1 88:1 137:1 190:1 191:1 229:1 276:1 308:1 323:1 353:1 429:1 443:1 489:1 491:1 521:1 531:1 552:1 581:1 601:1 611:1 629:1 674:1 712:1 713:1 740:1 808:1 812:1 822:1 872:1 882:1 889:1 893:1 908:1 919:1 921:1 959:1 967:1 994:1 1031:1 1047:1 1050:1 1167:1 1171:1 1190:1 1203:1 1301:1 1335:1 1345:1 1439:1 1454:1 1479:1 1485:1 1494:1 1513:1 1601:1 1663:1 1666:1 1670:1 1700:1 1716:1 1759:1 1762:1 1777:1 1826:1 1829:1 1835:1 1837:1 1842:1 1882:1 1903:1 1906:1 1912:1 1915:1 1946:1 1969:1 1997:1 
6.032576281468613 82:1 137:1 229:1 337:1 420:1 489:1 491:1 521:1 728:1 745:1 806:1 882:1 999:1 1024:1 1031:1 1060:1 1203:1 1232:1 1329:1 1452:1 1454:1 1479:1 1490:1 1731:1 1785:1 
1.033077070793594 88:1 137:1 229:1 418:1 581:1 822:1 893:1 990:1 1106:1 1167:1 1453:1 1479:1 1494:1 1504:1 1564:1 1663:1 1762:1 1829:1 2000:1 
1.46102266968132 82:1 88:1 123:1 137:1 190:1 191:1 239:1 240:1 249:1 261:1 323:1 401:1 415:1 440:1 442:1 521:1 593:1 599:1 622:1 629:1 660:1 674:1 722:1 740:1 782:1 822:1 824:1 899:1 917:1 994:1 1031:1 1047:1 1057:1 1064:1 1090:1 1106:1 1165:1 1203:1 1223:1 1242:1 1329:1 1344:1 1396:1 1456:1 1479:1 1484:1 1490:1 1494:1 1557:1 1595:1 1601:1 1682:1 1706:1 1731:1 1762:1 1764:1 1772:1 1837:1 1877:1 2000:1 
8 229:1 415:1 581:1 599:1 726:1 1041:1 1335:1 1342:1 1400:1 1451:1 1453:1 1479:1 1504:1 1832:1 1946:1 
8 83:1 137:1 229:1 431:1 489:1 581:1 623:1 893:1 959:1 967:1 1199:1 1344:1 1479:1 1513:1 1682:1 
8 385:1 605:1 623:1 722:1 773:1 806:1 1159:1 1335:1 1454:1 1479:1 1627:1 1915:1 
2.016307795645965 3:1 110:1 113:1 131:1 137:1 191:1 229:1 232:1 353:1 418:1 470:1 520:1 623:1 629:1 674:1 722:1 822:1 919:1 1031:1 1057:1 1170:1 1203:1 1236:1 1281:1 1311:1 1329:1 1464:1 1479:1 1492:1 1494:1 1499:1 1601:1 1627:1 1630:1 1729:1 1762:1 1829:1 2000:1 
2.269296961798149 78:1 79:1 82:1 137:1 162:1 190:1 195:1 223:1 229:1 240:1 246:1 276:1 289:1 399:1 415:1 418:1 442:1 547:1 578:1 581:1 584:1 620:1 623:1 629:1 652:1 655:1 668:1 708:1 722:1 791:1 842:1 844:1 846:1 851:1 876:1 892:1 893:1 912:1 947:1 1031:1 1091:1 1102:1 1168:1 1190:1 1203:1 1205:1 1223:1 1224:1 1243:1 1425:1 1454:1 1479:1 1494:1 1519:1 1557:1 1594:1 1601:1 1723:1 1819:1 1829:1 1882:1 1895:1 1903:1 1942:1 1946:1 2000:1 
6.310340565334581 88:1 154:1 190:1 229:1 308:1 373:1 578:1 665:1 708:1 745:1 782:1 806:1 817:1 822:1 892:1 919:1 941:1 1091:1 1113:1 1272:1 1354:1 1454:1 1479:1 1494:1 1531:1 1557:1 1576:1 1663:1 1785:1 1890:1 1929:1 
8 39:1 82:1 137:1 406:1 442:1 450:1 477:1 959:1 984:1 1151:1 
8 82:1 88:1 106:1 170:1 205:1 1329:1 1627:1 
1.392253730714828 78:1 79:1 81:1 82:1 94:1 137:1 229:1 278:1 311:1 353:1 362:1 561:1 581:1 718:1 822:1 868:1 1031:1 1048:1 1057:1 1115:1 1203:1 1321:1 1329:1 1494:1 1599:1 1705:1 1717:1 1762:1 1829:1 1882:1 1885:1 1898:1 1977:1 1997:1 2000:1 
2.065458152853141 78:1 79:1 80:1 82:1 137:1 140:1 162:1 170:1 229:1 291:1 456:1 477:1 481:1 489:1 629:1 674:1 708:1 775:1 801:1 805:1 893:1 919:1 1098:1 1203:1 1214:1 1232:1 1243:1 1329:1 1417:1 1479:1 1564:1 1682:1 1738:1 1832:1 1838:1 1882:1 
1.764757951418004 21:1 82:1 83:1 103:1 106:1 123:1 130:1 137:1 190:1 213:1 216:1 221:1 223:1 229:1 264:1 323:1 415:1 418:1 420:1 455:1 481:1 489:1 521:1 523:1 564:1 578:1 609:1 610:1 648:1 663:1 668:1 674:1 680:1 682:1 718:1 740:1 753:1 785:1 791:1 806:1 822:1 850:1 866:1 889:1 893:1 896:1 919:1 921:1 922:1 931:1 933:1 991:1 1017:1 1031:1 1064:1 1083:1 1091:1 1130:1 1171:1 1203:1 1251:1 1294:1 1326:1 1329:1 1335:1 1338:1 1370:1 1420:1 1435:1 1437:1 1479:1 1490:1 1504:1 1551:1 1554:1 1557:1 1622:1 1623:1 1627:1 1670:1 1682:1 1716:1 1723:1 1731:1 1759:1 1762:1 1808:1 1809:1 1832:1 1837:1 1839:1 1843:1 1844:1 1848:1 1871:1 1882:1 1908:1 1909:1 1912:1 1915:1 1957:1 1991:1 1996:1 2001:1 
0.442068377843888 23:1 45:1 78:1 79:1 81:1 82:1 83:1 85:1 92:1 106:1 124:1 137:1 157:1 165:1 170:1 180:1 190:1 200:1 223:1 229:1 232:1 240:1 264:1 323:1 391:1 398:1 418:1 432:1 442:1 449:1 457:1 489:1 518:1 519:1 521:1 523:1 532:1 557:1 561:1 581:1 599:1 603:1 609:1 610:1 611:1 613:1 620:1 623:1 629:1 642:1 643:1 653:1 674:1 707:1 708:1 722:1 725:1 733:1 740:1 743:1 772:1 775:1 791:1 797:1 812:1 822:1 824:1 851:1 893:1 898:1 911:1 917:1 919:1 920:1 921:1 955:1 965:1 1031:1 1064:1 1088:1 1091:1 1111:1 1118:1 1145:1 1190:1 1203:1 1220:1 1224:1 1251:1 1281:1 1294:1 1316:1 1329:1 1335:1 1344:1 1386:1 1393:1 1427:1 1432:1 1435:1 1456:1 1474:1 1479:1 1490:1 1494:1 1504:1 1532:1 1557:1 1601:1 1642:1 1682:1 1716:1 1718:1 1731:1 1746:1 1762:1 1809:1 1826:1 1829:1 1832:1 1836:1 1837:1 1838:1 1844:1 1867:1 1871:1 1873:1 1882:1 1911:1 1915:1 1953:1 1997:1 1998:1 1999:1 2000:1 2001:1 
1.016683561968544 82:1 83:1 106:1 137:1 204:1 229:1 270:1 323:1 324:1 442:1 489:1 554:1 609:1 620:1 675:1 718:1 728:1 739:1 740:1 854:1 970:1 1031:1 1075:1 1088:1 1203:1 1281:1 1294:1 1328:1 1344:1 1479:1 1490:1 1494:1 1554:1 1556:1 1599:1 1705:1 1716:1 1762:1 1829:1 1835:1 1882:1 1930:1 2000:1 
0.6116743064972663 83:1 103:1 110:1 127:1 131:1 137:1 170:1 191:1 205:1 223:1 229:1 240:1 249:1 283:1 353:1 398:1 415:1 418:1 442:1 449:1 456:1 489:1 491:1 521:1 523:1 554:1 564:1 569:1 578:1 581:1 620:1 624:1 629:1 648:1 668:1 674:1 703:1 731:1 740:1 743:1 775:1 807:1 816:1 822:1 876:1 893:1 919:1 931:1 943:1 959:1 987:1 999:1 1031:1 1035:1 1057:1 1060:1 1064:1 1088:1 1091:1 1108:1 1151:1 1165:1 1203:1 1205:1 1232:1 1258:1 1282:1 1285:1 1294:1 1325:1 1329:1 1354:1 1456:1 1479:1 1490:1 1494:1 1500:1 1552:1 1599:1 1601:1 1682:1 1716:1 1731:1 1744:1 1762:1 1770:1 1826:1 1829:1 1832:1 1871:1 1882:1 2000:1 
1.272571291899758 3:1 43:1 81:1 82:1 83:1 88:1 99:1 123:1 137:1 180:1 188:1 190:1 222:1 223:1 229:1 272:1 278:1 279:1 289:1 323:1 362:1 367:1 392:1 418:1 420:1 489:1 491:1 514:1 521:1 523:1 564:1 592:1 599:1 616:1 629:1 642:1 667:1 677:1 682:1 684:1 696:1 708:1 785:1 798:1 822:1 850:1 904:1 911:1 919:1 990:1 999:1 1031:1 1036:1 1064:1 1106:1 1108:1 1199:1 1203:1 1205:1 1218:1 1224:1 1236:1 1242:1 1251:1 1304:1 1323:1 1335:1 1378:1 1386:1 1417:1 1435:1 1470:1 1473:1 1479:1 1490:1 1511:1 1541:1 1593:1 1599:1 1600:1 1655:1 1666:1 1682:1 1716:1 1742:1 1762:1 1826:1 1829:1 1832:1 1837:1 1852:1 1874:1 1882:1 1930:1 2000:1 
2.135436825634764 3:1 82:1 123:1 170:1 229:1 278:1 285:1 353:1 354:1 441:1 521:1 523:1 581:1 624:1 674:1 732:1 743:1 750:1 822:1 846:1 851:1 893:1 922:1 928:1 955:1 1031:1 1190:1 1244:1 1329:1 1344:1 1479:1 1490:1 1494:1 1549:1 1682:1 1716:1 1829:1 1832:1 1877:1 1882:1 1911:1 2000:1 
0.9966826243195743 3:1 82:1 85:1 98:1 106:1 137:1 166:1 180:1 190:1 191:1 223:1 229:1 336:1 358:1 442:1 489:1 491:1 578:1 581:1 611:1 620:1 646:1 667:1 684:1 740:1 746:1 759:1 822:1 1031:1 1091:1 1126:1 1192:1 1203:1 1224:1 1236:1 1335:1 1345:1 1357:1 1393:1 1453:1 1479:1 1490:1 1650:1 1674:1 1677:1 1682:1 1713:1 1716:1 1748:1 1754:1 1762:1 1811:1 1871:1 1912:1 1942:1 1997:1 
1.764079972606262 3:1 21:1 82:1 83:1 130:1 190:1 216:1 223:1 229:1 270:1 293:1 420:1 489:1 523:1 581:1 666:1 674:1 708:1 718:1 726:1 728:1 760:1 770:1 812:1 859:1 896:1 908:1 933:1 994:1 998:1 1017:1 1076:1 1106:1 1115:1 1203:1 1224:1 1272:1 1328:1 1335:1 1344:1 1407:1 1479:1 1504:1 1507:1 1595:1 1714:1 1777:1 1787:1 1800:1 1815:1 1835:1 1838:1 1911:1 1915:1 2000:1 
1.847139937758179 3:1 82:1 83:1 137:1 195:1 197:1 229:1 276:1 278:1 309:1 415:1 442:1 453:1 555:1 557:1 581:1 601:1 629:1 722:1 822:1 824:1 893:1 1031:1 1057:1 1119:1 1203:1 1274:1 1281:1 1454:1 1479:1 1489:1 1619:1 1642:1 1666:1 1682:1 1718:1 1826:1 1835:1 1843:1 1882:1 
8 82:1 137:1 232:1 278:1 323:1 426:1 489:1 629:1 659:1 674:1 688:1 806:1 822:1 893:1 902:1 959:1 965:1 1031:1 1076:1 1203:1 1335:1 1344:1 1479:1 1494:1 1504:1 1513:1 1627:1 1663:1 1682:1 1743:1 1749:1 1811:1 1829:1 1882:1 1928:1 1946:1 1960:1 1981:1 2000:1 
5.697670023901093 3:1 82:1 83:1 127:1 180:1 205:1 222:1 223:1 229:1 261:1 308:1 489:1 521:1 581:1 601:1 690:1 726:1 822:1 959:1 1031:1 1203:1 1281:1 1335:1 1359:1 1385:1 1479:1 1494:1 1540:1 1566:1 1681:1 1682:1 1742:1 1829:1 1832:1 1882:1 1930:1 2000:1 
6.52696130094252 43:1 70:1 82:1 110:1 137:1 190:1 191:1 229:1 323:1 442:1 488:1 489:1 521:1 522:1 547:1 564:1 581:1 639:1 642:1 674:1 745:1 791:1 796:1 822:1 893:1 896:1 931:1 1031:1 1064:1 1190:1 1203:1 1281:1 1307:1 1312:1 1344:1 1393:1 1417:1 1430:1 1479:1 1494:1 1533:1 1601:1 1658:1 1682:1 1697:1 1766:1 1798:1 1826:1 1829:1 1832:1 1836:1 2000:1 
1.53304948807792 3:1 43:1 82:1 83:1 103:1 137:1 144:1 163:1 165:1 180:1 191:1 200:1 213:1 229:1 278:1 324:1 362:1 391:1 393:1 442:1 449:1 489:1 491:1 521:1 550:1 556:1 581:1 599:1 601:1 611:1 622:1 645:1 668:1 674:1 703:1 718:1 775:1 803:1 822:1 854:1 876:1 919:1 966:1 999:1 1031:1 1095:1 1166:1 1190:1 1199:1 1203:1 1251:1 1263:1 1294:1 1335:1 1341:1 1344:1 1402:1 1403:1 1453:1 1479:1 1490:1 1494:1 1504:1 1516:1 1566:1 1601:1 1655:1 1670:1 1682:1 1716:1 1718:1 1729:1 1731:1 1757:1 1762:1 1777:1 1789:1 1829:1 1837:1 1838:1 1871:1 1882:1 1906:1 1932:1 1941:1 2000:1 2001:1 
1.466953627324629 3:1 21:1 23:1 43:1 45:1 73:1 82:1 83:1 88:1 110:1 113:1 124:1 133:1 137:1 139:1 179:1 217:1 223:1 225:1 229:1 276:1 278:1 296:1 309:1 311:1 340:1 353:1 392:1 398:1 401:1 415:1 442:1 459:1 469:1 470:1 489:1 491:1 503:1 514:1 521:1 523:1 533:1 545:1 578:1 581:1 584:1 599:1 600:1 601:1 603:1 619:1 623:1 624:1 643:1 668:1 674:1 708:1 718:1 726:1 745:1 771:1 775:1 782:1 789:1 803:1 822:1 850:1 854:1 893:1 919:1 921:1 941:1 948:1 951:1 976:1 1011:1 1017:1 1031:1 1035:1 1036:1 1047:1 1057:1 1064:1 1075:1 1077:1 1089:1 1091:1 1111:1 1190:1 1192:1 1203:1 1207:1 1220:1 1223:1 1230:1 1273:1 1274:1 1281:1 1294:1 1321:1 1329:1 1332:1 1370:1 1386:1 1402:1 1454:1 1476:1 1479:1 1490:1 1494:1 1513:1 1554:1 1557:1 1599:1 1601:1 1611:1 1713:1 1714:1 1716:1 1729:1 1731:1 1744:1 1762:1 1789:1 1791:1 1793:1 1799:1 1801:1 1808:1 1815:1 1829:1 1832:1 1838:1 1841:1 1873:1 1882:1 1912:1 1915:1 1941:1 1942:1 1946:1 1974:1 1975:1 2000:1 
0.798574146564303 3:1 25:1 82:1 83:1 130:1 173:1 190:1 229:1 278:1 312:1 323:1 330:1 489:1 490:1 510:1 523:1 557:1 561:1 629:1 648:1 674:1 785:1 816:1 854:1 898:1 919:1 990:1 994:1 1033:1 1048:1 1177:1 1220:1 1224:1 1251:1 1329:1 1435:1 1479:1 1494:1 1618:1 1629:1 1630:1 1663:1 1666:1 1795:1 1829:1 1832:1 1882:1 1892:1 1912:1 2000:1 
8 83:1 229:1 415:1 846:1 920:1 959:1 987:1 1031:1 1236:1 1294:1 1490:1 
8 21:1 83:1 138:1 229:1 415:1 442:1 459:1 491:1 533:1 556:1 623:1 743:1 798:1 822:1 893:1 921:1 1031:1 1294:1 1311:1 1332:1 1386:1 1435:1 1479:1 1490:1 1532:1 1564:1 1682:1 
0.6286971554030693 39:1 82:1 83:1 123:1 139:1 162:1 180:1 229:1 312:1 337:1 367:1 415:1 449:1 489:1 521:1 554:1 569:1 578:1 674:1 696:1 708:1 718:1 726:1 740:1 782:1 806:1 822:1 854:1 876:1 919:1 935:1 950:1 990:1 994:1 999:1 1001:1 1031:1 1047:1 1091:1 1093:1 1108:1 1203:1 1206:1 1220:1 1230:1 1251:1 1305:1 1344:1 1403:1 1425:1 1453:1 1479:1 1490:1 1494:1 1576:1 1601:1 1606:1 1716:1 1762:1 1799:1 1829:1 1832:1 1842:1 1882:1 1912:1 1920:1 2000:1 
2.17101750774099 3:1 81:1 82:1 83:1 110:1 123:1 137:1 180:1 190:1 217:1 229:1 278:1 323:1 328:1 353:1 364:1 404:1 442:1 521:1 523:1 578:1 581:1 599:1 623:1 629:1 642:1 666:1 674:1 718:1 722:1 822:1 824:1 827:1 872:1 876:1 891:1 893:1 919:1 965:1 999:1 1031:1 1057:1 1076:1 1091:1 1093:1 1095:1 1176:1 1186:1 1197:1 1199:1 1203:1 1220:1 1221:1 1243:1 1252:1 1263:1 1294:1 1344:1 1400:1 1417:1 1435:1 1439:1 1479:1 1490:1 1494:1 1504:1 1533:1 1587:1 1605:1 1623:1 1682:1 1716:1 1754:1 1772:1 1829:1 1832:1 1846:1 1890:1 1911:1 1912:1 1928:1 1930:1 1934:1 1940:1 1963:1 1990:1 1998:1 1999:1 2000:1 2001:1 
0.4794796915809845 82:1 103:1 130:1 137:1 162:1 190:1 229:1 354:1 415:1 461:1 489:1 564:1 581:1 599:1 660:1 708:1 726:1 728:1 822:1 893:1 955:1 990:1 1126:1 1165:1 1375:1 1417:1 1418:1 1473:1 1479:1 1494:1 1593:1 1599:1 1650:1 1670:1 1677:1 1682:1 1716:1 1731:1 1774:1 1775:1 1829:1 1832:1 1898:1 1912:1 1915:1 1928:1 2000:1 
0.9140670625565437 3:1 78:1 79:1 82:1 83:1 110:1 123:1 130:1 137:1 173:1 176:1 188:1 190:1 191:1 214:1 216:1 223:1 229:1 240:1 272:1 278:1 285:1 286:1 287:1 324:1 354:1 367:1 392:1 415:1 475:1 489:1 521:1 524:1 537:1 578:1 598:1 599:1 605:1 611:1 620:1 627:1 629:1 662:1 672:1 674:1 675:1 708:1 754:1 774:1 801:1 822:1 851:1 854:1 876:1 889:1 911:1 919:1 931:1 951:1 994:1 999:1 1031:1 1036:1 1048:1 1057:1 1064:1 1091:1 1112:1 1121:1 1177:1 1203:1 1223:1 1276:1 1307:1 1311:1 1335:1 1399:1 1417:1 1439:1 1453:1 1454:1 1458:1 1479:1 1490:1 1494:1 1495:1 1504:1 1513:1 1532:1 1599:1 1601:1 1663:1 1673:1 1691:1 1713:1 1716:1 1723:1 1762:1 1829:1 1832:1 1837:1 1843:1 1871:1 1875:1 1942:1 1946:1 1997:1 2000:1 
1.433192293326273 3:1 47:1 58:1 78:1 79:1 82:1 83:1 103:1 124:1 137:1 180:1 190:1 213:1 229:1 261:1 323:1 362:1 364:1 367:1 398:1 442:1 489:1 491:1 502:1 521:1 561:1 578:1 581:1 599:1 601:1 619:1 620:1 629:1 643:1 675:1 708:1 740:1 791:1 806:1 822:1 851:1 874:1 919:1 931:1 987:1 996:1 999:1 1031:1 1057:1 1064:1 1091:1 1108:1 1125:1 1203:1 1214:1 1220:1 1225:1 1251:1 1252:1 1311:1 1344:1 1370:1 1407:1 1417:1 1453:1 1470:1 1479:1 1490:1 1494:1 1542:1 1599:1 1601:1 1682:1 1716:1 1723:1 1762:1 1774:1 1793:1 1829:1 1838:1 1843:1 1844:1 1870:1 1890:1 1911:1 1920:1 1928:1 1972:1 1996:1 1997:1 2000:1 
0.5563055367881163 3:1 82:1 83:1 88:1 190:1 212:1 223:1 229:1 278:1 521:1 581:1 601:1 623:1 740:1 746:1 796:1 931:1 1031:1 1047:1 1048:1 1054:1 1068:1 1203:1 1251:1 1257:1 1316:1 1344:1 1358:1 1479:1 1490:1 1494:1 1682:1 1731:1 1762:1 1827:1 1829:1 1911:1 1998:1 1999:1 2000:1 
1.914036472669805 19:1 41:1 54:1 78:1 79:1 82:1 83:1 110:1 123:1 137:1 190:1 195:1 205:1 229:1 268:1 304:1 309:1 385:1 414:1 420:1 489:1 491:1 521:1 523:1 524:1 542:1 557:1 578:1 601:1 623:1 646:1 706:1 718:1 722:1 728:1 740:1 823:1 836:1 875:1 893:1 919:1 931:1 965:1 987:1 1024:1 1026:1 1031:1 1159:1 1203:1 1224:1 1229:1 1237:1 1294:1 1321:1 1329:1 1342:1 1344:1 1369:1 1375:1 1413:1 1442:1 1454:1 1467:1 1479:1 1490:1 1494:1 1503:1 1510:1 1554:1 1562:1 1640:1 1667:1 1682:1 1718:1 1725:1 1726:1 1729:1 1762:1 1826:1 1827:1 1829:1 1912:1 1965:1 1975:1 1997:1 2000:1 
1.604793013304111 3:1 82:1 83:1 88:1 98:1 103:1 117:1 123:1 137:1 180:1 190:1 223:1 226:1 229:1 264:1 266:1 287:1 323:1 324:1 392:1 418:1 420:1 439:1 442:1 489:1 498:1 521:1 523:1 536:1 564:1 581:1 599:1 620:1 652:1 674:1 684:1 700:1 728:1 743:1 764:1 821:1 822:1 853:1 872:1 911:1 917:1 919:1 921:1 955:1 999:1 1017:1 1031:1 1048:1 1057:1 1064:1 1146:1 1151:1 1168:1 1190:1 1192:1 1203:1 1224:1 1230:1 1244:1 1251:1 1273:1 1274:1 1294:1 1329:1 1335:1 1344:1 1369:1 1393:1 1435:1 1449:1 1453:1 1466:1 1467:1 1470:1 1479:1 1486:1 1490:1 1494:1 1554:1 1556:1 1560:1 1564:1 1596:1 1601:1 1649:1 1716:1 1762:1 1764:1 1826:1 1829:1 1832:1 1838:1 1842:1 1843:1 1872:1 1882:1 2000:1 
5.259059203986367 133:1 168:1 170:1 190:1 229:1 367:1 392:1 397:1 449:1 489:1 491:1 521:1 578:1 674:1 740:1 758:1 822:1 846:1 893:1 1017:1 1031:1 1050:1 1064:1 1091:1 1106:1 1294:1 1479:1 1482:1 1490:1 1554:1 1682:1 1819:1 1932:1 
0.4988665073105559 73:1 83:1 106:1 127:1 130:1 137:1 170:1 184:1 223:1 229:1 264:1 287:1 308:1 312:1 364:1 393:1 415:1 442:1 489:1 516:1 517:1 521:1 523:1 601:1 643:1 674:1 708:1 718:1 726:1 740:1 822:1 919:1 931:1 964:1 994:1 1031:1 1041:1 1091:1 1093:1 1153:1 1185:1 1192:1 1203:1 1225:1 1245:1 1251:1 1274:1 1294:1 1321:1 1329:1 1335:1 1344:1 1385:1 1430:1 1435:1 1453:1 1454:1 1470:1 1479:1 1490:1 1494:1 1511:1 1584:1 1713:1 1714:1 1716:1 1723:1 1762:1 1766:1 1801:1 1829:1 1832:1 1871:1 1882:1 1898:1 1993:1 2000:1 
0.2257500382471609 3:1 82:1 110:1 137:1 212:1 217:1 229:1 232:1 271:1 278:1 353:1 359:1 423:1 489:1 806:1 822:1 947:1 1031:1 1171:1 1256:1 1259:1 1312:1 1344:1 1399:1 1479:1 1494:1 1533:1 1601:1 1716:1 1762:1 1811:1 1829:1 1837:1 2000:1 
8 3:1 82:1 117:1 137:1 190:1 229:1 309:1 489:1 599:1 660:1 696:1 740:1 824:1 922:1 994:1 1031:1 1149:1 1224:1 1344:1 1470:1 1479:1 1490:1 1494:1 1599:1 1635:1 1754:1 1762:1 1785:1 1829:1 1837:1 1892:1 1911:1 1997:1 2000:1 
1.780670406185763 24:1 81:1 82:1 83:1 110:1 137:1 144:1 170:1 180:1 183:1 193:1 229:1 309:1 311:1 354:1 364:1 440:1 442:1 449:1 450:1 489:1 552:1 559:1 578:1 581:1 623:1 629:1 667:1 674:1 675:1 688:1 708:1 726:1 728:1 739:1 740:1 743:1 785:1 806:1 822:1 827:1 836:1 893:1 1031:1 1091:1 1170:1 1192:1 1203:1 1231:1 1236:1 1321:1 1329:1 1335:1 1344:1 1417:1 1454:1 1474:1 1479:1 1494:1 1499:1 1513:1 1532:1 1601:1 1625:1 1663:1 1682:1 1687:1 1713:1 1714:1 1716:1 1762:1 1819:1 1826:1 1829:1 1832:1 1836:1 1837:1 1847:1 1891:1 1895:1 1943:1 2000:1 
2.840954700342473 1:1 83:1 147:1 163:1 276:1 323:1 351:1 392:1 415:1 427:1 476:1 477:1 521:1 601:1 660:1 718:1 822:1 893:1 1031:1 1067:1 1118:1 1119:1 1138:1 1192:1 1294:1 1329:1 1454:1 1478:1 1479:1 1601:1 1682:1 1882:1 1915:1 
0.5202474411643407 3:1 82:1 130:1 137:1 180:1 190:1 212:1 223:1 229:1 264:1 276:1 278:1 279:1 281:1 287:1 306:1 315:1 323:1 398:1 418:1 556:1 561:1 564:1 578:1 581:1 593:1 596:1 610:1 611:1 622:1 623:1 674:1 689:1 708:1 745:1 750:1 806:1 822:1 919:1 937:1 974:1 1031:1 1047:1 1057:1 1091:1 1197:1 1203:1 1220:1 1238:1 1251:1 1274:1 1281:1 1294:1 1329:1 1335:1 1344:1 1370:1 1394:1 1435:1 1454:1 1479:1 1483:1 1490:1 1494:1 1601:1 1663:1 1682:1 1716:1 1738:1 1779:1 1829:1 1873:1 1882:1 1891:1 1898:1 1912:1 1928:1 1997:1 2000:1 2001:1 
3.094260444692518 3:1 82:1 223:1 229:1 354:1 415:1 442:1 489:1 521:1 557:1 564:1 581:1 599:1 610:1 665:1 718:1 728:1 743:1 782:1 785:1 822:1 851:1 896:1 919:1 1031:1 1057:1 1294:1 1329:1 1344:1 1386:1 1417:1 1479:1 1494:1 1682:1 1700:1 1754:1 1762:1 1774:1 1777:1 1829:1 1835:1 1837:1 1890:1 2000:1 
4.536764904998964 3:1 82:1 83:1 103:1 191:1 195:1 205:1 229:1 272:1 287:1 404:1 440:1 457:1 521:1 559:1 581:1 629:1 653:1 722:1 876:1 893:1 921:1 1017:1 1065:1 1139:1 1329:1 1344:1 1479:1 1490:1 1494:1 1593:1 1714:1 1829:1 1911:1 2000:1 
1.268354685880154 82:1 110:1 162:1 223:1 278:1 312:1 353:1 359:1 392:1 415:1 418:1 449:1 489:1 550:1 559:1 601:1 603:1 629:1 674:1 708:1 726:1 750:1 806:1 827:1 832:1 851:1 919:1 994:1 999:1 1031:1 1064:1 1091:1 1093:1 1321:1 1329:1 1344:1 1385:1 1435:1 1454:1 1456:1 1460:1 1479:1 1490:1 1494:1 1598:1 1601:1 1627:1 1667:1 1682:1 1709:1 1716:1 1731:1 1762:1 1824:1 1829:1 1832:1 1871:1 1890:1 1946:1 2000:1 
1.008149179777646 1:1 41:1 72:1 78:1 79:1 80:1 81:1 82:1 83:1 85:1 88:1 123:1 130:1 137:1 138:1 142:1 144:1 165:1 168:1 170:1 180:1 188:1 190:1 191:1 205:1 212:1 220:1 223:1 229:1 232:1 264:1 306:1 308:1 311:1 312:1 324:1 393:1 398:1 415:1 418:1 449:1 455:1 489:1 491:1 512:1 521:1 523:1 535:1 551:1 554:1 578:1 599:1 622:1 646:1 648:1 668:1 674:1 708:1 718:1 728:1 740:1 753:1 760:1 779:1 782:1 798:1 806:1 822:1 824:1 911:1 919:1 928:1 931:1 940:1 953:1 974:1 999:1 1000:1 1009:1 1013:1 1031:1 1034:1 1041:1 1052:1 1064:1 1091:1 1115:1 1125:1 1132:1 1181:1 1190:1 1192:1 1203:1 1224:1 1251:1 1256:1 1294:1 1308:1 1311:1 1329:1 1335:1 1364:1 1393:1 1417:1 1432:1 1439:1 1453:1 1454:1 1460:1 1464:1 1479:1 1489:1 1490:1 1494:1 1504:1 1506:1 1513:1 1555:1 1583:1 1623:1 1709:1 1716:1 1723:1 1726:1 1731:1 1754:1 1762:1 1766:1 1797:1 1826:1 1832:1 1837:1 1839:1 1871:1 1873:1 1908:1 1915:1 1946:1 1997:1 1998:1 1999:1 2000:1 
1.857091109429687 21:1 43:1 81:1 82:1 89:1 131:1 137:1 170:1 190:1 208:1 216:1 217:1 223:1 229:1 264:1 287:1 367:1 392:1 393:1 398:1 420:1 442:1 462:1 489:1 495:1 521:1 551:1 564:1 578:1 599:1 601:1 603:1 674:1 688:1 707:1 740:1 753:1 782:1 822:1 827:1 850:1 851:1 912:1 919:1 990:1 994:1 1031:1 1038:1 1083:1 1111:1 1117:1 1185:1 1197:1 1203:1 1247:1 1251:1 1301:1 1329:1 1370:1 1435:1 1453:1 1454:1 1479:1 1485:1 1490:1 1494:1 1557:1 1578:1 1602:1 1667:1 1681:1 1711:1 1713:1 1718:1 1731:1 1734:1 1761:1 1762:1 1801:1 1802:1 1815:1 1829:1 1838:1 1860:1 1874:1 1877:1 1882:1 1909:1 1911:1 1912:1 1998:1 1999:1 
8 82:1 162:1 229:1 415:1 521:1 554:1 667:1 708:1 722:1 740:1 892:1 959:1 1031:1 1091:1 1203:1 1247:1 1256:1 1294:1 1479:1 1555:1 1911:1 1912:1 
7.897749758541073 82:1 278:1 353:1 489:1 774:1 1041:1 1093:1 1203:1 1274:1 1335:1 1413:1 1479:1 1599:1 1601:1 1716:1 1719:1 
8 82:1 137:1 264:1 278:1 362:1 489:1 1048:1 1329:1 1479:1 1561:1 1762:1 1826:1 1882:1 1912:1 
1.786864209642127 3:1 43:1 47:1 82:1 83:1 98:1 103:1 106:1 130:1 137:1 170:1 172:1 190:1 193:1 212:1 223:1 226:1 229:1 272:1 285:1 309:1 362:1 367:1 398:1 401:1 409:1 431:1 442:1 489:1 491:1 557:1 564:1 578:1 590:1 599:1 644:1 651:1 659:1 666:1 707:1 708:1 726:1 775:1 798:1 822:1 833:1 836:1 854:1 858:1 893:1 911:1 922:1 1031:1 1050:1 1091:1 1111:1 1203:1 1205:1 1251:1 1281:1 1294:1 1303:1 1329:1 1335:1 1346:1 1403:1 1456:1 1479:1 1490:1 1494:1 1503:1 1554:1 1593:1 1601:1 1627:1 1643:1 1682:1 1685:1 1686:1 1716:1 1723:1 1731:1 1762:1 1793:1 1796:1 1829:1 1832:1 1842:1 1882:1 1915:1 2000:1 
4.895148673246122 137:1 223:1 229:1 581:1 675:1 728:1 791:1 893:1 959:1 1479:1 1682:1 
7.002086425226352 82:1 137:1 147:1 151:1 191:1 223:1 417:1 581:1 668:1 718:1 740:1 806:1 848:1 919:1 1031:1 1192:1 1479:1 1494:1 1567:1 1663:1 1682:1 1729:1 1832:1 1900:1 
8 401:1 521:1 708:1 728:1 1031:1 1047:1 1479:1 
0.2353970020022419 56:1 82:1 83:1 88:1 103:1 137:1 180:1 193:1 195:1 223:1 229:1 521:1 532:1 561:1 581:1 659:1 674:1 682:1 707:1 726:1 782:1 798:1 858:1 919:1 994:1 1000:1 1017:1 1031:1 1088:1 1090:1 1093:1 1151:1 1203:1 1301:1 1329:1 1344:1 1479:1 1490:1 1494:1 1504:1 1682:1 1685:1 1729:1 1762:1 1824:1 1826:1 1829:1 1871:1 1882:1 1912:1 2000:1 
0.7103213524199341 2:1 83:1 88:1 168:1 180:1 190:1 198:1 207:1 208:1 229:1 257:1 287:1 323:1 367:1 401:1 418:1 442:1 489:1 498:1 502:1 524:1 555:1 578:1 592:1 674:1 696:1 780:1 817:1 824:1 893:1 896:1 999:1 1031:1 1091:1 1108:1 1111:1 1224:1 1247:1 1251:1 1335:1 1455:1 1460:1 1479:1 1490:1 1561:1 1564:1 1630:1 1650:1 1682:1 1716:1 1718:1 1736:1 1747:1 1762:1 1832:1 1847:1 1912:1 1920:1 
2.028367339351661 10:1 21:1 33:1 82:1 137:1 190:1 207:1 223:1 229:1 264:1 323:1 415:1 427:1 449:1 489:1 548:1 581:1 599:1 620:1 649:1 708:1 728:1 740:1 817:1 822:1 861:1 893:1 896:1 919:1 959:1 1031:1 1050:1 1064:1 1190:1 1203:1 1225:1 1329:1 1344:1 1409:1 1417:1 1479:1 1490:1 1494:1 1557:1 1593:1 1682:1 1754:1 1757:1 1774:1 1777:1 1811:1 1829:1 1832:1 1835:1 1838:1 1874:1 1882:1 1891:1 1912:1 2000:1 
4.042947558583959 30:1 82:1 113:1 137:1 157:1 190:1 223:1 229:1 367:1 395:1 398:1 442:1 520:1 578:1 668:1 674:1 740:1 743:1 759:1 822:1 893:1 899:1 919:1 955:1 1031:1 1043:1 1064:1 1091:1 1165:1 1190:1 1192:1 1203:1 1225:1 1393:1 1479:1 1490:1 1494:1 1557:1 1601:1 1741:1 1774:1 
1.229874158995622 3:1 82:1 83:1 130:1 137:1 180:1 190:1 223:1 229:1 312:1 323:1 353:1 399:1 420:1 423:1 442:1 489:1 491:1 517:1 521:1 599:1 674:1 722:1 726:1 740:1 782:1 816:1 822:1 911:1 922:1 999:1 1047:1 1057:1 1190:1 1203:1 1224:1 1225:1 1246:1 1251:1 1281:1 1294:1 1321:1 1329:1 1344:1 1385:1 1417:1 1479:1 1484:1 1490:1 1494:1 1556:1 1593:1 1601:1 1716:1 1731:1 1762:1 1821:1 1826:1 1829:1 1835:1 1858:1 2000:1 
4.533174288162111 3:1 23:1 82:1 123:1 167:1 229:1 353:1 389:1 392:1 512:1 822:1 970:1 1031:1 1119:1 1281:1 1344:1 1479:1 1485:1 1494:1 1601:1 1652:1 1716:1 1762:1 1829:1 1848:1 1882:1 2000:1 
1.870848271601284 3:1 50:1 81:1 82:1 83:1 88:1 93:1 98:1 110:1 123:1 130:1 131:1 137:1 164:1 170:1 180:1 185:1 188:1 190:1 191:1 193:1 212:1 223:1 226:1 229:1 240:1 261:1 264:1 276:1 278:1 309:1 312:1 323:1 330:1 336:1 352:1 353:1 354:1 367:1 398:1 415:1 418:1 423:1 439:1 440:1 442:1 449:1 451:1 455:1 456:1 469:1 477:1 481:1 489:1 491:1 501:1 503:1 508:1 518:1 521:1 557:1 564:1 578:1 581:1 582:1 599:1 601:1 603:1 608:1 609:1 611:1 615:1 623:1 627:1 653:1 660:1 662:1 665:1 672:1 674:1 682:1 688:1 709:1 711:1 718:1 722:1 723:1 726:1 733:1 743:1 745:1 746:1 747:1 750:1 753:1 771:1 779:1 780:1 782:1 785:1 805:1 806:1 817:1 822:1 847:1 851:1 889:1 893:1 896:1 911:1 919:1 922:1 927:1 931:1 955:1 959:1 994:1 999:1 1017:1 1019:1 1031:1 1033:1 1047:1 1050:1 1052:1 1057:1 1064:1 1075:1 1077:1 1083:1 1084:1 1088:1 1091:1 1113:1 1140:1 1190:1 1195:1 1202:1 1203:1 1207:1 1223:1 1224:1 1251:1 1281:1 1294:1 1307:1 1321:1 1329:1 1333:1 1335:1 1344:1 1361:1 1386:1 1393:1 1400:1 1401:1 1403:1 1417:1 1435:1 1453:1 1454:1 1467:1 1479:1 1485:1 1490:1 1494:1 1495:1 1500:1 1504:1 1506:1 1508:1 1532:1 1548:1 1556:1 1557:1 1576:1 1601:1 1623:1 1627:1 1643:1 1663:1 1677:1 1682:1 1716:1 1731:1 1745:1 1754:1 1762:1 1770:1 1815:1 1826:1 1829:1 1832:1 1837:1 1838:1 1841:1 1871:1 1872:1 1873:1 1874:1 1882:1 1895:1 1898:1 1909:1 1912:1 1915:1 1940:1 1960:1 1975:1 1981:1 1997:1 2000:1 2001:1 
7.028865726926696 10:1 32:1 82:1 83:1 88:1 110:1 121:1 137:1 145:1 160:1 180:1 190:1 229:1 288:1 415:1 442:1 489:1 495:1 578:1 581:1 599:1 668:1 680:1 682:1 725:1 743:1 770:1 817:1 822:1 896:1 931:1 990:1 1031:1 1047:1 1203:1 1224:1 1250:1 1281:1 1294:1 1344:1 1386:1 1479:1 1490:1 1494:1 1557:1 1682:1 1762:1 1770:1 1813:1 1829:1 1835:1 1873:1 1882:1 1895:1 2000:1 
0.1747402501270739 3:1 82:1 137:1 139:1 180:1 216:1 223:1 224:1 229:1 287:1 418:1 489:1 561:1 581:1 604:1 610:1 623:1 684:1 726:1 740:1 750:1 753:1 806:1 822:1 893:1 1031:1 1057:1 1203:1 1214:1 1294:1 1335:1 1344:1 1394:1 1417:1 1479:1 1490:1 1494:1 1607:1 1682:1 1743:1 1762:1 1829:1 1832:1 1837:1 1839:1 1841:1 1882:1 1981:1 1997:1 2000:1 
1.267130648466949 82:1 106:1 137:1 223:1 254:1 481:1 708:1 740:1 876:1 959:1 990:1 1022:1 1057:1 1245:1 1251:1 1344:1 1370:1 1453:1 1483:1 1490:1 1723:1 1731:1 1768:1 1832:1 
3.923454104389589 82:1 83:1 88:1 137:1 205:1 207:1 208:1 278:1 287:1 353:1 489:1 491:1 514:1 523:1 555:1 599:1 609:1 622:1 674:1 696:1 726:1 789:1 803:1 806:1 816:1 850:1 919:1 931:1 990:1 1031:1 1041:1 1197:1 1203:1 1205:1 1246:1 1344:1 1416:1 1466:1 1479:1 1494:1 1513:1 1623:1 1713:1 1826:1 1829:1 1832:1 1837:1 1839:1 1848:1 1882:1 1940:1 1945:1 2000:1 2001:1 
1.407531823726967 82:1 83:1 137:1 223:1 415:1 467:1 489:1 554:1 557:1 572:1 578:1 599:1 708:1 711:1 726:1 728:1 822:1 892:1 893:1 994:1 1031:1 1091:1 1203:1 1329:1 1378:1 1454:1 1479:1 1483:1 1490:1 1494:1 1627:1 1675:1 1682:1 1829:1 1839:1 1915:1 2000:1 
8 43:1 82:1 106:1 144:1 229:1 353:1 718:1 728:1 919:1 1294:1 1329:1 1344:1 1415:1 1479:1 1494:1 1829:1 1832:1 1894:1 2000:1 
1.840305694847516 3:1 40:1 229:1 450:1 955:1 1045:1 1083:1 1335:1 1344:1 1400:1 1479:1 1494:1 1829:1 1835:1 1882:1 1962:1 1997:1 2000:1 
2.596808552369782 82:1 88:1 229:1 459:1 489:1 521:1 609:1 708:1 728:1 822:1 1116:1 1224:1 1317:1 1344:1 1435:1 1451:1 1494:1 1762:1 1771:1 1829:1 1832:1 1871:1 1962:1 2000:1 2001:1 
0.04123941448167315 83:1 85:1 216:1 223:1 229:1 353:1 398:1 441:1 489:1 503:1 514:1 521:1 587:1 674:1 690:1 726:1 728:1 733:1 740:1 750:1 822:1 845:1 851:1 893:1 1281:1 1329:1 1454:1 1479:1 1490:1 1494:1 1682:1 1689:1 1713:1 1731:1 1773:1 1829:1 1832:1 1837:1 1882:1 1975:1 1997:1 2000:1 
1.642084953303874 82:1 83:1 85:1 88:1 130:1 137:1 180:1 190:1 214:1 223:1 229:1 232:1 247:1 261:1 264:1 272:1 278:1 323:1 353:1 415:1 419:1 420:1 440:1 442:1 449:1 451:1 456:1 489:1 501:1 521:1 554:1 578:1 581:1 601:1 611:1 629:1 646:1 674:1 677:1 682:1 708:1 718:1 726:1 743:1 750:1 822:1 851:1 883:1 921:1 930:1 940:1 959:1 1000:1 1017:1 1031:1 1047:1 1057:1 1083:1 1091:1 1108:1 1149:1 1199:1 1203:1 1205:1 1236:1 1251:1 1258:1 1294:1 1329:1 1342:1 1386:1 1479:1 1486:1 1490:1 1500:1 1504:1 1513:1 1546:1 1554:1 1556:1 1566:1 1630:1 1663:1 1682:1 1713:1 1716:1 1731:1 1762:1 1815:1 1826:1 1832:1 1835:1 1842:1 1844:1 1882:1 1898:1 1909:1 1912:1 1932:1 1957:1 1972:1 1997:1 1998:1 1999:1 2001:1 
2.232202110606904 82:1 91:1 160:1 161:1 164:1 223:1 229:1 264:1 272:1 278:1 323:1 353:1 415:1 489:1 521:1 523:1 601:1 708:1 738:1 743:1 782:1 817:1 822:1 836:1 921:1 979:1 1031:1 1057:1 1203:1 1236:1 1251:1 1294:1 1330:1 1344:1 1417:1 1435:1 1446:1 1479:1 1490:1 1494:1 1762:1 1826:1 1829:1 1882:1 1912:1 2000:1 
3.512537725773589 1:1 110:1 113:1 137:1 190:1 223:1 229:1 264:1 278:1 320:1 323:1 326:1 485:1 491:1 521:1 578:1 592:1 593:1 594:1 601:1 610:1 728:1 743:1 850:1 867:1 912:1 919:1 921:1 955:1 959:1 961:1 987:1 999:1 1017:1 1031:1 1036:1 1047:1 1057:1 1091:1 1101:1 1116:1 1203:1 1224:1 1251:1 1258:1 1294:1 1335:1 1342:1 1345:1 1386:1 1441:1 1446:1 1453:1 1454:1 1479:1 1490:1 1500:1 1546:1 1554:1 1599:1 1601:1 1716:1 1762:1 1763:1 1832:1 1835:1 1837:1 1933:1 1938:1 
3.487441247831792 82:1 137:1 154:1 180:1 190:1 217:1 223:1 229:1 230:1 278:1 309:1 323:1 398:1 441:1 449:1 489:1 521:1 523:1 558:1 578:1 581:1 601:1 629:1 668:1 674:1 708:1 726:1 743:1 782:1 785:1 822:1 846:1 858:1 893:1 919:1 921:1 1031:1 1047:1 1057:1 1091:1 1185:1 1203:1 1220:1 1237:1 1244:1 1294:1 1325:1 1329:1 1333:1 1361:1 1372:1 1386:1 1421:1 1479:1 1489:1 1490:1 1494:1 1557:1 1567:1 1594:1 1599:1 1601:1 1627:1 1660:1 1681:1 1682:1 1716:1 1762:1 1809:1 1826:1 1837:1 1871:1 1873:1 1900:1 1959:1 
0.04248220799249769 3:1 8:1 43:1 61:1 64:1 73:1 82:1 83:1 85:1 88:1 93:1 103:1 123:1 130:1 131:1 134:1 137:1 180:1 190:1 191:1 193:1 200:1 205:1 223:1 229:1 240:1 246:1 264:1 278:1 285:1 287:1 312:1 323:1 353:1 367:1 392:1 397:1 398:1 415:1 420:1 426:1 427:1 442:1 451:1 489:1 491:1 501:1 503:1 504:1 514:1 521:1 523:1 534:1 551:1 554:1 578:1 581:1 599:1 605:1 609:1 610:1 619:1 620:1 623:1 629:1 642:1 668:1 674:1 680:1 682:1 686:1 707:1 708:1 726:1 728:1 740:1 741:1 746:1 773:1 782:1 785:1 806:1 822:1 851:1 858:1 893:1 911:1 919:1 921:1 922:1 955:1 959:1 965:1 970:1 991:1 994:1 999:1 1031:1 1036:1 1047:1 1050:1 1057:1 1064:1 1078:1 1088:1 1091:1 1093:1 1108:1 1111:1 1186:1 1192:1 1193:1 1199:1 1203:1 1224:1 1251:1 1273:1 1281:1 1294:1 1316:1 1321:1 1329:1 1330:1 1332:1 1335:1 1344:1 1372:1 1384:1 1393:1 1400:1 1417:1 1435:1 1439:1 1453:1 1454:1 1479:1 1489:1 1490:1 1494:1 1499:1 1504:1 1511:1 1513:1 1554:1 1555:1 1556:1 1557:1 1590:1 1599:1 1601:1 1623:1 1627:1 1647:1 1677:1 1682:1 1695:1 1697:1 1716:1 1731:1 1738:1 1744:1 1762:1 1772:1 1785:1 1797:1 1801:1 1808:1 1826:1 1829:1 1832:1 1835:1 1837:1 1841:1 1871:1 1874:1 1876:1 1882:1 1895:1 1898:1 1912:1 1915:1 1928:1 1932:1 1942:1 1951:1 1952:1 1954:1 1960:1 1997:1 2000:1 2001:1 
0.7710261005211223 78:1 79:1 82:1 83:1 123:1 137:1 172:1 190:1 191:1 223:1 229:1 276:1 287:1 323:1 353:1 362:1 398:1 415:1 418:1 420:1 442:1 489:1 523:1 557:1 559:1 572:1 578:1 581:1 599:1 609:1 610:1 611:1 622:1 629:1 640:1 646:1 648:1 668:1 674:1 675:1 682:1 708:1 740:1 743:1 782:1 806:1 822:1 836:1 854:1 858:1 876:1 893:1 911:1 919:1 931:1 970:1 972:1 990:1 991:1 999:1 1007:1 1031:1 1047:1 1057:1 1075:1 1088:1 1091:1 1114:1 1167:1 1203:1 1251:1 1271:1 1281:1 1282:1 1331:1 1335:1 1341:1 1342:1 1370:1 1377:1 1385:1 1393:1 1430:1 1435:1 1453:1 1478:1 1479:1 1486:1 1490:1 1494:1 1504:1 1513:1 1522:1 1544:1 1557:1 1584:1 1601:1 1658:1 1677:1 1682:1 1700:1 1710:1 1716:1 1723:1 1730:1 1737:1 1746:1 1762:1 1766:1 1772:1 1785:1 1819:1 1826:1 1829:1 1832:1 1835:1 1837:1 1838:1 1844:1 1871:1 1872:1 1874:1 1882:1 1898:1 1912:1 1998:1 1999:1 2000:1 2001:1 
0.01755838882984316 82:1 137:1 229:1 276:1 521:1 596:1 822:1 893:1 1017:1 1214:1 1329:1 1490:1 1566:1 1682:1 1793:1 1882:1 
8 3:1 110:1 137:1 190:1 229:1 442:1 581:1 750:1 1031:1 1125:1 1224:1 1479:1 1490:1 1494:1 1632:1 1829:1 2000:1 
8 82:1 88:1 131:1 190:1 229:1 680:1 822:1 893:1 1389:1 1490:1 1682:1 1789:1 1801:1 1882:1 
8 137:1 144:1 481:1 807:1 959:1 987:1 1453:1 1574:1 1729:1 1785:1 
4.625651086991669 229:1 264:1 442:1 569:1 639:1 743:1 753:1 758:1 822:1 893:1 916:1 1031:1 1223:1 1239:1 1275:1 1335:1 1417:1 1479:1 1490:1 1682:1 1789:1 
0.08586437706597337 11:1 82:1 88:1 137:1 190:1 229:1 278:1 320:1 323:1 430:1 442:1 449:1 451:1 457:1 459:1 489:1 523:1 578:1 581:1 592:1 599:1 668:1 722:1 801:1 806:1 827:1 854:1 893:1 919:1 959:1 1036:1 1038:1 1065:1 1091:1 1093:1 1113:1 1193:1 1203:1 1243:1 1251:1 1344:1 1435:1 1479:1 1490:1 1494:1 1599:1 1601:1 1682:1 1700:1 1743:1 1762:1 1768:1 1809:1 1829:1 1832:1 1874:1 1882:1 1949:1 1954:1 1981:1 2000:1 
0.7145253758433672 1:1 83:1 124:1 137:1 183:1 190:1 229:1 270:1 276:1 278:1 323:1 415:1 442:1 456:1 457:1 491:1 514:1 522:1 523:1 530:1 578:1 581:1 629:1 632:1 642:1 666:1 698:1 782:1 822:1 893:1 919:1 922:1 959:1 965:1 1017:1 1031:1 1050:1 1057:1 1091:1 1149:1 1203:1 1247:1 1294:1 1329:1 1335:1 1342:1 1344:1 1435:1 1453:1 1454:1 1458:1 1479:1 1490:1 1500:1 1513:1 1601:1 1682:1 1762:1 1826:1 1832:1 1836:1 1838:1 1878:1 1882:1 1895:1 1912:1 1915:1 1928:1 
8 82:1 137:1 205:1 223:1 229:1 398:1 489:1 609:1 740:1 822:1 959:1 967:1 1022:1 1031:1 1057:1 1203:1 1479:1 1723:1 1946:1 2001:1 
0.3211658864348733 11:1 18:1 21:1 50:1 82:1 83:1 85:1 88:1 98:1 110:1 123:1 130:1 137:1 170:1 180:1 188:1 216:1 223:1 229:1 232:1 278:1 287:1 296:1 307:1 362:1 398:1 400:1 401:1 418:1 420:1 442:1 457:1 489:1 518:1 521:1 523:1 561:1 564:1 572:1 581:1 599:1 622:1 629:1 648:1 652:1 659:1 668:1 674:1 718:1 722:1 732:1 743:1 774:1 796:1 798:1 806:1 817:1 822:1 846:1 854:1 919:1 931:1 965:1 999:1 1017:1 1021:1 1031:1 1047:1 1049:1 1064:1 1088:1 1108:1 1125:1 1177:1 1185:1 1186:1 1190:1 1203:1 1220:1 1223:1 1263:1 1329:1 1330:1 1335:1 1344:1 1382:1 1386:1 1389:1 1393:1 1417:1 1441:1 1453:1 1456:1 1479:1 1486:1 1490:1 1494:1 1500:1 1504:1 1506:1 1512:1 1562:1 1584:1 1603:1 1650:1 1663:1 1682:1 1687:1 1697:1 1703:1 1713:1 1716:1 1762:1 1800:1 1802:1 1809:1 1815:1 1826:1 1829:1 1832:1 1835:1 1836:1 1837:1 1871:1 1882:1 1888:1 1900:1 1912:1 1997:1 2000:1 2001:1 
3.541463655083573 21:1 190:1 205:1 214:1 312:1 439:1 489:1 521:1 559:1 578:1 599:1 603:1 674:1 786:1 817:1 827:1 959:1 987:1 994:1 1093:1 1108:1 1192:1 1220:1 1256:1 1281:1 1344:1 1425:1 1434:1 1453:1 1460:1 1479:1 1494:1 1564:1 1649:1 1718:1 1796:1 1829:1 1942:1 2000:1 
0.01405475460714157 3:1 89:1 98:1 111:1 112:1 123:1 137:1 161:1 205:1 223:1 229:1 232:1 250:1 261:1 272:1 278:1 287:1 323:1 369:1 398:1 431:1 439:1 442:1 481:1 488:1 498:1 601:1 610:1 629:1 632:1 649:1 659:1 668:1 674:1 688:1 696:1 708:1 806:1 822:1 874:1 876:1 892:1 896:1 908:1 919:1 931:1 947:1 958:1 1002:1 1017:1 1031:1 1047:1 1057:1 1058:1 1064:1 1093:1 1111:1 1112:1 1149:1 1158:1 1190:1 1203:1 1220:1 1291:1 1329:1 1335:1 1338:1 1396:1 1402:1 1403:1 1432:1 1454:1 1479:1 1490:1 1494:1 1500:1 1511:1 1513:1 1519:1 1566:1 1594:1 1656:1 1700:1 1716:1 1730:1 1731:1 1762:1 1829:1 1832:1 1838:1 1839:1 1841:1 1874:1 1882:1 1912:1 1915:1 1986:1 2000:1 
0.6603122493424088 3:1 82:1 83:1 98:1 144:1 154:1 180:1 223:1 229:1 278:1 403:1 481:1 557:1 599:1 623:1 674:1 726:1 854:1 889:1 894:1 918:1 922:1 959:1 962:1 965:1 1031:1 1093:1 1192:1 1203:1 1242:1 1291:1 1316:1 1329:1 1396:1 1399:1 1443:1 1454:1 1479:1 1490:1 1494:1 1504:1 1599:1 1627:1 1633:1 1677:1 1713:1 1741:1 1829:1 1837:1 1946:1 1997:1 2000:1 2001:1 
8 82:1 144:1 308:1 596:1 919:1 1093:1 1203:1 1344:1 1656:1 1700:1 
0.05859440476383702 82:1 85:1 123:1 190:1 229:1 278:1 415:1 419:1 442:1 561:1 611:1 741:1 790:1 817:1 822:1 1031:1 1108:1 1329:1 1344:1 1386:1 1490:1 1494:1 1601:1 1623:1 1663:1 1682:1 1793:1 1815:1 1829:1 1882:1 1932:1 2000:1 
2.121189962742855 23:1 45:1 83:1 217:1 223:1 229:1 235:1 459:1 489:1 523:1 581:1 604:1 645:1 690:1 718:1 816:1 893:1 904:1 1031:1 1203:1 1335:1 1344:1 1345:1 1398:1 1479:1 1494:1 1682:1 1829:1 2000:1 
0.8704559067910628 3:1 82:1 83:1 85:1 88:1 93:1 97:1 110:1 123:1 137:1 180:1 181:1 183:1 188:1 190:1 191:1 216:1 224:1 229:1 232:1 240:1 278:1 287:1 330:1 336:1 362:1 398:1 418:1 442:1 450:1 457:1 486:1 489:1 501:1 521:1 523:1 536:1 564:1 572:1 578:1 581:1 599:1 610:1 611:1 622:1 627:1 629:1 645:1 653:1 659:1 668:1 672:1 674:1 726:1 728:1 746:1 770:1 782:1 785:1 798:1 817:1 822:1 824:1 847:1 850:1 851:1 872:1 893:1 896:1 919:1 920:1 921:1 931:1 959:1 962:1 967:1 973:1 987:1 990:1 994:1 999:1 1022:1 1031:1 1036:1 1048:1 1050:1 1052:1 1057:1 1064:1 1070:1 1076:1 1090:1 1093:1 1115:1 1177:1 1192:1 1203:1 1223:1 1272:1 1294:1 1329:1 1341:1 1344:1 1393:1 1417:1 1433:1 1453:1 1454:1 1456:1 1470:1 1479:1 1490:1 1494:1 1495:1 1500:1 1504:1 1513:1 1554:1 1557:1 1599:1 1603:1 1650:1 1682:1 1703:1 1709:1 1714:1 1716:1 1731:1 1738:1 1762:1 1772:1 1811:1 1826:1 1829:1 1832:1 1836:1 1838:1 1844:1 1848:1 1865:1 1874:1 1882:1 1895:1 1930:1 1960:1 1998:1 1999:1 2000:1 2001:1 
2.767203587209501 81:1 82:1 83:1 130:1 212:1 223:1 278:1 287:1 298:1 353:1 392:1 399:1 489:1 491:1 502:1 535:1 557:1 599:1 668:1 674:1 754:1 775:1 803:1 864:1 883:1 919:1 1031:1 1041:1 1057:1 1203:1 1243:1 1244:1 1271:1 1344:1 1417:1 1470:1 1479:1 1490:1 1494:1 1504:1 1601:1 1631:1 1731:1 1762:1 1829:1 1832:1 1865:1 1882:1 1915:1 1930:1 1968:1 1998:1 1999:1 2000:1 
2.638569809026621 3:1 82:1 223:1 229:1 278:1 442:1 491:1 518:1 581:1 726:1 743:1 816:1 822:1 846:1 893:1 919:1 921:1 923:1 1082:1 1319:1 1344:1 1479:1 1490:1 1494:1 1633:1 1682:1 1829:1 1835:1 2000:1 
2.25281973858723 98:1 137:1 212:1 229:1 320:1 370:1 489:1 545:1 564:1 572:1 599:1 609:1 740:1 754:1 795:1 806:1 893:1 904:1 911:1 955:1 987:1 1031:1 1057:1 1165:1 1203:1 1225:1 1251:1 1260:1 1276:1 1281:1 1344:1 1453:1 1475:1 1479:1 1481:1 1494:1 1513:1 1592:1 1593:1 1716:1 1723:1 1762:1 1785:1 1829:1 1832:1 1835:1 1940:1 1997:1 2000:1 2001:1 
8 82:1 137:1 223:1 229:1 278:1 398:1 415:1 599:1 668:1 722:1 928:1 1031:1 1057:1 1219:1 1294:1 1330:1 1490:1 1494:1 1677:1 1826:1 1898:1 1915:1 
0.3536309527190089 3:1 82:1 168:1 229:1 312:1 408:1 487:1 489:1 959:1 994:1 1093:1 1190:1 1415:1 1479:1 1494:1 1630:1 1829:1 1997:1 2000:1 
3.611953097363419 123:1 223:1 229:1 278:1 415:1 554:1 606:1 610:1 822:1 1031:1 1057:1 1203:1 1294:1 1453:1 1479:1 1490:1 1754:1 1826:1 1912:1 
0.4382598057939277 3:1 21:1 82:1 83:1 85:1 88:1 137:1 190:1 191:1 205:1 229:1 239:1 262:1 278:1 296:1 398:1 442:1 489:1 491:1 502:1 521:1 555:1 557:1 559:1 581:1 623:1 668:1 674:1 696:1 785:1 822:1 827:1 851:1 876:1 893:1 911:1 979:1 1031:1 1036:1 1047:1 1083:1 1088:1 1203:1 1224:1 1246:1 1250:1 1251:1 1294:1 1344:1 1400:1 1401:1 1435:1 1479:1 1485:1 1490:1 1682:1 1716:1 1762:1 1764:1 1794:1 1809:1 1826:1 1835:1 1837:1 1978:1 1996:1 1998:1 1999:1 2000:1 
0.4972872717677688 1:1 3:1 78:1 79:1 82:1 103:1 123:1 130:1 131:1 137:1 190:1 211:1 223:1 229:1 249:1 276:1 278:1 353:1 464:1 469:1 489:1 491:1 504:1 521:1 578:1 601:1 611:1 614:1 629:1 668:1 674:1 688:1 806:1 822:1 874:1 893:1 911:1 919:1 999:1 1031:1 1035:1 1047:1 1055:1 1064:1 1075:1 1083:1 1088:1 1091:1 1186:1 1203:1 1220:1 1250:1 1251:1 1329:1 1400:1 1432:1 1479:1 1485:1 1490:1 1500:1 1513:1 1716:1 1718:1 1762:1 1837:1 1848:1 1882:1 1915:1 1962:1 1997:1 
2.11400229887526 81:1 82:1 83:1 85:1 139:1 180:1 190:1 205:1 217:1 229:1 398:1 442:1 451:1 459:1 461:1 489:1 491:1 521:1 524:1 557:1 578:1 599:1 611:1 668:1 696:1 722:1 731:1 806:1 816:1 822:1 829:1 893:1 1017:1 1047:1 1057:1 1092:1 1124:1 1186:1 1190:1 1203:1 1224:1 1237:1 1243:1 1244:1 1332:1 1344:1 1396:1 1479:1 1490:1 1494:1 1564:1 1612:1 1674:1 1682:1 1714:1 1743:1 1809:1 1829:1 1911:1 1912:1 2000:1 
8 82:1 83:1 188:1 278:1 353:1 822:1 1031:1 1041:1 1168:1 1203:1 1251:1 1344:1 1479:1 1532:1 1599:1 1601:1 
2.796943815321512 39:1 62:1 82:1 83:1 93:1 96:1 110:1 193:1 205:1 223:1 229:1 278:1 287:1 293:1 353:1 392:1 442:1 451:1 456:1 489:1 503:1 521:1 599:1 601:1 605:1 623:1 674:1 680:1 681:1 701:1 708:1 722:1 736:1 750:1 782:1 822:1 893:1 908:1 911:1 919:1 944:1 1031:1 1066:1 1088:1 1093:1 1190:1 1203:1 1220:1 1281:1 1294:1 1329:1 1335:1 1344:1 1435:1 1451:1 1479:1 1490:1 1494:1 1500:1 1504:1 1554:1 1593:1 1601:1 1646:1 1682:1 1688:1 1746:1 1748:1 1762:1 1772:1 1829:1 1832:1 1837:1 1882:1 1895:1 1928:1 1997:1 2000:1 
0.5796867198822968 82:1 88:1 106:1 131:1 137:1 229:1 289:1 409:1 489:1 557:1 629:1 668:1 674:1 708:1 850:1 893:1 919:1 933:1 1011:1 1017:1 1057:1 1203:1 1224:1 1281:1 1335:1 1344:1 1454:1 1479:1 1490:1 1494:1 1599:1 1601:1 1723:1 1731:1 1766:1 1842:1 1882:1 1997:1 
0.139147884007997 3:1 83:1 93:1 137:1 191:1 217:1 229:1 246:1 323:1 401:1 420:1 442:1 593:1 643:1 668:1 674:1 718:1 740:1 759:1 765:1 774:1 782:1 822:1 893:1 919:1 1031:1 1036:1 1064:1 1075:1 1190:1 1203:1 1225:1 1251:1 1281:1 1294:1 1329:1 1344:1 1435:1 1443:1 1479:1 1490:1 1495:1 1503:1 1504:1 1554:1 1649:1 1663:1 1723:1 1731:1 1777:1 1811:1 1826:1 1829:1 1848:1 1871:1 1882:1 1895:1 1915:1 1997:1 
0.03396194336411203 82:1 83:1 85:1 137:1 190:1 223:1 273:1 398:1 406:1 477:1 481:1 489:1 521:1 557:1 629:1 668:1 740:1 789:1 813:1 822:1 919:1 928:1 967:1 999:1 1031:1 1047:1 1203:1 1294:1 1453:1 1454:1 1479:1 1490:1 1503:1 1513:1 1556:1 1584:1 1601:1 1676:1 1716:1 1731:1 1760:1 1762:1 1768:1 1826:1 1835:1 1882:1 
1.237971938353615 3:1 83:1 191:1 223:1 229:1 309:1 328:1 398:1 491:1 512:1 524:1 557:1 629:1 718:1 740:1 806:1 847:1 1031:1 1057:1 1203:1 1218:1 1294:1 1454:1 1479:1 1490:1 1556:1 1615:1 1723:1 1837:1 
8 137:1 717:1 1232:1 1369:1 1578:1 1627:1 1726:1 1915:1 
0.01309871192831981 3:1 59:1 82:1 162:1 190:1 229:1 276:1 398:1 415:1 491:1 557:1 578:1 740:1 798:1 822:1 851:1 931:1 1017:1 1091:1 1197:1 1214:1 1330:1 1341:1 1344:1 1479:1 1490:1 1494:1 1610:1 1627:1 1829:1 1832:1 1912:1 2000:1 
2.275393506725707 82:1 137:1 223:1 229:1 344:1 398:1 401:1 453:1 491:1 554:1 581:1 601:1 711:1 722:1 726:1 734:1 740:1 822:1 893:1 904:1 1031:1 1050:1 1055:1 1063:1 1064:1 1151:1 1203:1 1243:1 1305:1 1329:1 1344:1 1402:1 1456:1 1479:1 1485:1 1494:1 1556:1 1627:1 1684:1 1762:1 1777:1 1829:1 1848:1 1882:1 1997:1 2000:1 
0.1270864998223012 3:1 82:1 83:1 88:1 103:1 123:1 137:1 160:1 165:1 180:1 190:1 207:1 216:1 223:1 229:1 232:1 240:1 249:1 262:1 264:1 270:1 278:1 287:1 295:1 302:1 324:1 337:1 352:1 398:1 415:1 418:1 420:1 442:1 449:1 455:1 469:1 489:1 491:1 503:1 521:1 523:1 557:1 559:1 561:1 565:1 572:1 578:1 581:1 599:1 601:1 603:1 629:1 662:1 665:1 668:1 674:1 695:1 706:1 708:1 718:1 726:1 728:1 738:1 753:1 773:1 791:1 796:1 806:1 822:1 842:1 858:1 880:1 889:1 893:1 904:1 919:1 921:1 931:1 940:1 948:1 955:1 974:1 999:1 1017:1 1025:1 1031:1 1036:1 1041:1 1042:1 1048:1 1057:1 1064:1 1080:1 1088:1 1106:1 1107:1 1171:1 1181:1 1190:1 1192:1 1203:1 1224:1 1232:1 1251:1 1252:1 1271:1 1272:1 1294:1 1304:1 1307:1 1312:1 1329:1 1330:1 1335:1 1344:1 1370:1 1386:1 1394:1 1417:1 1435:1 1453:1 1454:1 1479:1 1490:1 1494:1 1495:1 1503:1 1504:1 1506:1 1508:1 1513:1 1533:1 1556:1 1599:1 1601:1 1643:1 1682:1 1716:1 1719:1 1762:1 1790:1 1793:1 1798:1 1826:1 1829:1 1832:1 1835:1 1837:1 1841:1 1882:1 1895:1 1912:1 1975:1 2000:1 
0.9624328034042519 3:1 81:1 82:1 110:1 144:1 173:1 188:1 190:1 217:1 229:1 278:1 389:1 442:1 460:1 491:1 521:1 525:1 564:1 569:1 572:1 575:1 599:1 601:1 668:1 728:1 850:1 851:1 904:1 919:1 933:1 955:1 1036:1 1041:1 1047:1 1064:1 1203:1 1224:1 1244:1 1246:1 1303:1 1332:1 1335:1 1344:1 1417:1 1430:1 1435:1 1479:1 1490:1 1494:1 1504:1 1557:1 1713:1 1762:1 1809:1 1829:1 1835:1 1848:1 1882:1 1888:1 1903:1 2000:1 
2.681741682683096 2:1 79:1 137:1 503:1 599:1 622:1 822:1 893:1 921:1 1203:1 1240:1 1281:1 1393:1 1454:1 1479:1 1598:1 1681:1 1682:1 1762:1 1832:1 1917:1 1997:1 
8 83:1 137:1 163:1 190:1 229:1 557:1 581:1 601:1 743:1 947:1 1203:1 1224:1 1425:1 1454:1 1460:1 1604:1 1682:1 1832:1 1997:1 
3.997860293312551 82:1 83:1 106:1 188:1 223:1 229:1 264:1 489:1 557:1 581:1 583:1 604:1 734:1 773:1 893:1 1031:1 1203:1 1244:1 1301:1 1335:1 1344:1 1389:1 1413:1 1417:1 1433:1 1462:1 1479:1 1494:1 1557:1 1682:1 1829:1 1927:1 2000:1 
1.693811390365638 3:1 8:1 82:1 83:1 88:1 110:1 126:1 130:1 137:1 172:1 190:1 205:1 207:1 212:1 216:1 223:1 229:1 241:1 270:1 287:1 323:1 342:1 362:1 367:1 398:1 418:1 420:1 439:1 441:1 447:1 449:1 457:1 489:1 491:1 504:1 521:1 522:1 523:1 532:1 535:1 564:1 599:1 607:1 629:1 639:1 648:1 660:1 674:1 708:1 740:1 743:1 758:1 822:1 892:1 893:1 911:1 919:1 922:1 947:1 979:1 987:1 999:1 1026:1 1031:1 1047:1 1057:1 1175:1 1185:1 1192:1 1203:1 1224:1 1236:1 1251:1 1263:1 1265:1 1281:1 1290:1 1317:1 1321:1 1335:1 1344:1 1357:1 1361:1 1400:1 1441:1 1442:1 1453:1 1458:1 1479:1 1490:1 1494:1 1499:1 1505:1 1533:1 1557:1 1563:1 1601:1 1619:1 1623:1 1663:1 1682:1 1716:1 1731:1 1762:1 1774:1 1785:1 1798:1 1826:1 1829:1 1832:1 1835:1 1837:1 1838:1 1848:1 1858:1 1871:1 1882:1 1898:1 1912:1 1930:1 1942:1 1997:1 2000:1 
3.697908230144118 73:1 83:1 137:1 144:1 229:1 309:1 353:1 415:1 431:1 441:1 442:1 449:1 456:1 489:1 491:1 521:1 601:1 668:1 674:1 708:1 718:1 726:1 806:1 822:1 824:1 908:1 959:1 1026:1 1031:1 1036:1 1047:1 1202:1 1220:1 1263:1 1281:1 1294:1 1329:1 1363:1 1417:1 1454:1 1479:1 1490:1 1556:1 1592:1 1627:1 1716:1 1731:1 1762:1 1785:1 1801:1 1821:1 1826:1 1837:1 1858:1 1912:1 1946:1 
4.807430870440664 3:1 83:1 88:1 106:1 110:1 123:1 137:1 167:1 180:1 181:1 190:1 205:1 223:1 224:1 229:1 264:1 278:1 353:1 354:1 362:1 398:1 415:1 489:1 520:1 521:1 523:1 530:1 581:1 599:1 601:1 622:1 648:1 684:1 695:1 708:1 718:1 726:1 743:1 760:1 775:1 782:1 817:1 822:1 874:1 893:1 921:1 999:1 1019:1 1031:1 1057:1 1083:1 1108:1 1195:1 1199:1 1224:1 1251:1 1301:1 1329:1 1344:1 1400:1 1417:1 1420:1 1433:1 1435:1 1479:1 1490:1 1513:1 1599:1 1601:1 1643:1 1647:1 1682:1 1762:1 1766:1 1777:1 1827:1 1832:1 1835:1 1839:1 1848:1 1882:1 1912:1 1920:1 1946:1 1975:1 2000:1 
0.277087303747572 3:1 43:1 62:1 82:1 83:1 85:1 88:1 106:1 122:1 123:1 137:1 163:1 180:1 190:1 212:1 223:1 229:1 264:1 308:1 309:1 323:1 353:1 367:1 369:1 398:1 401:1 415:1 418:1 431:1 442:1 475:1 489:1 491:1 564:1 581:1 610:1 619:1 622:1 659:1 674:1 682:1 703:1 708:1 709:1 718:1 722:1 728:1 740:1 759:1 782:1 785:1 789:1 790:1 798:1 806:1 822:1 847:1 851:1 886:1 889:1 893:1 919:1 921:1 958:1 965:1 994:1 1017:1 1026:1 1031:1 1064:1 1108:1 1190:1 1203:1 1224:1 1243:1 1245:1 1251:1 1265:1 1281:1 1294:1 1301:1 1304:1 1329:1 1335:1 1352:1 1361:1 1393:1 1417:1 1425:1 1455:1 1479:1 1494:1 1504:1 1513:1 1532:1 1551:1 1601:1 1649:1 1658:1 1663:1 1682:1 1700:1 1713:1 1723:1 1726:1 1731:1 1762:1 1785:1 1803:1 1809:1 1811:1 1826:1 1829:1 1832:1 1835:1 1836:1 1837:1 1839:1 1841:1 1843:1 1867:1 1874:1 1877:1 1882:1 1898:1 1909:1 1912:1 1998:1 1999:1 2000:1 2001:1 
2.381948695084915 82:1 99:1 229:1 708:1 740:1 795:1 889:1 919:1 931:1 1031:1 1294:1 1335:1 1336:1 1342:1 1479:1 1495:1 1601:1 1677:1 1731:1 1762:1 1832:1 1898:1 
8 83:1 123:1 137:1 168:1 229:1 278:1 477:1 481:1 492:1 514:1 593:1 668:1 689:1 708:1 722:1 728:1 785:1 823:1 827:1 904:1 919:1 950:1 990:1 996:1 1003:1 1017:1 1111:1 1140:1 1203:1 1301:1 1344:1 1479:1 1494:1 1504:1 1601:1 1623:1 1663:1 1809:1 1829:1 1894:1 1911:1 1957:1 2000:1 
6.655324598199376 82:1 83:1 137:1 165:1 190:1 214:1 293:1 441:1 491:1 722:1 823:1 919:1 987:1 1031:1 1171:1 1203:1 1262:1 1301:1 1322:1 1335:1 1401:1 1479:1 1490:1 1494:1 1744:1 1762:1 1829:1 2000:1 
7.429103561428342 3:1 82:1 308:1 352:1 648:1 851:1 919:1 1031:1 1190:1 1195:1 1203:1 1211:1 1254:1 1317:1 1479:1 1494:1 1500:1 1710:1 1726:1 1837:1 1882:1 
0.6146814697447819 3:1 82:1 83:1 131:1 137:1 190:1 211:1 212:1 229:1 246:1 420:1 481:1 526:1 556:1 578:1 622:1 667:1 668:1 674:1 708:1 722:1 822:1 919:1 931:1 959:1 999:1 1047:1 1091:1 1199:1 1203:1 1294:1 1329:1 1344:1 1387:1 1454:1 1479:1 1494:1 1513:1 1533:1 1554:1 1556:1 1643:1 1650:1 1829:1 1832:1 1912:1 1960:1 2000:1 
2.1908676631629 3:1 137:1 190:1 229:1 293:1 353:1 442:1 494:1 557:1 559:1 674:1 740:1 1031:1 1101:1 1344:1 1448:1 1800:1 1871:1 1892:1 1894:1 
4.070233811250865 82:1 83:1 137:1 223:1 229:1 232:1 289:1 311:1 320:1 323:1 342:1 456:1 481:1 489:1 564:1 631:1 824:1 827:1 922:1 928:1 947:1 1002:1 1031:1 1088:1 1203:1 1316:1 1335:1 1446:1 1454:1 1479:1 1490:1 1566:1 1627:1 1633:1 1701:1 1716:1 1796:1 1832:1 1837:1 1981:1 
1.496797420190185 3:1 21:1 43:1 82:1 83:1 88:1 110:1 137:1 190:1 216:1 223:1 229:1 264:1 364:1 392:1 398:1 414:1 415:1 427:1 457:1 489:1 491:1 521:1 523:1 581:1 599:1 604:1 618:1 623:1 629:1 674:1 708:1 775:1 916:1 950:1 1022:1 1031:1 1036:1 1047:1 1076:1 1091:1 1093:1 1203:1 1224:1 1294:1 1301:1 1332:1 1402:1 1460:1 1479:1 1490:1 1494:1 1504:1 1714:1 1749:1 1757:1 1826:1 1829:1 1832:1 1854:1 1882:1 1941:1 1998:1 1999:1 2000:1 
8 229:1 398:1 601:1 674:1 700:1 713:1 911:1 931:1 1041:1 1203:1 1341:1 1344:1 1479:1 1494:1 1762:1 1829:1 1832:1 1837:1 1997:1 2000:1 
2.543434832086595 1:1 83:1 88:1 190:1 364:1 398:1 476:1 523:1 557:1 658:1 674:1 696:1 708:1 722:1 728:1 791:1 822:1 827:1 893:1 959:1 990:1 1031:1 1203:1 1294:1 1330:1 1479:1 1682:1 1688:1 1832:1 1834:1 1873:1 
1.933386722507974 15:1 20:1 41:1 81:1 82:1 83:1 88:1 106:1 109:1 130:1 137:1 144:1 170:1 190:1 223:1 224:1 229:1 270:1 272:1 323:1 336:1 362:1 368:1 398:1 411:1 420:1 427:1 438:1 442:1 476:1 491:1 531:1 557:1 578:1 581:1 590:1 599:1 609:1 610:1 611:1 620:1 622:1 629:1 648:1 654:1 696:1 707:1 708:1 728:1 732:1 743:1 782:1 791:1 806:1 812:1 813:1 822:1 832:1 836:1 850:1 853:1 895:1 896:1 899:1 902:1 908:1 955:1 965:1 991:1 992:1 999:1 1031:1 1047:1 1066:1 1126:1 1171:1 1192:1 1203:1 1205:1 1207:1 1230:1 1237:1 1239:1 1240:1 1250:1 1251:1 1294:1 1329:1 1335:1 1386:1 1400:1 1417:1 1454:1 1456:1 1479:1 1490:1 1506:1 1511:1 1534:1 1552:1 1601:1 1643:1 1650:1 1667:1 1682:1 1703:1 1731:1 1762:1 1826:1 1832:1 1837:1 1839:1 1871:1 1882:1 1906:1 1908:1 1911:1 1925:1 1928:1 1942:1 1981:1 1997:1 1998:1 1999:1 2000:1 2001:1 
3.846809677331598 23:1 242:1 364:1 418:1 491:1 498:1 519:1 521:1 599:1 674:1 726:1 893:1 990:1 1171:1 1192:1 1199:1 1239:1 1301:1 1479:1 1701:1 1791:1 1826:1 1882:1 1891:1 1895:1 
0.2062075186043872 3:1 82:1 124:1 137:1 190:1 223:1 229:1 232:1 264:1 354:1 442:1 521:1 547:1 559:1 578:1 581:1 611:1 674:1 675:1 708:1 726:1 736:1 740:1 817:1 822:1 858:1 893:1 919:1 921:1 955:1 999:1 1017:1 1031:1 1082:1 1091:1 1186:1 1203:1 1225:1 1263:1 1329:1 1344:1 1479:1 1490:1 1494:1 1554:1 1556:1 1599:1 1633:1 1731:1 1826:1 1829:1 1882:1 1911:1 2000:1 
4.270360864387694 59:1 137:1 443:1 708:1 728:1 740:1 827:1 940:1 994:1 1064:1 1111:1 1192:1 1203:1 1231:1 1335:1 1454:1 1494:1 1601:1 1740:1 
8 82:1 99:1 191:1 212:1 223:1 229:1 264:1 601:1 674:1 850:1 1031:1 1057:1 1192:1 1203:1 1329:1 1417:1 1479:1 1490:1 1494:1 1533:1 1628:1 1821:1 1829:1 1832:1 2000:1 
8 106:1 137:1 142:1 232:1 278:1 289:1 430:1 489:1 531:1 753:1 806:1 925:1 959:1 961:1 994:1 1203:1 1238:1 1329:1 1386:1 1454:1 1458:1 1479:1 1762:1 1809:1 1882:1 1997:1 2000:1 
8 3:1 106:1 124:1 223:1 229:1 491:1 535:1 674:1 827:1 891:1 1252:1 1329:1 1344:1 1439:1 1453:1 1494:1 1533:1 1723:1 1829:1 1882:1 1898:1 1911:1 1962:1 2000:1 
1.901202649793458 3:1 83:1 137:1 190:1 205:1 229:1 264:1 285:1 323:1 442:1 489:1 491:1 521:1 629:1 648:1 726:1 740:1 822:1 919:1 959:1 1031:1 1190:1 1202:1 1203:1 1251:1 1281:1 1453:1 1454:1 1479:1 1494:1 1513:1 1716:1 1793:1 1829:1 1882:1 1946:1 2000:1 2001:1 
