svm_type c_svc
kernel_type rbf
gamma 0.00049975
nr_class 2
total_sv 3741
rho 2.88442
label 1 2
nr_sv 1867 1874
SV
1 3:1 83:1 110:1 167:1 223:1 229:1 264:1 278:1 442:1 554:1 599:1 601:1 611:1 674:1 741:1 743:1 817:1 822:1 931:1 1031:1 1043:1 1047:1 1203:1 1236:1 1244:1 1393:1 1454:1 1479:1 1490:1 1504:1 1512:1 1513:1 1557:1 1630:1 1663:1 1730:1 1762:1 1815:1 1841:1 1844:1 1888:1 1912:1 1997:1 
1 127:1 130:1 137:1 223:1 229:1 232:1 353:1 442:1 470:1 489:1 521:1 561:1 564:1 611:1 726:1 740:1 959:1 1031:1 1057:1 1064:1 1088:1 1121:1 1158:1 1203:1 1205:1 1232:1 1294:1 1479:1 1490:1 1494:1 1495:1 1513:1 1571:1 1601:1 1619:1 1716:1 1762:1 1795:1 1808:1 1829:1 1832:1 1843:1 1873:1 1882:1 1915:1 1960:1 2000:1 
1 15:1 32:1 43:1 55:1 81:1 82:1 83:1 88:1 106:1 123:1 127:1 137:1 145:1 156:1 166:1 190:1 216:1 223:1 229:1 272:1 353:1 431:1 442:1 489:1 491:1 514:1 517:1 521:1 523:1 557:1 564:1 581:1 623:1 659:1 674:1 708:1 718:1 758:1 806:1 822:1 851:1 853:1 896:1 902:1 910:1 921:1 922:1 940:1 957:1 990:1 999:1 1031:1 1036:1 1057:1 1064:1 1093:1 1106:1 1108:1 1109:1 1111:1 1190:1 1203:1 1205:1 1224:1 1281:1 1294:1 1301:1 1307:1 1325:1 1329:1 1344:1 1417:1 1453:1 1479:1 1490:1 1494:1 1513:1 1557:1 1584:1 1593:1 1599:1 1601:1 1668:1 1678:1 1682:1 1713:1 1716:1 1762:1 1774:1 1808:1 1826:1 1829:1 1832:1 1837:1 1838:1 1873:1 1882:1 1890:1 1891:1 1895:1 1942:1 1946:1 1998:1 1999:1 2000:1 
1 3:1 82:1 83:1 88:1 99:1 137:1 165:1 223:1 229:1 278:1 308:1 312:1 362:1 415:1 442:1 453:1 489:1 523:1 554:1 581:1 629:1 689:1 722:1 725:1 726:1 753:1 791:1 822:1 919:1 921:1 994:1 1031:1 1064:1 1093:1 1095:1 1192:1 1203:1 1206:1 1225:1 1235:1 1238:1 1251:1 1329:1 1335:1 1344:1 1347:1 1417:1 1479:1 1490:1 1494:1 1557:1 1601:1 1682:1 1688:1 1729:1 1757:1 1762:1 1789:1 1800:1 1829:1 1832:1 1837:1 1838:1 1873:1 1882:1 1981:1 1993:1 2000:1 
1 3:1 6:1 64:1 81:1 83:1 103:1 137:1 441:1 442:1 449:1 489:1 521:1 561:1 610:1 629:1 648:1 735:1 740:1 805:1 1031:1 1057:1 1093:1 1111:1 1190:1 1202:1 1329:1 1417:1 1458:1 1470:1 1479:1 1490:1 1494:1 1552:1 1559:1 1593:1 1669:1 1716:1 1762:1 1806:1 1809:1 1829:1 2000:1 
0.992843104423248 3:1 21:1 32:1 43:1 63:1 64:1 78:1 79:1 82:1 83:1 85:1 123:1 129:1 131:1 137:1 169:1 170:1 173:1 178:1 191:1 207:1 216:1 226:1 229:1 240:1 272:1 281:1 323:1 352:1 353:1 364:1 367:1 398:1 418:1 440:1 442:1 449:1 469:1 489:1 491:1 521:1 524:1 545:1 557:1 563:1 609:1 620:1 623:1 629:1 668:1 674:1 689:1 698:1 707:1 740:1 741:1 806:1 822:1 823:1 827:1 851:1 893:1 904:1 911:1 919:1 921:1 922:1 923:1 951:1 957:1 1012:1 1031:1 1047:1 1075:1 1088:1 1091:1 1093:1 1096:1 1108:1 1111:1 1133:1 1186:1 1197:1 1203:1 1251:1 1282:1 1290:1 1344:1 1348:1 1363:1 1427:1 1435:1 1479:1 1482:1 1494:1 1500:1 1513:1 1557:1 1562:1 1584:1 1593:1 1599:1 1663:1 1666:1 1682:1 1685:1 1716:1 1723:1 1731:1 1743:1 1762:1 1829:1 1838:1 1898:1 1909:1 1911:1 1997:1 1998:1 1999:1 2000:1 2001:1 
1 3:1 83:1 88:1 137:1 190:1 205:1 223:1 229:1 320:1 355:1 364:1 385:1 392:1 415:1 489:1 521:1 629:1 726:1 740:1 746:1 806:1 822:1 827:1 854:1 912:1 919:1 933:1 959:1 985:1 1031:1 1057:1 1091:1 1125:1 1140:1 1186:1 1203:1 1238:1 1251:1 1256:1 1301:1 1370:1 1417:1 1454:1 1479:1 1486:1 1494:1 1601:1 1649:1 1663:1 1677:1 1731:1 1750:1 1762:1 1911:1 1912:1 1915:1 
1 15:1 29:1 43:1 54:1 56:1 71:1 82:1 83:1 88:1 123:1 127:1 137:1 139:1 163:1 164:1 190:1 216:1 223:1 229:1 240:1 270:1 323:1 340:1 352:1 353:1 398:1 442:1 453:1 489:1 514:1 521:1 537:1 557:1 561:1 569:1 581:1 610:1 620:1 623:1 659:1 674:1 675:1 700:1 708:1 718:1 722:1 740:1 782:1 785:1 795:1 822:1 893:1 911:1 919:1 920:1 959:1 965:1 999:1 1005:1 1031:1 1041:1 1047:1 1048:1 1057:1 1090:1 1108:1 1127:1 1167:1 1193:1 1203:1 1224:1 1239:1 1244:1 1274:1 1294:1 1329:1 1335:1 1386:1 1417:1 1441:1 1479:1 1490:1 1494:1 1495:1 1498:1 1504:1 1516:1 1566:1 1599:1 1601:1 1627:1 1666:1 1682:1 1686:1 1762:1 1764:1 1822:1 1826:1 1829:1 1832:1 1837:1 1920:1 1931:1 1997:1 1998:1 1999:1 
1 3:1 229:1 261:1 264:1 323:1 521:1 640:1 708:1 806:1 908:1 959:1 1093:1 1329:1 1435:1 1454:1 1479:1 1532:1 1677:1 1787:1 1839:1 1891:1 1898:1 
1 82:1 123:1 137:1 223:1 226:1 229:1 323:1 354:1 442:1 451:1 489:1 491:1 521:1 545:1 611:1 674:1 675:1 707:1 782:1 806:1 822:1 893:1 926:1 1047:1 1088:1 1108:1 1111:1 1203:1 1251:1 1274:1 1292:1 1393:1 1454:1 1456:1 1479:1 1490:1 1504:1 1557:1 1666:1 1682:1 1686:1 1716:1 1731:1 1738:1 1832:1 1898:1 1912:1 
1 43:1 82:1 83:1 103:1 137:1 190:1 223:1 229:1 362:1 470:1 611:1 690:1 740:1 756:1 902:1 931:1 990:1 1031:1 1057:1 1280:1 1281:1 1329:1 1479:1 1490:1 
1 1:1 3:1 21:1 73:1 123:1 137:1 188:1 212:1 353:1 718:1 806:1 832:1 919:1 990:1 1223:1 1281:1 1453:1 1454:1 1479:1 1700:1 1814:1 1881:1 
1 78:1 79:1 81:1 82:1 83:1 89:1 137:1 165:1 170:1 191:1 205:1 212:1 223:1 224:1 229:1 254:1 257:1 278:1 312:1 322:1 323:1 353:1 385:1 392:1 398:1 408:1 415:1 441:1 442:1 449:1 453:1 481:1 489:1 491:1 502:1 597:1 611:1 640:1 674:1 708:1 718:1 723:1 751:1 754:1 806:1 823:1 850:1 874:1 911:1 919:1 920:1 959:1 1011:1 1024:1 1041:1 1107:1 1119:1 1123:1 1171:1 1195:1 1203:1 1231:1 1251:1 1261:1 1329:1 1390:1 1417:1 1454:1 1479:1 1494:1 1533:1 1566:1 1620:1 1627:1 1634:1 1637:1 1656:1 1663:1 1768:1 1832:1 1835:1 1882:1 1981:1 1996:1 1997:1 1998:1 1999:1 2000:1 
1 137:1 229:1 278:1 902:1 1031:1 1068:1 1166:1 1244:1 1479:1 1546:1 1716:1 1793:1 1794:1 1834:1 1882:1 1997:1 
1 3:1 82:1 106:1 137:1 161:1 190:1 223:1 229:1 264:1 353:1 354:1 438:1 491:1 521:1 599:1 619:1 667:1 674:1 675:1 740:1 775:1 806:1 822:1 832:1 891:1 940:1 941:1 999:1 1000:1 1031:1 1043:1 1057:1 1177:1 1203:1 1205:1 1224:1 1294:1 1329:1 1344:1 1417:1 1479:1 1490:1 1494:1 1504:1 1555:1 1564:1 1627:1 1670:1 1829:1 1832:1 1837:1 1882:1 1894:1 2000:1 
1 3:1 82:1 83:1 137:1 279:1 293:1 489:1 491:1 518:1 521:1 557:1 561:1 604:1 652:1 665:1 674:1 782:1 822:1 893:1 919:1 1031:1 1185:1 1251:1 1294:1 1311:1 1335:1 1344:1 1349:1 1393:1 1479:1 1494:1 1554:1 1556:1 1682:1 1843:1 1852:1 1915:1 2000:1 
1 144:1 183:1 229:1 581:1 740:1 743:1 806:1 851:1 893:1 919:1 1017:1 1031:1 1118:1 1316:1 1329:1 1332:1 1344:1 1479:1 1494:1 1682:1 1829:1 1832:1 1895:1 1965:1 2000:1 
1 3:1 82:1 83:1 123:1 130:1 137:1 229:1 278:1 308:1 337:1 353:1 407:1 440:1 442:1 489:1 554:1 674:1 718:1 726:1 760:1 822:1 848:1 886:1 911:1 919:1 1031:1 1057:1 1064:1 1076:1 1117:1 1190:1 1203:1 1251:1 1344:1 1439:1 1479:1 1490:1 1494:1 1504:1 1601:1 1637:1 1731:1 1754:1 1829:1 1882:1 1946:1 2000:1 
1 21:1 43:1 78:1 79:1 81:1 82:1 123:1 137:1 158:1 170:1 180:1 223:1 229:1 246:1 278:1 304:1 337:1 406:1 442:1 489:1 491:1 514:1 581:1 647:1 684:1 688:1 722:1 726:1 731:1 775:1 851:1 919:1 999:1 1031:1 1048:1 1091:1 1151:1 1203:1 1243:1 1294:1 1329:1 1335:1 1479:1 1490:1 1494:1 1554:1 1556:1 1599:1 1682:1 1731:1 1762:1 1826:1 1829:1 1839:1 1843:1 1852:1 1997:1 2000:1 
1 82:1 83:1 88:1 98:1 127:1 130:1 137:1 165:1 170:1 229:1 278:1 398:1 481:1 489:1 521:1 558:1 561:1 611:1 647:1 690:1 718:1 722:1 743:1 782:1 822:1 850:1 893:1 1031:1 1055:1 1057:1 1091:1 1167:1 1192:1 1203:1 1305:1 1329:1 1338:1 1407:1 1458:1 1479:1 1490:1 1494:1 1503:1 1599:1 1682:1 1716:1 1754:1 1762:1 1796:1 1829:1 1832:1 1835:1 1882:1 1911:1 1917:1 1981:1 2000:1 
1 39:1 82:1 83:1 131:1 137:1 229:1 323:1 442:1 489:1 504:1 521:1 534:1 581:1 609:1 647:1 688:1 822:1 893:1 904:1 965:1 1031:1 1088:1 1167:1 1335:1 1479:1 1485:1 1490:1 1494:1 1601:1 1682:1 1768:1 1829:1 1911:1 1912:1 2000:1 2001:1 
1 3:1 82:1 137:1 190:1 229:1 392:1 415:1 442:1 450:1 482:1 489:1 521:1 523:1 601:1 623:1 659:1 668:1 708:1 740:1 806:1 822:1 827:1 851:1 876:1 899:1 919:1 959:1 1031:1 1036:1 1057:1 1106:1 1203:1 1220:1 1294:1 1328:1 1329:1 1370:1 1439:1 1454:1 1479:1 1490:1 1557:1 1716:1 1723:1 1754:1 1757:1 1851:1 1882:1 1912:1 1915:1 
1 1:1 137:1 190:1 229:1 287:1 367:1 398:1 442:1 521:1 578:1 632:1 661:1 740:1 959:1 1031:1 1057:1 1076:1 1091:1 1205:1 1244:1 1256:1 1291:1 1329:1 1335:1 1479:1 1490:1 1494:1 1495:1 1504:1 1599:1 1627:1 1718:1 1746:1 1793:1 1848:1 1882:1 1911:1 1942:1 
1 82:1 137:1 223:1 264:1 309:1 323:1 415:1 451:1 620:1 629:1 674:1 686:1 740:1 754:1 1017:1 1125:1 1190:1 1203:1 1335:1 1395:1 1479:1 1663:1 1911:1 
1 3:1 21:1 43:1 82:1 83:1 88:1 110:1 137:1 190:1 216:1 223:1 229:1 264:1 364:1 392:1 398:1 414:1 415:1 427:1 457:1 489:1 491:1 521:1 523:1 581:1 599:1 604:1 618:1 623:1 629:1 674:1 708:1 775:1 916:1 950:1 1022:1 1031:1 1036:1 1047:1 1076:1 1091:1 1093:1 1203:1 1224:1 1294:1 1301:1 1332:1 1402:1 1460:1 1479:1 1490:1 1494:1 1504:1 1714:1 1749:1 1757:1 1826:1 1829:1 1832:1 1854:1 1882:1 1941:1 1998:1 1999:1 2000:1 
1 83:1 137:1 144:1 190:1 223:1 224:1 229:1 303:1 323:1 398:1 415:1 418:1 489:1 521:1 522:1 572:1 601:1 610:1 643:1 668:1 740:1 797:1 798:1 896:1 919:1 959:1 999:1 1017:1 1031:1 1057:1 1127:1 1151:1 1203:1 1223:1 1294:1 1335:1 1417:1 1479:1 1484:1 1490:1 1504:1 1731:1 1754:1 1757:1 1762:1 1832:1 1834:1 1882:1 1912:1 1915:1 
1 3:1 7:1 83:1 137:1 180:1 190:1 191:1 229:1 291:1 442:1 489:1 491:1 629:1 889:1 893:1 920:1 1031:1 1139:1 1151:1 1190:1 1199:1 1203:1 1216:1 1263:1 1335:1 1344:1 1358:1 1479:1 1494:1 1532:1 1598:1 1601:1 1682:1 1736:1 1813:1 1824:1 1829:1 1836:1 1837:1 1882:1 1912:1 1954:1 2000:1 
1 1:1 2:1 3:1 11:1 15:1 21:1 50:1 73:1 78:1 79:1 82:1 83:1 85:1 88:1 89:1 92:1 103:1 127:1 130:1 131:1 137:1 160:1 168:1 180:1 191:1 205:1 214:1 223:1 229:1 254:1 264:1 278:1 283:1 285:1 293:1 362:1 370:1 420:1 428:1 441:1 442:1 489:1 491:1 514:1 521:1 523:1 536:1 555:1 557:1 559:1 562:1 564:1 569:1 578:1 581:1 599:1 601:1 622:1 629:1 663:1 666:1 674:1 675:1 722:1 726:1 746:1 759:1 806:1 822:1 823:1 827:1 908:1 955:1 959:1 1025:1 1031:1 1165:1 1192:1 1203:1 1240:1 1242:1 1251:1 1294:1 1301:1 1323:1 1335:1 1341:1 1389:1 1403:1 1417:1 1435:1 1453:1 1454:1 1473:1 1479:1 1485:1 1490:1 1494:1 1496:1 1504:1 1512:1 1554:1 1556:1 1599:1 1601:1 1623:1 1642:1 1650:1 1682:1 1687:1 1697:1 1705:1 1714:1 1716:1 1726:1 1762:1 1766:1 1768:1 1774:1 1775:1 1777:1 1785:1 1793:1 1796:1 1798:1 1801:1 1809:1 1811:1 1826:1 1829:1 1838:1 1849:1 1871:1 1882:1 1893:1 1912:1 1915:1 1942:1 1946:1 1997:1 1998:1 1999:1 2000:1 2001:1 
1 3:1 82:1 137:1 312:1 323:1 489:1 822:1 965:1 1329:1 1344:1 1453:1 1485:1 1490:1 1627:1 1731:1 1838:1 1882:1 
1 3:1 36:1 59:1 278:1 364:1 385:1 442:1 578:1 731:1 817:1 822:1 919:1 990:1 1017:1 1091:1 1111:1 1335:1 1344:1 1479:1 1494:1 1829:1 2000:1 
1 3:1 21:1 82:1 83:1 130:1 190:1 216:1 223:1 229:1 270:1 293:1 420:1 489:1 523:1 581:1 666:1 674:1 708:1 718:1 726:1 728:1 760:1 770:1 812:1 859:1 896:1 908:1 933:1 994:1 998:1 1017:1 1076:1 1106:1 1115:1 1203:1 1224:1 1272:1 1328:1 1335:1 1344:1 1407:1 1479:1 1504:1 1507:1 1595:1 1714:1 1777:1 1787:1 1800:1 1815:1 1835:1 1838:1 1911:1 1915:1 2000:1 
1 3:1 43:1 82:1 85:1 88:1 130:1 188:1 190:1 229:1 278:1 489:1 533:1 561:1 581:1 648:1 708:1 770:1 822:1 899:1 919:1 955:1 998:1 999:1 1031:1 1106:1 1115:1 1203:1 1224:1 1274:1 1328:1 1335:1 1344:1 1479:1 1490:1 1494:1 1829:1 1862:1 2000:1 
1 3:1 21:1 82:1 83:1 103:1 111:1 137:1 162:1 190:1 223:1 229:1 230:1 278:1 306:1 308:1 415:1 442:1 451:1 489:1 504:1 521:1 553:1 583:1 611:1 674:1 708:1 722:1 782:1 784:1 791:1 817:1 822:1 846:1 888:1 893:1 904:1 920:1 955:1 959:1 987:1 990:1 1017:1 1031:1 1035:1 1059:1 1108:1 1192:1 1203:1 1220:1 1281:1 1294:1 1452:1 1453:1 1454:1 1479:1 1490:1 1557:1 1567:1 1716:1 1733:1 1744:1 1803:1 1826:1 1832:1 1882:1 1942:1 1946:1 
0.3580094559882072 3:1 13:1 24:1 69:1 82:1 88:1 110:1 137:1 216:1 218:1 223:1 229:1 240:1 293:1 320:1 340:1 353:1 364:1 418:1 442:1 489:1 491:1 521:1 523:1 531:1 535:1 542:1 557:1 581:1 662:1 708:1 718:1 750:1 791:1 798:1 822:1 836:1 893:1 919:1 999:1 1000:1 1017:1 1035:1 1048:1 1091:1 1102:1 1112:1 1139:1 1165:1 1171:1 1195:1 1203:1 1216:1 1223:1 1281:1 1305:1 1330:1 1335:1 1344:1 1386:1 1479:1 1490:1 1494:1 1503:1 1504:1 1563:1 1587:1 1666:1 1682:1 1718:1 1762:1 1768:1 1829:1 1837:1 1842:1 1915:1 1930:1 1942:1 1945:1 1952:1 1991:1 1996:1 1998:1 1999:1 2000:1 
1 23:1 242:1 364:1 418:1 491:1 498:1 519:1 521:1 599:1 674:1 726:1 893:1 990:1 1171:1 1192:1 1199:1 1239:1 1301:1 1479:1 1701:1 1791:1 1826:1 1882:1 1891:1 1895:1 
1 3:1 82:1 137:1 144:1 226:1 229:1 240:1 278:1 308:1 311:1 312:1 323:1 353:1 423:1 442:1 449:1 489:1 491:1 525:1 557:1 599:1 610:1 611:1 726:1 733:1 735:1 822:1 919:1 1000:1 1011:1 1031:1 1180:1 1203:1 1232:1 1251:1 1281:1 1344:1 1435:1 1479:1 1490:1 1494:1 1532:1 1666:1 1682:1 1716:1 1748:1 1762:1 1793:1 1829:1 1840:1 1882:1 1942:1 1998:1 1999:1 2000:1 
1 229:1 398:1 601:1 674:1 700:1 713:1 911:1 931:1 1041:1 1203:1 1341:1 1344:1 1479:1 1494:1 1762:1 1829:1 1832:1 1837:1 1997:1 2000:1 
1 1:1 83:1 88:1 190:1 364:1 398:1 476:1 523:1 557:1 658:1 674:1 696:1 708:1 722:1 728:1 791:1 822:1 827:1 893:1 959:1 990:1 1031:1 1203:1 1294:1 1330:1 1479:1 1682:1 1688:1 1832:1 1834:1 1873:1 
1 43:1 82:1 83:1 110:1 130:1 137:1 188:1 190:1 214:1 223:1 229:1 246:1 254:1 330:1 415:1 420:1 449:1 489:1 521:1 523:1 564:1 609:1 665:1 674:1 743:1 782:1 822:1 832:1 851:1 893:1 940:1 957:1 959:1 1031:1 1036:1 1047:1 1193:1 1203:1 1223:1 1224:1 1263:1 1325:1 1329:1 1341:1 1390:1 1427:1 1453:1 1479:1 1490:1 1494:1 1504:1 1557:1 1566:1 1646:1 1682:1 1700:1 1762:1 1832:1 1837:1 2001:1 
1 144:1 229:1 489:1 728:1 846:1 959:1 1017:1 1060:1 1329:1 1838:1 1882:1 1892:1 
1 15:1 20:1 41:1 81:1 82:1 83:1 88:1 106:1 109:1 130:1 137:1 144:1 170:1 190:1 223:1 224:1 229:1 270:1 272:1 323:1 336:1 362:1 368:1 398:1 411:1 420:1 427:1 438:1 442:1 476:1 491:1 531:1 557:1 578:1 581:1 590:1 599:1 609:1 610:1 611:1 620:1 622:1 629:1 648:1 654:1 696:1 707:1 708:1 728:1 732:1 743:1 782:1 791:1 806:1 812:1 813:1 822:1 832:1 836:1 850:1 853:1 895:1 896:1 899:1 902:1 908:1 955:1 965:1 991:1 992:1 999:1 1031:1 1047:1 1066:1 1126:1 1171:1 1192:1 1203:1 1205:1 1207:1 1230:1 1237:1 1239:1 1240:1 1250:1 1251:1 1294:1 1329:1 1335:1 1386:1 1400:1 1417:1 1454:1 1456:1 1479:1 1490:1 1506:1 1511:1 1534:1 1552:1 1601:1 1643:1 1650:1 1667:1 1682:1 1703:1 1731:1 1762:1 1826:1 1832:1 1837:1 1839:1 1871:1 1882:1 1906:1 1908:1 1911:1 1925:1 1928:1 1942:1 1981:1 1997:1 1998:1 1999:1 2000:1 2001:1 
1 3:1 15:1 17:1 49:1 82:1 85:1 106:1 183:1 223:1 229:1 287:1 364:1 518:1 533:1 535:1 542:1 581:1 677:1 743:1 771:1 822:1 858:1 1031:1 1095:1 1126:1 1335:1 1344:1 1435:1 1479:1 1490:1 1494:1 1650:1 1674:1 1789:1 1829:1 1873:1 1895:1 2000:1 
1 3:1 82:1 137:1 190:1 229:1 392:1 415:1 442:1 450:1 482:1 489:1 521:1 523:1 601:1 623:1 659:1 668:1 708:1 740:1 806:1 822:1 827:1 851:1 876:1 899:1 919:1 959:1 1031:1 1036:1 1057:1 1106:1 1203:1 1220:1 1294:1 1328:1 1329:1 1370:1 1439:1 1454:1 1479:1 1490:1 1557:1 1716:1 1723:1 1754:1 1757:1 1851:1 1882:1 1912:1 1915:1 
1 1:1 137:1 190:1 229:1 287:1 367:1 398:1 442:1 521:1 578:1 632:1 661:1 740:1 959:1 1031:1 1057:1 1076:1 1091:1 1205:1 1244:1 1256:1 1291:1 1329:1 1335:1 1479:1 1490:1 1494:1 1495:1 1504:1 1599:1 1627:1 1718:1 1746:1 1793:1 1848:1 1882:1 1911:1 1942:1 
1 82:1 137:1 223:1 264:1 309:1 323:1 415:1 451:1 620:1 629:1 674:1 686:1 740:1 754:1 1017:1 1125:1 1190:1 1203:1 1335:1 1395:1 1479:1 1663:1 1911:1 
1 82:1 85:1 264:1 439:1 489:1 521:1 559:1 876:1 919:1 1025:1 1031:1 1192:1 1203:1 1335:1 1479:1 1494:1 1716:1 1731:1 1762:1 1777:1 1829:1 2000:1 
1 46:1 82:1 83:1 131:1 226:1 229:1 442:1 489:1 521:1 535:1 554:1 557:1 629:1 665:1 680:1 708:1 726:1 740:1 822:1 854:1 893:1 999:1 1031:1 1108:1 1329:1 1335:1 1344:1 1400:1 1455:1 1473:1 1479:1 1490:1 1494:1 1503:1 1557:1 1627:1 1682:1 1813:1 1829:1 1850:1 1882:1 1912:1 1965:1 1994:1 2000:1 
1 39:1 82:1 83:1 123:1 139:1 162:1 180:1 229:1 312:1 337:1 367:1 415:1 449:1 489:1 521:1 554:1 569:1 578:1 674:1 696:1 708:1 718:1 726:1 740:1 782:1 806:1 822:1 854:1 876:1 919:1 935:1 950:1 990:1 994:1 999:1 1001:1 1031:1 1047:1 1091:1 1093:1 1108:1 1203:1 1206:1 1220:1 1230:1 1251:1 1305:1 1344:1 1403:1 1425:1 1453:1 1479:1 1490:1 1494:1 1576:1 1601:1 1606:1 1716:1 1762:1 1799:1 1829:1 1832:1 1842:1 1882:1 1912:1 1920:1 2000:1 
1 3:1 15:1 32:1 78:1 79:1 82:1 83:1 123:1 229:1 278:1 287:1 309:1 323:1 353:1 401:1 442:1 459:1 476:1 491:1 521:1 593:1 598:1 599:1 610:1 611:1 620:1 629:1 667:1 674:1 688:1 731:1 806:1 821:1 822:1 827:1 853:1 893:1 907:1 994:1 1011:1 1024:1 1031:1 1035:1 1038:1 1050:1 1074:1 1126:1 1180:1 1203:1 1220:1 1237:1 1251:1 1276:1 1377:1 1386:1 1393:1 1457:1 1479:1 1490:1 1494:1 1498:1 1557:1 1600:1 1623:1 1650:1 1651:1 1674:1 1682:1 1713:1 1718:1 1745:1 1829:1 1837:1 1997:1 1998:1 1999:1 2000:1 
1 83:1 229:1 264:1 323:1 521:1 554:1 648:1 718:1 822:1 893:1 907:1 919:1 999:1 1244:1 1479:1 1599:1 1623:1 1682:1 1878:1 1912:1 
1 81:1 82:1 83:1 85:1 106:1 123:1 127:1 137:1 190:1 207:1 223:1 229:1 232:1 242:1 276:1 278:1 323:1 337:1 364:1 366:1 385:1 395:1 408:1 420:1 442:1 445:1 481:1 486:1 489:1 512:1 521:1 523:1 561:1 564:1 578:1 599:1 622:1 623:1 629:1 659:1 666:1 674:1 708:1 718:1 728:1 805:1 806:1 822:1 824:1 922:1 950:1 965:1 990:1 999:1 1001:1 1013:1 1047:1 1091:1 1121:1 1171:1 1179:1 1203:1 1251:1 1329:1 1358:1 1370:1 1373:1 1400:1 1433:1 1454:1 1479:1 1490:1 1494:1 1513:1 1532:1 1578:1 1601:1 1627:1 1663:1 1682:1 1731:1 1762:1 1832:1 1844:1 1873:1 1882:1 1895:1 1912:1 1997:1 2001:1 
1 3:1 39:1 66:1 83:1 88:1 127:1 130:1 229:1 247:1 340:1 489:1 491:1 581:1 708:1 743:1 822:1 931:1 1031:1 1099:1 1203:1 1224:1 1251:1 1294:1 1329:1 1331:1 1386:1 1426:1 1479:1 1490:1 1494:1 1599:1 1601:1 1682:1 1762:1 1790:1 1832:1 1882:1 1898:1 1911:1 1975:1 
1 1:1 72:1 83:1 88:1 123:1 130:1 137:1 160:1 178:1 223:1 229:1 240:1 264:1 278:1 323:1 353:1 369:1 428:1 442:1 469:1 489:1 491:1 523:1 557:1 590:1 599:1 601:1 606:1 609:1 620:1 648:1 674:1 682:1 753:1 822:1 895:1 958:1 959:1 994:1 1031:1 1041:1 1047:1 1117:1 1203:1 1223:1 1252:1 1329:1 1344:1 1370:1 1426:1 1435:1 1479:1 1490:1 1494:1 1498:1 1513:1 1597:1 1738:1 1762:1 1829:1 1832:1 1844:1 1912:1 1946:1 2000:1 
1 3:1 198:1 223:1 264:1 278:1 456:1 521:1 708:1 806:1 999:1 1031:1 1203:1 1220:1 1335:1 1435:1 1454:1 1479:1 1490:1 1495:1 1598:1 1870:1 
1 3:1 137:1 177:1 229:1 232:1 353:1 491:1 504:1 521:1 561:1 599:1 620:1 893:1 919:1 1031:1 1171:1 1259:1 1329:1 1344:1 1479:1 1494:1 1533:1 1546:1 1710:1 1759:1 1762:1 1766:1 1785:1 1829:1 1946:1 2000:1 
1 56:1 75:1 82:1 123:1 137:1 180:1 190:1 229:1 353:1 364:1 398:1 442:1 489:1 491:1 578:1 646:1 665:1 666:1 668:1 693:1 708:1 795:1 798:1 806:1 933:1 957:1 973:1 1091:1 1106:1 1111:1 1186:1 1203:1 1223:1 1224:1 1263:1 1273:1 1276:1 1281:1 1335:1 1344:1 1348:1 1363:1 1385:1 1417:1 1479:1 1494:1 1495:1 1513:1 1663:1 1762:1 1829:1 1832:1 1837:1 1838:1 1848:1 1882:1 1951:1 1997:1 2000:1 
1 111:1 137:1 229:1 257:1 278:1 308:1 353:1 425:1 489:1 599:1 718:1 728:1 791:1 919:1 958:1 967:1 1031:1 1041:1 1203:1 1446:1 1479:1 1490:1 1513:1 1832:1 
1 3:1 29:1 82:1 83:1 85:1 88:1 89:1 130:1 137:1 170:1 178:1 180:1 190:1 191:1 216:1 217:1 229:1 287:1 293:1 337:1 353:1 354:1 362:1 398:1 415:1 416:1 438:1 442:1 489:1 491:1 521:1 527:1 537:1 557:1 572:1 578:1 584:1 601:1 608:1 611:1 660:1 674:1 718:1 722:1 740:1 753:1 774:1 778:1 806:1 822:1 832:1 854:1 863:1 875:1 876:1 896:1 911:1 919:1 931:1 950:1 965:1 994:1 1031:1 1048:1 1064:1 1070:1 1091:1 1140:1 1181:1 1199:1 1203:1 1214:1 1224:1 1251:1 1266:1 1274:1 1285:1 1312:1 1335:1 1344:1 1449:1 1453:1 1473:1 1479:1 1485:1 1486:1 1490:1 1494:1 1504:1 1513:1 1532:1 1533:1 1599:1 1600:1 1601:1 1619:1 1620:1 1643:1 1663:1 1678:1 1682:1 1716:1 1723:1 1737:1 1738:1 1762:1 1829:1 1832:1 1837:1 1838:1 1997:1 2000:1 
1 3:1 10:1 82:1 83:1 110:1 170:1 191:1 199:1 229:1 232:1 398:1 521:1 523:1 532:1 564:1 569:1 688:1 740:1 743:1 782:1 822:1 851:1 864:1 911:1 931:1 959:1 1031:1 1041:1 1048:1 1057:1 1244:1 1281:1 1294:1 1329:1 1479:1 1490:1 1593:1 1601:1 1725:1 1762:1 1832:1 1915:1 1998:1 1999:1 
0.8856685422766947 3:1 59:1 82:1 85:1 88:1 137:1 180:1 190:1 191:1 212:1 216:1 223:1 224:1 229:1 261:1 264:1 278:1 308:1 309:1 354:1 367:1 393:1 398:1 440:1 457:1 462:1 514:1 521:1 522:1 523:1 547:1 578:1 581:1 601:1 629:1 648:1 668:1 674:1 722:1 726:1 753:1 779:1 806:1 816:1 822:1 846:1 851:1 854:1 908:1 911:1 919:1 957:1 959:1 990:1 999:1 1031:1 1057:1 1092:1 1127:1 1181:1 1190:1 1203:1 1251:1 1274:1 1335:1 1382:1 1391:1 1393:1 1396:1 1403:1 1420:1 1439:1 1453:1 1479:1 1490:1 1494:1 1498:1 1504:1 1557:1 1566:1 1599:1 1601:1 1630:1 1655:1 1682:1 1731:1 1743:1 1762:1 1809:1 1829:1 1832:1 1837:1 1843:1 1865:1 1871:1 1872:1 1910:1 1911:1 1914:1 1997:1 2000:1 
1 88:1 137:1 223:1 229:1 264:1 278:1 353:1 398:1 442:1 456:1 533:1 561:1 564:1 622:1 722:1 822:1 999:1 1031:1 1117:1 1128:1 1203:1 1342:1 1453:1 1454:1 1479:1 1566:1 1601:1 1731:1 1837:1 1930:1 2000:1 
1 82:1 83:1 137:1 178:1 190:1 229:1 364:1 442:1 457:1 523:1 581:1 674:1 722:1 728:1 1017:1 1203:1 1224:1 1344:1 1403:1 1677:1 1705:1 1785:1 1832:1 1877:1 
1 63:1 83:1 119:1 124:1 195:1 229:1 231:1 264:1 278:1 323:1 367:1 521:1 580:1 581:1 588:1 599:1 623:1 666:1 740:1 850:1 893:1 1031:1 1057:1 1093:1 1344:1 1453:1 1494:1 1557:1 1646:1 1682:1 1746:1 1747:1 1762:1 1829:1 1858:1 1895:1 1909:1 1912:1 1981:1 2000:1 
1 3:1 41:1 49:1 88:1 89:1 123:1 137:1 188:1 190:1 196:1 229:1 232:1 239:1 312:1 415:1 418:1 423:1 442:1 456:1 489:1 491:1 531:1 569:1 587:1 674:1 722:1 789:1 806:1 807:1 830:1 832:1 850:1 851:1 970:1 987:1 990:1 1057:1 1088:1 1149:1 1190:1 1199:1 1203:1 1242:1 1305:1 1335:1 1344:1 1439:1 1479:1 1494:1 1513:1 1606:1 1652:1 1710:1 1757:1 1829:1 1832:1 1837:1 1915:1 1997:1 2000:1 
1 55:1 82:1 83:1 85:1 137:1 165:1 191:1 205:1 223:1 229:1 323:1 354:1 401:1 420:1 442:1 497:1 521:1 554:1 578:1 623:1 667:1 722:1 775:1 801:1 816:1 822:1 836:1 854:1 933:1 991:1 994:1 1031:1 1091:1 1180:1 1186:1 1190:1 1203:1 1296:1 1344:1 1454:1 1473:1 1479:1 1490:1 1494:1 1504:1 1557:1 1564:1 1716:1 1726:1 1731:1 1759:1 1762:1 1826:1 1829:1 1837:1 1844:1 1871:1 1912:1 1951:1 1998:1 1999:1 2000:1 
1 1:1 72:1 83:1 229:1 264:1 279:1 323:1 353:1 520:1 531:1 581:1 619:1 654:1 668:1 722:1 822:1 846:1 851:1 893:1 965:1 1055:1 1058:1 1203:1 1232:1 1294:1 1316:1 1329:1 1454:1 1479:1 1490:1 1494:1 1554:1 1555:1 1556:1 1593:1 1601:1 1682:1 1714:1 1762:1 1814:1 1847:1 1882:1 1981:1 
1 85:1 137:1 223:1 229:1 323:1 368:1 779:1 822:1 893:1 911:1 1017:1 1031:1 1064:1 1192:1 1203:1 1263:1 1294:1 1335:1 1479:1 1494:1 1571:1 1601:1 1682:1 1700:1 1731:1 1757:1 1802:1 1882:1 
1 3:1 137:1 340:1 469:1 514:1 722:1 893:1 931:1 1194:1 1203:1 1344:1 1391:1 1479:1 1666:1 1682:1 1757:1 1762:1 
1 3:1 24:1 82:1 83:1 137:1 210:1 226:1 229:1 246:1 308:1 323:1 365:1 453:1 456:1 471:1 521:1 557:1 601:1 629:1 665:1 674:1 682:1 722:1 740:1 753:1 822:1 893:1 908:1 931:1 999:1 1031:1 1066:1 1088:1 1149:1 1165:1 1166:1 1167:1 1203:1 1218:1 1237:1 1294:1 1329:1 1439:1 1479:1 1504:1 1556:1 1596:1 1601:1 1677:1 1713:1 1716:1 1734:1 1754:1 1826:1 1832:1 1898:1 1959:1 1997:1 
1 59:1 82:1 83:1 88:1 89:1 98:1 137:1 170:1 190:1 195:1 223:1 229:1 418:1 442:1 450:1 514:1 578:1 599:1 717:1 822:1 893:1 899:1 965:1 1027:1 1031:1 1050:1 1057:1 1064:1 1091:1 1126:1 1203:1 1224:1 1329:1 1344:1 1473:1 1479:1 1490:1 1494:1 1650:1 1793:1 1829:1 1832:1 1838:1 1839:1 1915:1 2000:1 
1 82:1 83:1 137:1 144:1 168:1 223:1 229:1 264:1 285:1 367:1 489:1 503:1 521:1 578:1 622:1 648:1 690:1 708:1 782:1 807:1 893:1 959:1 1031:1 1048:1 1159:1 1281:1 1420:1 1454:1 1479:1 1504:1 1561:1 1601:1 1650:1 1689:1 1714:1 1731:1 1762:1 1832:1 1873:1 1951:1 1997:1 
1 130:1 190:1 278:1 718:1 822:1 919:1 1017:1 1057:1 1203:1 1261:1 1479:1 1494:1 1600:1 
1 78:1 79:1 82:1 83:1 137:1 223:1 229:1 264:1 420:1 442:1 481:1 501:1 521:1 610:1 708:1 735:1 740:1 1017:1 1031:1 1108:1 1294:1 1417:1 1473:1 1479:1 1490:1 1557:1 1599:1 1806:1 1826:1 1920:1 1997:1 
1 39:1 83:1 103:1 137:1 190:1 223:1 264:1 323:1 398:1 442:1 451:1 477:1 554:1 561:1 629:1 662:1 708:1 740:1 822:1 973:1 999:1 1031:1 1192:1 1453:1 1479:1 1490:1 1494:1 1504:1 1601:1 1628:1 1731:1 1762:1 1832:1 1844:1 1871:1 1997:1 
1 3:1 130:1 137:1 144:1 330:1 353:1 546:1 611:1 717:1 822:1 893:1 959:1 1138:1 1274:1 1281:1 1454:1 1473:1 1494:1 1666:1 1682:1 1726:1 1829:1 1891:1 1946:1 2000:1 
1 3:1 54:1 82:1 83:1 110:1 133:1 137:1 223:1 229:1 247:1 353:1 440:1 442:1 469:1 489:1 491:1 561:1 581:1 601:1 629:1 674:1 690:1 708:1 722:1 740:1 797:1 806:1 893:1 896:1 919:1 957:1 999:1 1031:1 1041:1 1093:1 1111:1 1244:1 1246:1 1251:1 1263:1 1294:1 1305:1 1335:1 1344:1 1363:1 1370:1 1385:1 1413:1 1417:1 1442:1 1479:1 1490:1 1494:1 1495:1 1533:1 1563:1 1571:1 1599:1 1601:1 1619:1 1630:1 1663:1 1677:1 1682:1 1718:1 1731:1 1762:1 1768:1 1785:1 1790:1 1821:1 1825:1 1826:1 1829:1 1832:1 1836:1 1882:1 1898:1 2000:1 
1 3:1 78:1 79:1 82:1 83:1 88:1 107:1 137:1 145:1 180:1 190:1 207:1 224:1 229:1 352:1 353:1 564:1 572:1 605:1 668:1 674:1 708:1 722:1 753:1 785:1 791:1 796:1 850:1 908:1 959:1 991:1 1031:1 1054:1 1112:1 1177:1 1203:1 1205:1 1224:1 1254:1 1329:1 1344:1 1362:1 1385:1 1417:1 1479:1 1481:1 1490:1 1494:1 1504:1 1593:1 1599:1 1601:1 1623:1 1677:1 1716:1 1731:1 1771:1 1809:1 1821:1 1829:1 1832:1 1841:1 1843:1 1871:1 1882:1 2000:1 2001:1 
1 1:1 83:1 85:1 106:1 113:1 123:1 130:1 137:1 144:1 180:1 188:1 190:1 193:1 195:1 207:1 214:1 223:1 229:1 232:1 236:1 240:1 246:1 293:1 321:1 354:1 364:1 367:1 382:1 383:1 391:1 398:1 401:1 415:1 418:1 440:1 442:1 449:1 489:1 491:1 504:1 521:1 523:1 528:1 529:1 557:1 569:1 578:1 581:1 584:1 599:1 601:1 605:1 611:1 620:1 629:1 642:1 652:1 657:1 659:1 668:1 674:1 678:1 684:1 689:1 708:1 718:1 722:1 726:1 740:1 797:1 798:1 817:1 822:1 823:1 851:1 876:1 886:1 889:1 893:1 908:1 919:1 938:1 955:1 962:1 979:1 993:1 994:1 1016:1 1017:1 1031:1 1036:1 1047:1 1058:1 1064:1 1088:1 1091:1 1095:1 1111:1 1139:1 1186:1 1203:1 1205:1 1220:1 1223:1 1251:1 1274:1 1290:1 1294:1 1305:1 1316:1 1329:1 1335:1 1417:1 1453:1 1474:1 1478:1 1479:1 1482:1 1486:1 1490:1 1504:1 1506:1 1507:1 1508:1 1513:1 1523:1 1552:1 1554:1 1557:1 1590:1 1601:1 1663:1 1682:1 1699:1 1703:1 1718:1 1762:1 1764:1 1777:1 1789:1 1798:1 1808:1 1811:1 1826:1 1829:1 1832:1 1842:1 1861:1 1871:1 1873:1 1891:1 1895:1 1898:1 
1 83:1 123:1 130:1 137:1 147:1 191:1 212:1 217:1 223:1 229:1 246:1 283:1 287:1 353:1 398:1 418:1 461:1 523:1 544:1 557:1 564:1 578:1 599:1 605:1 648:1 660:1 674:1 708:1 711:1 726:1 762:1 797:1 851:1 874:1 911:1 916:1 965:1 990:1 999:1 1031:1 1047:1 1070:1 1085:1 1091:1 1106:1 1111:1 1181:1 1203:1 1205:1 1251:1 1294:1 1329:1 1344:1 1348:1 1417:1 1433:1 1435:1 1451:1 1479:1 1494:1 1504:1 1513:1 1522:1 1554:1 1603:1 1663:1 1713:1 1716:1 1723:1 1746:1 1829:1 1832:1 1837:1 1839:1 1871:1 1892:1 1894:1 2000:1 
1 3:1 7:1 31:1 81:1 82:1 83:1 113:1 123:1 130:1 137:1 190:1 205:1 229:1 247:1 261:1 278:1 285:1 308:1 353:1 418:1 442:1 469:1 491:1 506:1 521:1 522:1 581:1 582:1 599:1 611:1 674:1 682:1 690:1 722:1 743:1 782:1 790:1 822:1 874:1 904:1 931:1 957:1 1031:1 1041:1 1057:1 1101:1 1117:1 1203:1 1217:1 1223:1 1224:1 1263:1 1281:1 1329:1 1334:1 1342:1 1344:1 1389:1 1393:1 1442:1 1454:1 1479:1 1490:1 1494:1 1533:1 1571:1 1601:1 1630:1 1663:1 1731:1 1738:1 1746:1 1762:1 1787:1 1790:1 1829:1 1832:1 1837:1 1882:1 1898:1 1912:1 1915:1 1928:1 2000:1 
1 1:1 72:1 83:1 123:1 137:1 139:1 165:1 170:1 173:1 180:1 251:1 283:1 312:1 323:1 418:1 424:1 440:1 441:1 442:1 491:1 521:1 523:1 578:1 599:1 601:1 609:1 610:1 623:1 674:1 722:1 743:1 751:1 822:1 851:1 908:1 933:1 1031:1 1041:1 1057:1 1091:1 1203:1 1251:1 1294:1 1305:1 1341:1 1344:1 1453:1 1462:1 1470:1 1479:1 1494:1 1504:1 1532:1 1552:1 1555:1 1576:1 1601:1 1762:1 1791:1 1829:1 1881:1 1892:1 1942:1 2000:1 
1 82:1 83:1 103:1 111:1 137:1 170:1 223:1 229:1 296:1 308:1 323:1 353:1 415:1 504:1 564:1 642:1 661:1 668:1 690:1 722:1 726:1 743:1 782:1 789:1 790:1 833:1 893:1 919:1 1017:1 1031:1 1036:1 1091:1 1203:1 1329:1 1479:1 1490:1 1494:1 1601:1 1666:1 1678:1 1682:1 1731:1 1829:1 2000:1 
1 1:1 3:1 123:1 137:1 163:1 166:1 180:1 188:1 190:1 229:1 278:1 293:1 415:1 708:1 785:1 822:1 1031:1 1041:1 1052:1 1224:1 1244:1 1251:1 1335:1 1401:1 1417:1 1433:1 1451:1 1470:1 1479:1 1490:1 1552:1 1566:1 1593:1 1599:1 1704:1 1713:1 1726:1 1977:1 
0.9492313119911248 82:1 83:1 123:1 137:1 229:1 264:1 312:1 336:1 415:1 439:1 445:1 521:1 554:1 569:1 610:1 639:1 648:1 680:1 726:1 741:1 822:1 999:1 1017:1 1031:1 1050:1 1108:1 1111:1 1175:1 1329:1 1344:1 1479:1 1490:1 1494:1 1503:1 1754:1 1757:1 1762:1 1772:1 1829:1 2000:1 
1 8:1 21:1 24:1 30:1 43:1 81:1 82:1 83:1 88:1 99:1 123:1 137:1 160:1 177:1 178:1 191:1 193:1 205:1 218:1 223:1 224:1 229:1 240:1 251:1 264:1 278:1 287:1 308:1 309:1 311:1 320:1 323:1 364:1 389:1 393:1 398:1 418:1 420:1 424:1 425:1 442:1 489:1 491:1 518:1 521:1 523:1 524:1 528:1 555:1 561:1 599:1 609:1 620:1 623:1 667:1 674:1 677:1 682:1 696:1 708:1 722:1 726:1 728:1 733:1 743:1 745:1 746:1 770:1 782:1 798:1 822:1 854:1 883:1 893:1 911:1 919:1 922:1 970:1 1031:1 1036:1 1057:1 1064:1 1088:1 1203:1 1205:1 1231:1 1243:1 1301:1 1329:1 1335:1 1344:1 1369:1 1394:1 1400:1 1417:1 1439:1 1448:1 1451:1 1456:1 1479:1 1490:1 1494:1 1504:1 1545:1 1601:1 1625:1 1659:1 1666:1 1669:1 1678:1 1682:1 1743:1 1760:1 1762:1 1791:1 1793:1 1809:1 1826:1 1829:1 1832:1 1837:1 1848:1 1871:1 1872:1 1878:1 1882:1 1892:1 1911:1 1915:1 1977:1 1981:1 1998:1 1999:1 2000:1 2001:1 
1 21:1 82:1 137:1 190:1 229:1 353:1 599:1 708:1 790:1 958:1 1041:1 1177:1 1203:1 1224:1 1246:1 1301:1 1451:1 1479:1 1625:1 1704:1 1731:1 1997:1 
1 3:1 21:1 81:1 82:1 83:1 88:1 137:1 212:1 229:1 240:1 312:1 353:1 389:1 399:1 449:1 491:1 514:1 523:1 599:1 708:1 718:1 722:1 726:1 893:1 921:1 926:1 1041:1 1047:1 1106:1 1203:1 1251:1 1274:1 1281:1 1344:1 1479:1 1490:1 1494:1 1601:1 1682:1 1762:1 1790:1 1829:1 1873:1 1882:1 1911:1 1942:1 1977:1 2000:1 
1 3:1 82:1 83:1 137:1 138:1 190:1 191:1 212:1 216:1 223:1 229:1 272:1 392:1 415:1 453:1 491:1 518:1 520:1 521:1 523:1 572:1 581:1 601:1 674:1 722:1 726:1 728:1 775:1 836:1 911:1 931:1 987:1 1031:1 1036:1 1057:1 1058:1 1064:1 1081:1 1165:1 1199:1 1203:1 1219:1 1294:1 1301:1 1329:1 1335:1 1344:1 1382:1 1386:1 1479:1 1490:1 1494:1 1576:1 1601:1 1682:1 1766:1 1829:1 1832:1 1946:1 2000:1 
1 83:1 137:1 138:1 170:1 212:1 223:1 309:1 398:1 442:1 453:1 611:1 619:1 708:1 722:1 775:1 791:1 803:1 822:1 854:1 959:1 984:1 1010:1 1022:1 1031:1 1035:1 1203:1 1214:1 1244:1 1274:1 1316:1 1329:1 1430:1 1446:1 1453:1 1479:1 1490:1 1633:1 1729:1 1769:1 1809:1 1819:1 1826:1 1832:1 1835:1 1837:1 1878:1 1882:1 1911:1 1997:1 
1 3:1 16:1 82:1 83:1 85:1 223:1 229:1 353:1 364:1 442:1 557:1 561:1 740:1 999:1 1091:1 1203:1 1407:1 1479:1 1490:1 1557:1 1623:1 1713:1 1716:1 
1 82:1 111:1 137:1 223:1 229:1 489:1 629:1 893:1 959:1 994:1 1281:1 1344:1 1454:1 1485:1 1494:1 1663:1 1682:1 1829:1 2000:1 
1 3:1 168:1 170:1 229:1 278:1 306:1 408:1 410:1 439:1 489:1 666:1 695:1 708:1 722:1 807:1 823:1 940:1 959:1 1043:1 1058:1 1091:1 1203:1 1454:1 1479:1 1731:1 1781:1 1844:1 1911:1 1997:1 1998:1 1999:1 
1 3:1 113:1 278:1 481:1 666:1 722:1 959:1 1043:1 1177:1 1434:1 1453:1 1454:1 1479:1 1486:1 1490:1 1494:1 1578:1 1731:1 
1 3:1 83:1 110:1 167:1 223:1 229:1 264:1 278:1 442:1 554:1 599:1 601:1 611:1 674:1 741:1 743:1 817:1 822:1 931:1 1031:1 1043:1 1047:1 1203:1 1236:1 1244:1 1393:1 1454:1 1479:1 1490:1 1504:1 1512:1 1513:1 1557:1 1630:1 1663:1 1730:1 1762:1 1815:1 1841:1 1844:1 1888:1 1912:1 1997:1 
1 80:1 123:1 137:1 190:1 191:1 223:1 229:1 264:1 323:1 352:1 398:1 441:1 442:1 489:1 491:1 521:1 572:1 578:1 581:1 609:1 618:1 629:1 642:1 668:1 674:1 708:1 718:1 720:1 740:1 749:1 760:1 822:1 851:1 866:1 896:1 919:1 959:1 985:1 999:1 1031:1 1036:1 1064:1 1091:1 1151:1 1203:1 1224:1 1225:1 1243:1 1244:1 1251:1 1278:1 1329:1 1386:1 1453:1 1456:1 1479:1 1490:1 1504:1 1513:1 1557:1 1598:1 1682:1 1723:1 1754:1 1762:1 1774:1 1826:1 1832:1 1838:1 1839:1 1843:1 1882:1 1997:1 
1 3:1 82:1 83:1 110:1 123:1 131:1 137:1 190:1 223:1 229:1 278:1 340:1 419:1 442:1 489:1 501:1 611:1 646:1 674:1 726:1 740:1 919:1 959:1 965:1 1031:1 1047:1 1111:1 1335:1 1370:1 1389:1 1453:1 1479:1 1490:1 1500:1 1513:1 1539:1 1548:1 1551:1 1566:1 1677:1 1762:1 1864:1 1875:1 1878:1 1957:1 
1 3:1 137:1 144:1 229:1 489:1 728:1 740:1 822:1 902:1 931:1 947:1 964:1 1057:1 1158:1 1244:1 1454:1 1490:1 1494:1 1713:1 1716:1 1837:1 
1 3:1 41:1 82:1 83:1 123:1 130:1 190:1 212:1 229:1 270:1 403:1 457:1 489:1 502:1 521:1 533:1 652:1 740:1 766:1 775:1 854:1 999:1 1091:1 1203:1 1224:1 1244:1 1329:1 1344:1 1479:1 1490:1 1494:1 1504:1 1594:1 1599:1 1601:1 1682:1 1777:1 1829:1 1877:1 1996:1 2000:1 
1 11:1 85:1 137:1 161:1 223:1 229:1 442:1 447:1 448:1 489:1 521:1 578:1 646:1 675:1 708:1 822:1 893:1 920:1 967:1 1024:1 1047:1 1091:1 1093:1 1186:1 1344:1 1446:1 1494:1 1495:1 1682:1 1738:1 1829:1 1912:1 1917:1 1997:1 2000:1 
1 83:1 190:1 229:1 489:1 521:1 554:1 578:1 648:1 654:1 718:1 806:1 866:1 1031:1 1091:1 1171:1 1185:1 1203:1 1251:1 1329:1 1344:1 1391:1 1479:1 1490:1 1494:1 1714:1 1759:1 1762:1 1798:1 1829:1 1997:1 2000:1 
1 3:1 78:1 79:1 89:1 137:1 144:1 163:1 165:1 170:1 173:1 229:1 323:1 331:1 489:1 491:1 502:1 521:1 666:1 708:1 743:1 822:1 876:1 919:1 933:1 999:1 1017:1 1158:1 1203:1 1344:1 1403:1 1454:1 1479:1 1498:1 1623:1 1663:1 1882:1 1911:1 1915:1 1928:1 1960:1 1996:1 
1 24:1 39:1 82:1 137:1 264:1 278:1 364:1 666:1 770:1 998:1 1033:1 1095:1 1494:1 1829:1 1912:1 2000:1 
1 17:1 83:1 98:1 111:1 123:1 130:1 190:1 223:1 226:1 229:1 264:1 306:1 364:1 418:1 489:1 521:1 556:1 561:1 564:1 596:1 674:1 708:1 718:1 728:1 770:1 970:1 979:1 987:1 990:1 994:1 1031:1 1093:1 1095:1 1190:1 1203:1 1253:1 1261:1 1311:1 1326:1 1344:1 1345:1 1357:1 1479:1 1663:1 1700:1 1716:1 1762:1 1882:1 1960:1 1969:1 1997:1 
1 8:1 24:1 43:1 103:1 106:1 137:1 190:1 229:1 278:1 293:1 360:1 364:1 401:1 420:1 442:1 489:1 559:1 581:1 718:1 728:1 782:1 791:1 814:1 822:1 836:1 876:1 893:1 959:1 970:1 1024:1 1031:1 1064:1 1095:1 1171:1 1224:1 1332:1 1407:1 1435:1 1454:1 1479:1 1480:1 1490:1 1494:1 1682:1 1697:1 1732:1 1754:1 1762:1 1781:1 1829:1 1868:1 1882:1 1911:1 1997:1 2000:1 
1 21:1 43:1 49:1 82:1 83:1 85:1 88:1 96:1 110:1 124:1 130:1 137:1 144:1 156:1 164:1 166:1 188:1 190:1 212:1 216:1 223:1 229:1 264:1 272:1 276:1 313:1 323:1 354:1 367:1 369:1 391:1 398:1 401:1 404:1 442:1 459:1 481:1 489:1 491:1 502:1 518:1 521:1 523:1 531:1 532:1 535:1 557:1 558:1 561:1 572:1 578:1 581:1 588:1 599:1 601:1 611:1 619:1 622:1 623:1 629:1 659:1 662:1 674:1 684:1 688:1 726:1 733:1 740:1 750:1 770:1 775:1 798:1 805:1 806:1 814:1 822:1 823:1 824:1 836:1 893:1 896:1 898:1 919:1 920:1 931:1 965:1 988:1 990:1 999:1 1002:1 1026:1 1031:1 1064:1 1088:1 1091:1 1106:1 1116:1 1130:1 1190:1 1192:1 1199:1 1203:1 1237:1 1239:1 1243:1 1244:1 1250:1 1251:1 1272:1 1294:1 1297:1 1329:1 1331:1 1335:1 1344:1 1375:1 1386:1 1393:1 1456:1 1467:1 1479:1 1485:1 1490:1 1494:1 1513:1 1532:1 1540:1 1554:1 1555:1 1556:1 1601:1 1610:1 1627:1 1673:1 1682:1 1700:1 1703:1 1716:1 1748:1 1762:1 1770:1 1803:1 1809:1 1826:1 1827:1 1829:1 1832:1 1835:1 1837:1 1838:1 1844:1 1871:1 1872:1 1882:1 1912:1 1915:1 1959:1 1965:1 1972:1 1996:1 1997:1 1998:1 1999:1 2000:1 2001:1 
1 80:1 83:1 93:1 137:1 223:1 264:1 287:1 442:1 531:1 582:1 646:1 740:1 785:1 822:1 1031:1 1050:1 1260:1 1329:1 1335:1 1435:1 1479:1 1762:1 1793:1 1809:1 1858:1 1895:1 1957:1 
1 3:1 15:1 32:1 78:1 79:1 82:1 83:1 123:1 229:1 278:1 287:1 309:1 323:1 353:1 401:1 442:1 459:1 476:1 491:1 521:1 593:1 598:1 599:1 610:1 611:1 620:1 629:1 667:1 674:1 688:1 731:1 806:1 821:1 822:1 827:1 853:1 893:1 907:1 994:1 1011:1 1024:1 1031:1 1035:1 1038:1 1050:1 1074:1 1126:1 1180:1 1203:1 1220:1 1237:1 1251:1 1276:1 1377:1 1386:1 1393:1 1457:1 1479:1 1490:1 1494:1 1498:1 1557:1 1600:1 1623:1 1650:1 1651:1 1674:1 1682:1 1713:1 1718:1 1745:1 1829:1 1837:1 1997:1 1998:1 1999:1 2000:1 
1 21:1 39:1 43:1 81:1 82:1 83:1 127:1 137:1 190:1 223:1 229:1 239:1 283:1 285:1 354:1 477:1 489:1 490:1 535:1 558:1 572:1 581:1 599:1 662:1 708:1 718:1 726:1 731:1 806:1 817:1 822:1 866:1 940:1 955:1 1036:1 1203:1 1244:1 1294:1 1322:1 1344:1 1355:1 1403:1 1454:1 1479:1 1490:1 1494:1 1504:1 1506:1 1599:1 1622:1 1663:1 1682:1 1731:1 1762:1 1793:1 1829:1 1834:1 1837:1 1839:1 1882:1 1908:1 1912:1 1915:1 1998:1 1999:1 2000:1 
1 3:1 130:1 190:1 645:1 708:1 808:1 874:1 876:1 987:1 999:1 1031:1 1057:1 1251:1 1479:1 1494:1 1777:1 1811:1 1829:1 2000:1 
1 82:1 162:1 223:1 398:1 461:1 468:1 580:1 599:1 629:1 666:1 667:1 894:1 899:1 1024:1 1031:1 1202:1 1399:1 1479:1 1564:1 1644:1 1912:1 1998:1 1999:1 
1 59:1 82:1 97:1 130:1 137:1 229:1 442:1 688:1 822:1 889:1 892:1 893:1 1017:1 1111:1 1126:1 1167:1 1344:1 1479:1 1650:1 1714:1 1762:1 1836:1 1838:1 
1 82:1 137:1 180:1 190:1 229:1 278:1 489:1 495:1 521:1 629:1 674:1 708:1 798:1 801:1 823:1 827:1 919:1 931:1 1017:1 1031:1 1192:1 1202:1 1213:1 1220:1 1413:1 1417:1 1446:1 1454:1 1494:1 1511:1 1591:1 1601:1 1627:1 1644:1 1810:1 1832:1 1871:1 1877:1 1895:1 
1 82:1 137:1 168:1 225:1 278:1 572:1 592:1 629:1 743:1 806:1 866:1 1344:1 1453:1 1454:1 1479:1 1494:1 1536:1 1629:1 1630:1 1781:1 1809:1 1824:1 1829:1 1912:1 2000:1 
1 3:1 82:1 88:1 213:1 230:1 278:1 367:1 398:1 442:1 461:1 467:1 489:1 521:1 555:1 733:1 833:1 854:1 923:1 1031:1 1057:1 1064:1 1190:1 1203:1 1335:1 1344:1 1393:1 1454:1 1479:1 1494:1 1655:1 1736:1 1762:1 1826:1 1829:1 1882:1 2000:1 
0.385890700841362 3:1 82:1 110:1 137:1 188:1 223:1 229:1 264:1 308:1 442:1 456:1 501:1 597:1 601:1 740:1 822:1 896:1 899:1 1031:1 1064:1 1125:1 1203:1 1280:1 1335:1 1407:1 1417:1 1453:1 1454:1 1479:1 1490:1 1544:1 1557:1 1564:1 1601:1 1731:1 1832:1 1898:1 1911:1 
1 81:1 82:1 137:1 184:1 190:1 223:1 229:1 235:1 264:1 278:1 310:1 367:1 442:1 469:1 491:1 520:1 649:1 674:1 708:1 750:1 764:1 822:1 893:1 1224:1 1301:1 1330:1 1335:1 1345:1 1426:1 1478:1 1479:1 1490:1 1495:1 1558:1 1599:1 1682:1 1726:1 1762:1 1877:1 1912:1 
1 85:1 88:1 130:1 137:1 155:1 163:1 188:1 217:1 223:1 229:1 312:1 353:1 489:1 514:1 521:1 599:1 611:1 620:1 629:1 674:1 750:1 782:1 822:1 893:1 904:1 933:1 959:1 990:1 994:1 999:1 1031:1 1091:1 1126:1 1171:1 1202:1 1203:1 1243:1 1251:1 1294:1 1344:1 1385:1 1393:1 1407:1 1479:1 1485:1 1490:1 1494:1 1495:1 1554:1 1555:1 1601:1 1650:1 1674:1 1682:1 1716:1 1731:1 1762:1 1793:1 1826:1 1829:1 1837:1 1842:1 1911:1 1912:1 1915:1 1930:1 2000:1 
1 21:1 22:1 78:1 79:1 82:1 85:1 88:1 130:1 163:1 190:1 212:1 214:1 229:1 276:1 278:1 309:1 398:1 479:1 489:1 491:1 502:1 518:1 521:1 533:1 581:1 597:1 611:1 649:1 666:1 667:1 674:1 696:1 708:1 786:1 806:1 822:1 853:1 893:1 895:1 925:1 931:1 959:1 999:1 1024:1 1031:1 1064:1 1070:1 1088:1 1171:1 1203:1 1224:1 1251:1 1335:1 1344:1 1369:1 1389:1 1417:1 1453:1 1454:1 1466:1 1479:1 1490:1 1494:1 1504:1 1551:1 1558:1 1572:1 1595:1 1601:1 1623:1 1650:1 1674:1 1682:1 1687:1 1716:1 1729:1 1738:1 1762:1 1764:1 1765:1 1777:1 1798:1 1832:1 1837:1 1882:1 1912:1 1981:1 1996:1 1997:1 2000:1 
1 137:1 223:1 229:1 666:1 708:1 1334:1 1490:1 1912:1 
1 137:1 418:1 580:1 822:1 994:1 1007:1 1038:1 1167:1 1203:1 1344:1 1454:1 1479:1 1494:1 1777:1 1893:1 1932:1 2001:1 
1 102:1 137:1 190:1 191:1 229:1 442:1 491:1 494:1 502:1 874:1 893:1 1031:1 1224:1 1344:1 1494:1 1716:1 1826:1 1829:1 1996:1 2000:1 
1 3:1 83:1 98:1 137:1 164:1 170:1 216:1 278:1 364:1 392:1 398:1 469:1 489:1 491:1 502:1 505:1 521:1 564:1 623:1 629:1 674:1 812:1 880:1 1035:1 1047:1 1091:1 1092:1 1117:1 1236:1 1281:1 1282:1 1294:1 1304:1 1305:1 1407:1 1435:1 1479:1 1490:1 1554:1 1557:1 1601:1 1716:1 1718:1 1747:1 1762:1 1890:1 1911:1 1924:1 1940:1 1996:1 1997:1 1998:1 1999:1 
1 83:1 137:1 144:1 162:1 169:1 195:1 229:1 279:1 287:1 442:1 489:1 521:1 569:1 581:1 639:1 642:1 648:1 674:1 684:1 708:1 718:1 959:1 1031:1 1064:1 1203:1 1244:1 1417:1 1479:1 1498:1 1504:1 1566:1 1599:1 1677:1 1716:1 1757:1 1832:1 1882:1 1898:1 1997:1 
1 3:1 78:1 79:1 82:1 83:1 137:1 162:1 170:1 276:1 308:1 320:1 385:1 489:1 495:1 554:1 572:1 611:1 666:1 806:1 854:1 959:1 1022:1 1175:1 1203:1 1344:1 1454:1 1479:1 1494:1 1564:1 1700:1 1723:1 1826:1 1829:1 1841:1 1915:1 2000:1 
1 21:1 43:1 82:1 137:1 222:1 229:1 270:1 272:1 278:1 323:1 327:1 392:1 442:1 471:1 489:1 491:1 518:1 531:1 561:1 578:1 581:1 609:1 611:1 620:1 623:1 629:1 647:1 660:1 666:1 668:1 713:1 726:1 732:1 735:1 750:1 806:1 817:1 822:1 851:1 874:1 893:1 916:1 1031:1 1091:1 1171:1 1203:1 1294:1 1335:1 1344:1 1403:1 1430:1 1454:1 1479:1 1490:1 1494:1 1506:1 1532:1 1657:1 1682:1 1762:1 1785:1 1826:1 1829:1 1832:1 1871:1 1912:1 1930:1 1974:1 2000:1 2001:1 
1 3:1 82:1 83:1 137:1 144:1 180:1 190:1 229:1 278:1 323:1 398:1 430:1 462:1 489:1 523:1 532:1 547:1 557:1 569:1 581:1 599:1 648:1 675:1 726:1 728:1 806:1 822:1 959:1 1026:1 1031:1 1203:1 1224:1 1271:1 1344:1 1393:1 1399:1 1453:1 1454:1 1479:1 1490:1 1718:1 1762:1 1826:1 1838:1 
1 1:1 3:1 123:1 127:1 137:1 205:1 229:1 264:1 408:1 489:1 629:1 806:1 822:1 959:1 990:1 1324:1 1454:1 1464:1 1479:1 1727:1 1779:1 1927:1 1946:1 
1 3:1 82:1 103:1 129:1 134:1 137:1 178:1 223:1 229:1 264:1 278:1 311:1 323:1 362:1 442:1 489:1 491:1 521:1 666:1 728:1 822:1 893:1 919:1 955:1 959:1 1031:1 1050:1 1088:1 1203:1 1335:1 1363:1 1454:1 1479:1 1490:1 1494:1 1503:1 1504:1 1525:1 1627:1 1681:1 1762:1 1785:1 1793:1 1829:1 1838:1 1882:1 1915:1 1946:1 1997:1 2000:1 
1 127:1 137:1 170:1 183:1 491:1 674:1 680:1 708:1 785:1 951:1 959:1 967:1 1050:1 1220:1 1256:1 1335:1 1479:1 1643:1 1731:1 1793:1 1895:1 1912:1 
1 137:1 229:1 728:1 990:1 1013:1 1421:1 1479:1 
1 3:1 82:1 137:1 232:1 323:1 353:1 489:1 523:1 532:1 554:1 601:1 611:1 629:1 648:1 695:1 718:1 740:1 822:1 892:1 919:1 1203:1 1244:1 1251:1 1479:1 1498:1 1516:1 1599:1 1762:1 1842:1 1878:1 1997:1 
1 3:1 82:1 130:1 137:1 142:1 163:1 170:1 223:1 229:1 264:1 323:1 352:1 489:1 491:1 500:1 521:1 596:1 597:1 599:1 822:1 864:1 919:1 1036:1 1038:1 1050:1 1108:1 1111:1 1171:1 1203:1 1274:1 1281:1 1329:1 1344:1 1479:1 1486:1 1494:1 1504:1 1564:1 1829:1 1842:1 1844:1 1912:1 1975:1 2000:1 
1 3:1 82:1 83:1 85:1 130:1 137:1 162:1 190:1 229:1 264:1 278:1 309:1 324:1 367:1 369:1 398:1 419:1 450:1 491:1 500:1 550:1 561:1 603:1 611:1 622:1 629:1 667:1 675:1 722:1 728:1 775:1 782:1 798:1 801:1 803:1 822:1 965:1 999:1 1031:1 1127:1 1203:1 1335:1 1344:1 1393:1 1432:1 1453:1 1454:1 1479:1 1490:1 1494:1 1731:1 1762:1 1790:1 1826:1 1829:1 1832:1 1845:1 1882:1 1883:1 1915:1 1942:1 1946:1 1997:1 2000:1 
1 3:1 73:1 82:1 83:1 123:1 190:1 264:1 278:1 323:1 353:1 521:1 523:1 572:1 648:1 708:1 728:1 822:1 866:1 1031:1 1084:1 1203:1 1281:1 1344:1 1394:1 1454:1 1479:1 1494:1 1678:1 1731:1 1762:1 1801:1 1829:1 1837:1 2000:1 
1 3:1 80:1 82:1 83:1 188:1 197:1 229:1 285:1 569:1 572:1 578:1 601:1 690:1 722:1 728:1 740:1 742:1 805:1 822:1 893:1 970:1 1031:1 1082:1 1108:1 1203:1 1214:1 1294:1 1344:1 1389:1 1453:1 1479:1 1490:1 1494:1 1557:1 1601:1 1682:1 1697:1 1723:1 1731:1 1826:1 1829:1 1832:1 1882:1 2000:1 
1 82:1 85:1 106:1 137:1 170:1 180:1 223:1 229:1 264:1 287:1 323:1 398:1 403:1 441:1 489:1 532:1 554:1 561:1 578:1 619:1 648:1 668:1 674:1 722:1 740:1 822:1 824:1 965:1 999:1 1009:1 1031:1 1083:1 1084:1 1091:1 1116:1 1197:1 1203:1 1251:1 1294:1 1329:1 1335:1 1344:1 1400:1 1417:1 1479:1 1490:1 1554:1 1556:1 1601:1 1658:1 1668:1 1719:1 1723:1 1731:1 1754:1 1762:1 1826:1 1832:1 1837:1 1871:1 1894:1 
1 3:1 43:1 61:1 78:1 79:1 82:1 83:1 85:1 123:1 137:1 162:1 165:1 223:1 229:1 285:1 304:1 391:1 442:1 449:1 453:1 471:1 491:1 518:1 523:1 558:1 578:1 581:1 588:1 623:1 629:1 674:1 696:1 726:1 733:1 748:1 753:1 774:1 822:1 899:1 904:1 959:1 1024:1 1031:1 1047:1 1091:1 1130:1 1201:1 1203:1 1243:1 1251:1 1321:1 1344:1 1348:1 1363:1 1375:1 1386:1 1435:1 1467:1 1479:1 1490:1 1494:1 1499:1 1584:1 1650:1 1682:1 1731:1 1762:1 1815:1 1829:1 1832:1 1872:1 1882:1 1997:1 2000:1 
1 3:1 73:1 82:1 83:1 123:1 190:1 264:1 278:1 323:1 353:1 521:1 523:1 572:1 648:1 708:1 728:1 822:1 866:1 1031:1 1084:1 1203:1 1281:1 1344:1 1394:1 1454:1 1479:1 1494:1 1678:1 1731:1 1762:1 1801:1 1829:1 1837:1 2000:1 
1 24:1 82:1 137:1 190:1 216:1 229:1 232:1 278:1 431:1 441:1 449:1 455:1 501:1 545:1 578:1 610:1 726:1 766:1 774:1 822:1 1031:1 1091:1 1108:1 1125:1 1171:1 1190:1 1370:1 1386:1 1402:1 1454:1 1479:1 1490:1 1494:1 1504:1 1513:1 1571:1 1601:1 1663:1 1677:1 1716:1 1731:1 1738:1 1759:1 1762:1 1809:1 1826:1 1829:1 1837:1 1882:1 1936:1 1941:1 2000:1 
1 83:1 106:1 123:1 137:1 144:1 151:1 162:1 170:1 180:1 214:1 223:1 229:1 308:1 323:1 392:1 413:1 415:1 431:1 442:1 469:1 491:1 518:1 523:1 529:1 550:1 572:1 578:1 581:1 601:1 610:1 611:1 633:1 640:1 641:1 647:1 668:1 708:1 711:1 722:1 726:1 740:1 775:1 816:1 822:1 836:1 842:1 889:1 893:1 896:1 959:1 1017:1 1031:1 1047:1 1052:1 1091:1 1123:1 1151:1 1203:1 1220:1 1251:1 1260:1 1273:1 1329:1 1385:1 1453:1 1479:1 1490:1 1599:1 1627:1 1682:1 1731:1 1762:1 1838:1 1871:1 1882:1 1946:1 1981:1 
1 3:1 7:1 21:1 39:1 43:1 70:1 71:1 78:1 79:1 81:1 82:1 83:1 85:1 88:1 89:1 96:1 97:1 101:1 103:1 110:1 113:1 123:1 124:1 130:1 131:1 133:1 137:1 159:1 164:1 170:1 190:1 191:1 207:1 216:1 217:1 223:1 229:1 239:1 240:1 249:1 264:1 278:1 293:1 296:1 307:1 320:1 323:1 340:1 344:1 353:1 358:1 364:1 366:1 367:1 390:1 398:1 415:1 427:1 441:1 442:1 451:1 465:1 471:1 477:1 489:1 491:1 500:1 504:1 518:1 520:1 521:1 523:1 524:1 532:1 557:1 561:1 569:1 572:1 575:1 599:1 609:1 610:1 620:1 621:1 622:1 623:1 629:1 635:1 640:1 659:1 668:1 671:1 674:1 677:1 680:1 704:1 708:1 713:1 722:1 726:1 733:1 750:1 753:1 782:1 783:1 785:1 798:1 806:1 821:1 822:1 824:1 832:1 851:1 872:1 874:1 876:1 886:1 893:1 896:1 906:1 908:1 911:1 919:1 923:1 931:1 933:1 935:1 955:1 967:1 973:1 990:1 999:1 1017:1 1022:1 1031:1 1036:1 1038:1 1047:1 1048:1 1057:1 1064:1 1088:1 1091:1 1093:1 1095:1 1111:1 1137:1 1168:1 1171:1 1180:1 1189:1 1190:1 1192:1 1195:1 1202:1 1203:1 1214:1 1223:1 1232:1 1251:1 1272:1 1290:1 1294:1 1307:1 1329:1 1335:1 1341:1 1342:1 1343:1 1344:1 1386:1 1393:1 1403:1 1407:1 1417:1 1435:1 1437:1 1439:1 1441:1 1446:1 1448:1 1451:1 1453:1 1464:1 1478:1 1479:1 1485:1 1486:1 1490:1 1494:1 1495:1 1504:1 1513:1 1532:1 1533:1 1551:1 1554:1 1564:1 1595:1 1601:1 1606:1 1609:1 1628:1 1643:1 1658:1 1677:1 1700:1 1715:1 1723:1 1731:1 1757:1 1760:1 1762:1 1767:1 1768:1 1793:1 1797:1 1811:1 1815:1 1824:1 1826:1 1829:1 1832:1 1835:1 1836:1 1837:1 1843:1 1844:1 1852:1 1862:1 1865:1 1871:1 1873:1 1882:1 1892:1 1894:1 1898:1 1911:1 1912:1 1942:1 1946:1 1954:1 1962:1 1981:1 1997:1 1998:1 1999:1 2000:1 
1 137:1 144:1 170:1 191:1 229:1 264:1 415:1 561:1 578:1 674:1 684:1 728:1 731:1 740:1 822:1 904:1 919:1 931:1 1031:1 1036:1 1091:1 1329:1 1344:1 1479:1 1490:1 1494:1 1655:1 1731:1 1829:1 1832:1 1871:1 1946:1 2000:1 
1 43:1 64:1 78:1 79:1 82:1 83:1 88:1 106:1 110:1 123:1 124:1 131:1 134:1 137:1 161:1 190:1 207:1 216:1 223:1 229:1 232:1 261:1 264:1 272:1 278:1 287:1 304:1 311:1 313:1 320:1 323:1 324:1 336:1 353:1 367:1 392:1 398:1 416:1 419:1 420:1 422:1 439:1 441:1 442:1 489:1 491:1 514:1 520:1 521:1 523:1 557:1 559:1 575:1 578:1 593:1 599:1 609:1 610:1 611:1 657:1 659:1 668:1 674:1 680:1 708:1 720:1 722:1 725:1 726:1 728:1 765:1 791:1 806:1 807:1 814:1 817:1 822:1 823:1 827:1 851:1 866:1 917:1 919:1 928:1 931:1 935:1 947:1 965:1 966:1 987:1 990:1 991:1 999:1 1012:1 1019:1 1029:1 1031:1 1035:1 1047:1 1057:1 1059:1 1064:1 1088:1 1091:1 1093:1 1111:1 1170:1 1180:1 1186:1 1190:1 1192:1 1200:1 1203:1 1243:1 1251:1 1316:1 1329:1 1331:1 1344:1 1357:1 1391:1 1417:1 1431:1 1432:1 1435:1 1453:1 1454:1 1456:1 1479:1 1490:1 1494:1 1504:1 1511:1 1513:1 1549:1 1551:1 1557:1 1558:1 1601:1 1612:1 1628:1 1663:1 1703:1 1715:1 1716:1 1731:1 1734:1 1746:1 1762:1 1768:1 1771:1 1772:1 1785:1 1793:1 1798:1 1809:1 1829:1 1832:1 1835:1 1837:1 1843:1 1846:1 1861:1 1867:1 1871:1 1873:1 1882:1 1900:1 1910:1 1912:1 1914:1 1915:1 1946:1 1960:1 1961:1 1972:1 1997:1 1998:1 1999:1 2000:1 2001:1 
1 83:1 123:1 137:1 144:1 439:1 521:1 629:1 690:1 740:1 822:1 893:1 959:1 985:1 990:1 1057:1 1220:1 1251:1 1281:1 1494:1 1678:1 
1 106:1 137:1 144:1 223:1 229:1 264:1 276:1 307:1 308:1 312:1 453:1 456:1 521:1 569:1 611:1 619:1 652:1 659:1 731:1 740:1 775:1 798:1 876:1 889:1 893:1 908:1 919:1 959:1 965:1 994:1 1024:1 1031:1 1065:1 1088:1 1093:1 1192:1 1203:1 1301:1 1344:1 1439:1 1455:1 1479:1 1490:1 1494:1 1682:1 1723:1 1762:1 1829:1 1997:1 2000:1 
1 4:1 11:1 47:1 82:1 83:1 137:1 139:1 170:1 190:1 191:1 229:1 283:1 285:1 301:1 442:1 485:1 518:1 521:1 557:1 578:1 718:1 723:1 726:1 740:1 770:1 806:1 822:1 851:1 893:1 911:1 919:1 955:1 1031:1 1036:1 1048:1 1091:1 1185:1 1186:1 1190:1 1203:1 1225:1 1243:1 1262:1 1335:1 1479:1 1490:1 1559:1 1560:1 1599:1 1627:1 1680:1 1682:1 1743:1 1762:1 1774:1 1809:1 1813:1 1873:1 1997:1 2000:1 
1 3:1 81:1 82:1 123:1 190:1 223:1 229:1 367:1 400:1 413:1 578:1 581:1 596:1 609:1 722:1 748:1 822:1 824:1 893:1 1031:1 1091:1 1167:1 1224:1 1237:1 1329:1 1344:1 1479:1 1494:1 1599:1 1829:1 1912:1 1940:1 2000:1 
1 82:1 83:1 106:1 110:1 123:1 124:1 131:1 137:1 144:1 157:1 190:1 205:1 213:1 223:1 229:1 264:1 278:1 293:1 308:1 392:1 418:1 430:1 442:1 445:1 481:1 489:1 521:1 523:1 581:1 590:1 609:1 622:1 628:1 659:1 722:1 726:1 731:1 782:1 798:1 806:1 822:1 824:1 845:1 851:1 889:1 892:1 893:1 902:1 919:1 931:1 959:1 965:1 991:1 1031:1 1057:1 1076:1 1091:1 1203:1 1294:1 1308:1 1329:1 1335:1 1344:1 1389:1 1402:1 1403:1 1454:1 1458:1 1479:1 1486:1 1490:1 1494:1 1504:1 1513:1 1554:1 1557:1 1559:1 1601:1 1627:1 1630:1 1682:1 1687:1 1723:1 1729:1 1731:1 1762:1 1770:1 1809:1 1824:1 1829:1 1832:1 1837:1 1882:1 1912:1 1932:1 1940:1 1941:1 2000:1 2001:1 
1 7:1 59:1 82:1 92:1 106:1 111:1 137:1 229:1 287:1 293:1 392:1 398:1 420:1 489:1 581:1 682:1 684:1 806:1 822:1 846:1 893:1 906:1 919:1 931:1 959:1 1031:1 1047:1 1091:1 1203:1 1251:1 1258:1 1260:1 1329:1 1335:1 1402:1 1407:1 1446:1 1479:1 1490:1 1528:1 1601:1 1604:1 1646:1 1677:1 1682:1 1700:1 1723:1 1731:1 1809:1 1835:1 1838:1 1847:1 1941:1 1946:1 
1 3:1 21:1 82:1 137:1 144:1 190:1 229:1 278:1 442:1 581:1 674:1 722:1 921:1 959:1 1031:1 1203:1 1224:1 1333:1 1479:1 1682:1 1785:1 1838:1 1871:1 1911:1 
1 3:1 82:1 83:1 103:1 137:1 144:1 161:1 180:1 190:1 205:1 207:1 323:1 418:1 467:1 469:1 485:1 491:1 500:1 554:1 578:1 622:1 629:1 659:1 708:1 718:1 722:1 822:1 836:1 893:1 904:1 959:1 1013:1 1031:1 1092:1 1125:1 1162:1 1185:1 1228:1 1251:1 1252:1 1328:1 1435:1 1479:1 1599:1 1627:1 1682:1 1715:1 1762:1 1798:1 1836:1 1912:1 1946:1 2001:1 
1 43:1 72:1 130:1 137:1 223:1 229:1 264:1 276:1 309:1 323:1 420:1 581:1 592:1 599:1 622:1 722:1 728:1 743:1 807:1 851:1 947:1 959:1 961:1 965:1 1031:1 1036:1 1203:1 1294:1 1329:1 1386:1 1454:1 1460:1 1479:1 1490:1 1513:1 1601:1 1682:1 1716:1 1762:1 1848:1 1882:1 1912:1 
1 3:1 82:1 83:1 88:1 137:1 138:1 155:1 188:1 223:1 229:1 246:1 264:1 278:1 354:1 415:1 431:1 533:1 581:1 611:1 616:1 622:1 628:1 666:1 684:1 708:1 722:1 726:1 743:1 753:1 805:1 807:1 822:1 919:1 948:1 952:1 959:1 1031:1 1192:1 1199:1 1203:1 1251:1 1309:1 1312:1 1335:1 1336:1 1344:1 1453:1 1454:1 1479:1 1490:1 1494:1 1507:1 1627:1 1682:1 1716:1 1826:1 1829:1 1912:1 1915:1 2000:1 
1 21:1 82:1 103:1 123:1 126:1 137:1 190:1 223:1 229:1 278:1 279:1 323:1 362:1 392:1 427:1 457:1 461:1 504:1 518:1 580:1 581:1 601:1 614:1 674:1 708:1 722:1 733:1 782:1 822:1 893:1 919:1 970:1 1017:1 1031:1 1192:1 1203:1 1224:1 1263:1 1294:1 1329:1 1454:1 1479:1 1599:1 1628:1 1682:1 1687:1 1762:1 1768:1 1882:1 1912:1 
1 3:1 83:1 217:1 223:1 229:1 581:1 690:1 893:1 1017:1 1203:1 1336:1 1344:1 1479:1 1494:1 1682:1 1829:1 1882:1 1889:1 2000:1 
1 81:1 83:1 111:1 137:1 554:1 666:1 893:1 990:1 1043:1 1203:1 1446:1 1479:1 1490:1 1494:1 1578:1 1601:1 1682:1 1729:1 1789:1 1829:1 2000:1 
1 27:1 82:1 83:1 99:1 184:1 321:1 398:1 521:1 581:1 629:1 822:1 931:1 1031:1 1223:1 1294:1 1329:1 1335:1 1402:1 1479:1 1490:1 1762:1 1789:1 1826:1 1832:1 
1 82:1 223:1 229:1 581:1 674:1 722:1 731:1 750:1 782:1 850:1 893:1 919:1 1031:1 1106:1 1328:1 1335:1 1344:1 1446:1 1479:1 1483:1 1532:1 1601:1 1668:1 1682:1 1731:1 1762:1 1832:1 
1 3:1 43:1 82:1 137:1 180:1 229:1 278:1 293:1 461:1 521:1 548:1 554:1 592:1 623:1 674:1 722:1 743:1 745:1 812:1 822:1 850:1 854:1 893:1 940:1 1024:1 1031:1 1167:1 1203:1 1294:1 1335:1 1409:1 1479:1 1490:1 1494:1 1681:1 1731:1 1793:1 1829:1 1912:1 2000:1 
1 43:1 144:1 229:1 323:1 415:1 453:1 489:1 491:1 512:1 581:1 609:1 726:1 806:1 822:1 824:1 959:1 1031:1 1203:1 1329:1 1370:1 1435:1 1479:1 1494:1 1498:1 1513:1 1682:1 1715:1 1716:1 1731:1 1832:1 1835:1 1837:1 1848:1 1882:1 1912:1 1940:1 1997:1 2000:1 2001:1 
1 78:1 79:1 82:1 83:1 162:1 203:1 213:1 223:1 229:1 431:1 523:1 545:1 564:1 578:1 581:1 606:1 646:1 660:1 674:1 708:1 722:1 740:1 822:1 850:1 851:1 893:1 896:1 931:1 947:1 974:1 1031:1 1048:1 1057:1 1091:1 1111:1 1130:1 1203:1 1265:1 1301:1 1341:1 1386:1 1390:1 1454:1 1479:1 1490:1 1591:1 1601:1 1645:1 1646:1 1682:1 1751:1 1789:1 1832:1 1838:1 1861:1 1912:1 1915:1 1959:1 2001:1 
1 3:1 82:1 98:1 137:1 139:1 229:1 240:1 270:1 309:1 414:1 442:1 449:1 523:1 581:1 582:1 682:1 708:1 722:1 822:1 893:1 1031:1 1064:1 1201:1 1203:1 1344:1 1451:1 1454:1 1479:1 1490:1 1494:1 1682:1 1762:1 1815:1 1829:1 1837:1 1882:1 1898:1 1963:1 2000:1 
1 3:1 34:1 41:1 81:1 82:1 130:1 223:1 229:1 489:1 578:1 581:1 599:1 604:1 708:1 760:1 893:1 931:1 1031:1 1091:1 1344:1 1400:1 1417:1 1479:1 1490:1 1494:1 1601:1 1646:1 1682:1 1716:1 1829:1 1858:1 1882:1 1977:1 1996:1 2000:1 
1 3:1 32:1 63:1 82:1 83:1 124:1 137:1 190:1 217:1 229:1 249:1 278:1 364:1 398:1 414:1 457:1 489:1 521:1 537:1 564:1 578:1 581:1 629:1 648:1 655:1 658:1 660:1 668:1 674:1 705:1 708:1 782:1 854:1 893:1 896:1 919:1 1031:1 1047:1 1048:1 1091:1 1203:1 1224:1 1341:1 1342:1 1344:1 1386:1 1435:1 1453:1 1479:1 1494:1 1513:1 1557:1 1599:1 1601:1 1661:1 1663:1 1682:1 1710:1 1729:1 1829:1 1832:1 1843:1 1872:1 1879:1 1882:1 1942:1 2000:1 
1 82:1 83:1 88:1 123:1 130:1 137:1 207:1 223:1 229:1 278:1 308:1 309:1 328:1 353:1 442:1 449:1 459:1 523:1 524:1 557:1 559:1 589:1 593:1 599:1 629:1 668:1 674:1 722:1 726:1 782:1 850:1 919:1 990:1 994:1 1031:1 1057:1 1116:1 1168:1 1177:1 1195:1 1202:1 1203:1 1244:1 1251:1 1329:1 1344:1 1451:1 1462:1 1470:1 1479:1 1494:1 1556:1 1576:1 1595:1 1601:1 1677:1 1709:1 1726:1 1731:1 1785:1 1829:1 1842:1 1887:1 1898:1 1912:1 1978:1 1998:1 1999:1 2000:1 
1 83:1 123:1 137:1 190:1 229:1 278:1 420:1 441:1 489:1 491:1 554:1 578:1 629:1 640:1 648:1 718:1 722:1 741:1 814:1 822:1 911:1 965:1 1091:1 1106:1 1108:1 1251:1 1329:1 1454:1 1479:1 1599:1 1731:1 1754:1 1762:1 1785:1 1835:1 1839:1 1848:1 1875:1 1882:1 1920:1 1997:1 
1 59:1 64:1 82:1 85:1 123:1 130:1 137:1 144:1 170:1 229:1 283:1 284:1 309:1 411:1 491:1 495:1 521:1 578:1 593:1 674:1 675:1 708:1 722:1 728:1 731:1 741:1 822:1 874:1 893:1 1031:1 1050:1 1091:1 1108:1 1219:1 1230:1 1344:1 1377:1 1386:1 1479:1 1511:1 1542:1 1580:1 1601:1 1649:1 1694:1 1731:1 1757:1 1777:1 1871:1 1882:1 
1 3:1 137:1 180:1 229:1 270:1 271:1 278:1 353:1 471:1 491:1 521:1 578:1 581:1 599:1 662:1 798:1 893:1 919:1 955:1 979:1 999:1 1025:1 1031:1 1203:1 1256:1 1294:1 1344:1 1386:1 1470:1 1479:1 1490:1 1494:1 1636:1 1682:1 1715:1 1777:1 1811:1 1829:1 1872:1 1930:1 2000:1 
1 3:1 15:1 54:1 55:1 81:1 82:1 85:1 170:1 190:1 193:1 229:1 272:1 309:1 364:1 367:1 379:1 398:1 442:1 557:1 578:1 581:1 640:1 651:1 722:1 726:1 782:1 822:1 851:1 880:1 893:1 896:1 919:1 994:1 1031:1 1064:1 1091:1 1092:1 1093:1 1185:1 1203:1 1251:1 1263:1 1329:1 1341:1 1453:1 1479:1 1490:1 1494:1 1557:1 1580:1 1641:1 1650:1 1673:1 1682:1 1684:1 1715:1 1829:1 1837:1 1844:1 1912:1 1963:1 1990:1 1998:1 1999:1 2000:1 
1 3:1 82:1 137:1 183:1 207:1 223:1 229:1 272:1 303:1 442:1 489:1 592:1 616:1 629:1 708:1 749:1 822:1 854:1 919:1 959:1 1024:1 1031:1 1050:1 1064:1 1399:1 1479:1 1490:1 1494:1 1504:1 1599:1 1731:1 1742:1 1829:1 1838:1 1843:1 1873:1 1895:1 2000:1 2001:1 
0.6193831015963086 3:1 82:1 83:1 103:1 137:1 144:1 161:1 180:1 190:1 205:1 207:1 323:1 418:1 467:1 469:1 485:1 491:1 500:1 554:1 578:1 622:1 629:1 659:1 708:1 718:1 722:1 822:1 836:1 893:1 904:1 959:1 1013:1 1031:1 1092:1 1125:1 1162:1 1185:1 1228:1 1251:1 1252:1 1328:1 1435:1 1479:1 1599:1 1627:1 1682:1 1715:1 1762:1 1798:1 1836:1 1912:1 1946:1 2001:1 
1 43:1 72:1 130:1 137:1 223:1 229:1 264:1 276:1 309:1 323:1 420:1 581:1 592:1 599:1 622:1 722:1 728:1 743:1 807:1 851:1 947:1 959:1 961:1 965:1 1031:1 1036:1 1203:1 1294:1 1329:1 1386:1 1454:1 1460:1 1479:1 1490:1 1513:1 1601:1 1682:1 1716:1 1762:1 1848:1 1882:1 1912:1 
1 4:1 11:1 47:1 82:1 83:1 137:1 139:1 170:1 190:1 191:1 229:1 283:1 285:1 301:1 442:1 485:1 518:1 521:1 557:1 578:1 718:1 723:1 726:1 740:1 770:1 806:1 822:1 851:1 893:1 911:1 919:1 955:1 1031:1 1036:1 1048:1 1091:1 1185:1 1186:1 1190:1 1203:1 1225:1 1243:1 1262:1 1335:1 1479:1 1490:1 1559:1 1560:1 1599:1 1627:1 1680:1 1682:1 1743:1 1762:1 1774:1 1809:1 1813:1 1873:1 1997:1 2000:1 
1 2:1 30:1 46:1 83:1 137:1 161:1 178:1 180:1 190:1 205:1 217:1 229:1 264:1 278:1 291:1 330:1 353:1 364:1 398:1 442:1 465:1 488:1 489:1 491:1 510:1 521:1 524:1 554:1 555:1 561:1 599:1 601:1 668:1 674:1 722:1 726:1 782:1 791:1 806:1 822:1 827:1 893:1 895:1 911:1 912:1 1009:1 1011:1 1031:1 1035:1 1048:1 1151:1 1192:1 1203:1 1205:1 1240:1 1281:1 1294:1 1329:1 1335:1 1344:1 1471:1 1479:1 1490:1 1494:1 1532:1 1554:1 1663:1 1682:1 1685:1 1715:1 1718:1 1762:1 1801:1 1811:1 1826:1 1829:1 1838:1 1881:1 1882:1 1892:1 2000:1 
1 3:1 122:1 223:1 229:1 293:1 423:1 471:1 599:1 806:1 822:1 892:1 973:1 1041:1 1050:1 1074:1 1246:1 1335:1 1454:1 1479:1 1601:1 1627:1 1677:1 1791:1 1997:1 
1 106:1 137:1 223:1 229:1 323:1 415:1 522:1 554:1 722:1 822:1 893:1 919:1 1031:1 1057:1 1225:1 1294:1 1329:1 1335:1 1413:1 1490:1 1513:1 1601:1 1627:1 1682:1 1754:1 1774:1 1802:1 1882:1 
1 82:1 88:1 137:1 197:1 216:1 223:1 229:1 315:1 353:1 470:1 471:1 491:1 503:1 523:1 549:1 581:1 609:1 674:1 708:1 726:1 728:1 731:1 893:1 994:1 1193:1 1203:1 1224:1 1225:1 1263:1 1281:1 1301:1 1335:1 1344:1 1417:1 1479:1 1494:1 1682:1 1731:1 1762:1 1826:1 1829:1 1832:1 1842:1 1873:1 2000:1 2001:1 
1 82:1 83:1 85:1 130:1 162:1 223:1 229:1 278:1 398:1 453:1 495:1 521:1 708:1 718:1 728:1 731:1 782:1 806:1 822:1 851:1 893:1 896:1 919:1 920:1 1076:1 1118:1 1244:1 1272:1 1329:1 1344:1 1479:1 1490:1 1494:1 1557:1 1599:1 1682:1 1731:1 1762:1 1777:1 1793:1 1832:1 1838:1 2000:1 
1 81:1 83:1 690:1 718:1 1145:1 1330:1 1403:1 1479:1 1599:1 1682:1 1762:1 1789:1 1832:1 1997:1 
1 39:1 41:1 43:1 82:1 83:1 85:1 88:1 89:1 93:1 98:1 110:1 123:1 130:1 137:1 142:1 155:1 170:1 180:1 188:1 190:1 205:1 212:1 214:1 216:1 217:1 223:1 229:1 246:1 251:1 264:1 289:1 308:1 312:1 353:1 383:1 392:1 398:1 400:1 401:1 418:1 422:1 442:1 453:1 469:1 470:1 471:1 481:1 491:1 514:1 521:1 523:1 554:1 559:1 578:1 593:1 601:1 623:1 629:1 662:1 668:1 674:1 680:1 690:1 708:1 718:1 722:1 726:1 740:1 741:1 753:1 775:1 788:1 791:1 798:1 805:1 806:1 822:1 823:1 824:1 846:1 854:1 855:1 859:1 876:1 892:1 893:1 904:1 910:1 919:1 921:1 954:1 959:1 984:1 985:1 990:1 999:1 1013:1 1031:1 1033:1 1036:1 1047:1 1050:1 1057:1 1058:1 1064:1 1088:1 1151:1 1171:1 1185:1 1190:1 1192:1 1203:1 1214:1 1220:1 1224:1 1236:1 1251:1 1273:1 1274:1 1281:1 1325:1 1329:1 1382:1 1393:1 1453:1 1456:1 1479:1 1490:1 1500:1 1504:1 1514:1 1532:1 1544:1 1557:1 1567:1 1599:1 1624:1 1649:1 1663:1 1675:1 1682:1 1716:1 1724:1 1731:1 1742:1 1743:1 1754:1 1762:1 1769:1 1806:1 1813:1 1832:1 1839:1 1841:1 1843:1 1848:1 1865:1 1882:1 1888:1 1912:1 1942:1 
1 3:1 83:1 123:1 229:1 278:1 312:1 323:1 419:1 456:1 523:1 564:1 674:1 806:1 868:1 904:1 1329:1 1401:1 1453:1 1454:1 1504:1 1677:1 1731:1 1762:1 1845:1 1882:1 1898:1 
1 3:1 82:1 83:1 111:1 113:1 123:1 137:1 151:1 162:1 170:1 224:1 229:1 457:1 489:1 514:1 578:1 593:1 610:1 806:1 822:1 893:1 990:1 1026:1 1031:1 1091:1 1114:1 1203:1 1301:1 1344:1 1358:1 1369:1 1413:1 1479:1 1490:1 1494:1 1599:1 1601:1 1655:1 1687:1 1713:1 1829:1 1832:1 1846:1 1865:1 1882:1 1997:1 1998:1 1999:1 2000:1 
1 83:1 106:1 157:1 564:1 578:1 620:1 708:1 722:1 740:1 892:1 893:1 919:1 1031:1 1091:1 1137:1 1203:1 1294:1 1305:1 1344:1 1413:1 1446:1 1453:1 1479:1 1819:1 1826:1 1981:1 1997:1 
1 1:1 137:1 144:1 229:1 662:1 822:1 959:1 1329:1 1453:1 1454:1 1479:1 1490:1 1494:1 1601:1 1663:1 1731:1 1785:1 1829:1 2000:1 
1 83:1 123:1 137:1 190:1 229:1 278:1 420:1 441:1 489:1 491:1 554:1 578:1 629:1 640:1 648:1 718:1 722:1 741:1 814:1 822:1 911:1 965:1 1091:1 1106:1 1108:1 1251:1 1329:1 1454:1 1479:1 1599:1 1731:1 1754:1 1762:1 1785:1 1835:1 1839:1 1848:1 1875:1 1882:1 1920:1 1997:1 
1 59:1 64:1 82:1 85:1 123:1 130:1 137:1 144:1 170:1 229:1 283:1 284:1 309:1 411:1 491:1 495:1 521:1 578:1 593:1 674:1 675:1 708:1 722:1 728:1 731:1 741:1 822:1 874:1 893:1 1031:1 1050:1 1091:1 1108:1 1219:1 1230:1 1344:1 1377:1 1386:1 1479:1 1511:1 1542:1 1580:1 1601:1 1649:1 1694:1 1731:1 1757:1 1777:1 1871:1 1882:1 
1 137:1 223:1 229:1 442:1 495:1 822:1 846:1 959:1 1031:1 1050:1 1091:1 1203:1 1407:1 1479:1 1601:1 1793:1 1832:1 1895:1 1911:1 
1 21:1 43:1 83:1 130:1 137:1 190:1 207:1 223:1 224:1 229:1 247:1 264:1 312:1 323:1 325:1 353:1 367:1 442:1 456:1 471:1 491:1 520:1 521:1 522:1 557:1 558:1 609:1 610:1 622:1 648:1 662:1 708:1 722:1 728:1 743:1 775:1 780:1 782:1 806:1 822:1 823:1 834:1 887:1 911:1 919:1 921:1 990:1 994:1 999:1 1031:1 1041:1 1056:1 1064:1 1112:1 1190:1 1192:1 1203:1 1223:1 1224:1 1279:1 1281:1 1294:1 1329:1 1335:1 1344:1 1399:1 1479:1 1500:1 1509:1 1513:1 1557:1 1599:1 1601:1 1677:1 1716:1 1762:1 1793:1 1832:1 1837:1 1838:1 1839:1 1847:1 1871:1 1877:1 1882:1 1898:1 1928:1 1977:1 
1 3:1 34:1 49:1 82:1 83:1 88:1 91:1 93:1 98:1 103:1 110:1 123:1 130:1 137:1 149:1 156:1 180:1 190:1 191:1 204:1 205:1 216:1 217:1 223:1 229:1 264:1 278:1 287:1 311:1 331:1 353:1 355:1 368:1 369:1 392:1 398:1 401:1 410:1 418:1 420:1 424:1 433:1 442:1 449:1 467:1 489:1 491:1 521:1 522:1 523:1 535:1 557:1 569:1 599:1 605:1 623:1 627:1 629:1 642:1 660:1 668:1 672:1 674:1 708:1 726:1 734:1 743:1 753:1 760:1 798:1 806:1 822:1 830:1 842:1 854:1 891:1 896:1 915:1 923:1 936:1 940:1 955:1 959:1 994:1 999:1 1022:1 1031:1 1041:1 1047:1 1048:1 1070:1 1083:1 1101:1 1112:1 1113:1 1146:1 1165:1 1169:1 1203:1 1220:1 1223:1 1230:1 1246:1 1276:1 1288:1 1294:1 1334:1 1335:1 1341:1 1344:1 1395:1 1401:1 1403:1 1417:1 1470:1 1479:1 1484:1 1490:1 1494:1 1504:1 1508:1 1513:1 1525:1 1533:1 1548:1 1555:1 1578:1 1594:1 1599:1 1623:1 1643:1 1677:1 1716:1 1722:1 1723:1 1731:1 1738:1 1760:1 1762:1 1798:1 1811:1 1817:1 1826:1 1829:1 1832:1 1835:1 1837:1 1838:1 1843:1 1846:1 1881:1 1882:1 1892:1 1895:1 1912:1 1915:1 1930:1 1946:1 1958:1 1962:1 1997:1 2000:1 
1 3:1 229:1 415:1 521:1 522:1 581:1 603:1 740:1 750:1 893:1 959:1 1017:1 1031:1 1057:1 1294:1 1335:1 1479:1 1490:1 1601:1 1627:1 1682:1 1834:1 1882:1 1997:1 
1 90:1 137:1 229:1 264:1 420:1 441:1 491:1 521:1 523:1 611:1 677:1 722:1 782:1 806:1 822:1 919:1 972:1 1050:1 1100:1 1251:1 1329:1 1453:1 1454:1 1494:1 1713:1 1757:1 1762:1 1829:1 1900:1 1912:1 1977:1 1997:1 2000:1 
1 1:1 125:1 439:1 498:1 648:1 
1 137:1 481:1 722:1 846:1 959:1 1335:1 1627:1 1981:1 
1 82:1 137:1 180:1 190:1 270:1 353:1 415:1 449:1 454:1 481:1 564:1 572:1 600:1 708:1 722:1 739:1 798:1 806:1 824:1 836:1 919:1 928:1 1031:1 1041:1 1232:1 1386:1 1403:1 1417:1 1443:1 1479:1 1504:1 1601:1 1658:1 1680:1 1716:1 1793:1 1813:1 1941:1 1981:1 
1 82:1 83:1 135:1 137:1 139:1 161:1 188:1 223:1 229:1 239:1 272:1 284:1 376:1 377:1 415:1 489:1 528:1 599:1 629:1 675:1 711:1 722:1 822:1 836:1 850:1 874:1 892:1 919:1 928:1 931:1 988:1 1029:1 1031:1 1041:1 1057:1 1203:1 1224:1 1294:1 1335:1 1344:1 1417:1 1471:1 1479:1 1490:1 1494:1 1504:1 1546:1 1593:1 1632:1 1643:1 1669:1 1704:1 1762:1 1809:1 1829:1 1832:1 1835:1 1838:1 1882:1 1981:1 2000:1 
1 15:1 48:1 83:1 123:1 137:1 223:1 229:1 242:1 278:1 367:1 401:1 442:1 547:1 578:1 581:1 708:1 722:1 741:1 774:1 782:1 785:1 822:1 854:1 893:1 931:1 1017:1 1091:1 1093:1 1203:1 1225:1 1243:1 1251:1 1329:1 1456:1 1479:1 1490:1 1513:1 1682:1 1729:1 1809:1 1832:1 1844:1 1871:1 1895:1 
1 11:1 32:1 43:1 78:1 79:1 82:1 83:1 123:1 130:1 137:1 165:1 180:1 190:1 223:1 229:1 235:1 239:1 242:1 246:1 264:1 300:1 383:1 398:1 410:1 420:1 442:1 453:1 456:1 489:1 518:1 523:1 524:1 557:1 575:1 578:1 581:1 599:1 605:1 609:1 652:1 674:1 675:1 693:1 708:1 722:1 770:1 774:1 782:1 812:1 817:1 822:1 851:1 854:1 874:1 889:1 893:1 896:1 919:1 931:1 998:1 1031:1 1036:1 1088:1 1091:1 1170:1 1203:1 1250:1 1251:1 1294:1 1329:1 1341:1 1344:1 1345:1 1386:1 1403:1 1453:1 1454:1 1464:1 1479:1 1490:1 1494:1 1503:1 1504:1 1533:1 1554:1 1564:1 1566:1 1595:1 1599:1 1601:1 1670:1 1682:1 1687:1 1713:1 1716:1 1731:1 1762:1 1764:1 1781:1 1809:1 1815:1 1822:1 1829:1 1837:1 1842:1 1844:1 1856:1 1882:1 1895:1 1912:1 1917:1 1997:1 1998:1 1999:1 2000:1 2001:1 
1 82:1 110:1 137:1 139:1 144:1 489:1 599:1 665:1 947:1 959:1 1227:1 1403:1 1494:1 1716:1 
1 82:1 83:1 137:1 229:1 323:1 690:1 722:1 740:1 893:1 965:1 1031:1 1041:1 1190:1 1194:1 1203:1 1250:1 1274:1 1341:1 1344:1 1358:1 1403:1 1479:1 1490:1 1494:1 1532:1 1601:1 1682:1 1789:1 1829:1 1832:1 2000:1 2001:1 
1 11:1 20:1 34:1 82:1 83:1 123:1 155:1 188:1 229:1 491:1 578:1 581:1 623:1 674:1 705:1 708:1 722:1 782:1 893:1 959:1 1031:1 1047:1 1091:1 1186:1 1203:1 1250:1 1330:1 1344:1 1417:1 1453:1 1479:1 1490:1 1494:1 1601:1 1682:1 1723:1 1829:1 1832:1 2000:1 
1 3:1 70:1 81:1 82:1 83:1 85:1 103:1 130:1 137:1 144:1 163:1 164:1 169:1 173:1 181:1 188:1 190:1 191:1 205:1 212:1 215:1 223:1 229:1 232:1 242:1 257:1 258:1 261:1 264:1 285:1 309:1 353:1 362:1 369:1 398:1 406:1 415:1 418:1 420:1 438:1 440:1 442:1 455:1 489:1 491:1 521:1 532:1 557:1 559:1 561:1 578:1 580:1 590:1 599:1 606:1 609:1 610:1 611:1 620:1 622:1 623:1 629:1 662:1 666:1 668:1 674:1 708:1 718:1 722:1 726:1 728:1 740:1 767:1 779:1 782:1 790:1 798:1 814:1 822:1 827:1 842:1 848:1 854:1 876:1 880:1 896:1 911:1 912:1 919:1 922:1 923:1 931:1 948:1 979:1 990:1 999:1 1009:1 1017:1 1031:1 1036:1 1045:1 1047:1 1050:1 1054:1 1057:1 1058:1 1064:1 1106:1 1107:1 1132:1 1140:1 1168:1 1192:1 1199:1 1203:1 1223:1 1224:1 1236:1 1239:1 1242:1 1294:1 1305:1 1329:1 1332:1 1335:1 1341:1 1344:1 1416:1 1425:1 1435:1 1479:1 1490:1 1494:1 1504:1 1533:1 1551:1 1554:1 1556:1 1557:1 1561:1 1578:1 1584:1 1627:1 1655:1 1663:1 1682:1 1713:1 1723:1 1731:1 1741:1 1742:1 1762:1 1789:1 1790:1 1793:1 1809:1 1817:1 1826:1 1829:1 1832:1 1835:1 1837:1 1844:1 1871:1 1877:1 1882:1 1895:1 1912:1 1915:1 1917:1 1995:1 2000:1 2001:1 
1 7:1 43:1 82:1 106:1 190:1 223:1 229:1 364:1 581:1 709:1 806:1 893:1 919:1 1031:1 1082:1 1095:1 1224:1 1329:1 1335:1 1479:1 1490:1 1627:1 1682:1 1716:1 1832:1 1878:1 1997:1 
1 3:1 82:1 83:1 89:1 137:1 195:1 216:1 223:1 229:1 246:1 308:1 321:1 323:1 442:1 489:1 521:1 581:1 599:1 668:1 740:1 782:1 806:1 808:1 822:1 893:1 919:1 950:1 1031:1 1121:1 1195:1 1203:1 1204:1 1344:1 1479:1 1490:1 1494:1 1601:1 1682:1 1716:1 1743:1 1762:1 1829:1 1960:1 1997:1 2000:1 
1 73:1 180:1 229:1 232:1 312:1 416:1 430:1 491:1 521:1 523:1 556:1 582:1 608:1 648:1 798:1 822:1 876:1 1031:1 1203:1 1263:1 1301:1 1329:1 1344:1 1393:1 1494:1 1599:1 1731:1 1762:1 1801:1 1829:1 1878:1 1882:1 1997:1 2000:1 
1 82:1 110:1 123:1 133:1 137:1 207:1 229:1 232:1 264:1 276:1 278:1 308:1 323:1 398:1 521:1 523:1 581:1 609:1 629:1 640:1 659:1 662:1 734:1 753:1 791:1 804:1 822:1 827:1 892:1 893:1 919:1 931:1 965:1 1017:1 1029:1 1031:1 1033:1 1050:1 1064:1 1197:1 1203:1 1220:1 1243:1 1251:1 1294:1 1329:1 1341:1 1344:1 1358:1 1387:1 1394:1 1400:1 1401:1 1417:1 1453:1 1479:1 1486:1 1490:1 1494:1 1495:1 1500:1 1504:1 1533:1 1538:1 1551:1 1554:1 1555:1 1556:1 1578:1 1599:1 1601:1 1626:1 1682:1 1703:1 1709:1 1731:1 1754:1 1762:1 1793:1 1799:1 1829:1 1832:1 1835:1 1837:1 1861:1 1893:1 1912:1 1915:1 1960:1 1962:1 1997:1 2000:1 
1 113:1 137:1 264:1 441:1 521:1 611:1 629:1 722:1 920:1 990:1 1024:1 1192:1 1203:1 1274:1 1454:1 1473:1 1494:1 1622:1 1623:1 1630:1 1677:1 1723:1 1762:1 1832:1 
1 82:1 89:1 106:1 137:1 223:1 229:1 278:1 521:1 722:1 745:1 774:1 919:1 1057:1 1203:1 1490:1 1494:1 1601:1 1729:1 1878:1 1882:1 
1 3:1 55:1 81:1 82:1 130:1 137:1 223:1 229:1 261:1 283:1 293:1 312:1 323:1 337:1 353:1 398:1 430:1 471:1 489:1 490:1 491:1 521:1 578:1 599:1 629:1 674:1 708:1 722:1 731:1 741:1 806:1 822:1 854:1 919:1 999:1 1031:1 1064:1 1070:1 1091:1 1111:1 1116:1 1186:1 1203:1 1251:1 1252:1 1274:1 1329:1 1341:1 1342:1 1344:1 1377:1 1401:1 1453:1 1470:1 1479:1 1489:1 1490:1 1494:1 1559:1 1595:1 1599:1 1601:1 1666:1 1703:1 1762:1 1789:1 1811:1 1826:1 1829:1 1837:1 1861:1 1882:1 1930:1 1946:1 1962:1 2000:1 
1 85:1 123:1 137:1 180:1 193:1 223:1 229:1 235:1 278:1 312:1 398:1 411:1 442:1 471:1 521:1 557:1 578:1 822:1 893:1 994:1 1091:1 1093:1 1111:1 1185:1 1335:1 1344:1 1345:1 1420:1 1479:1 1482:1 1494:1 1561:1 1601:1 1682:1 1829:1 1882:1 2000:1 
1 3:1 82:1 83:1 110:1 123:1 188:1 229:1 278:1 491:1 521:1 569:1 581:1 619:1 622:1 629:1 660:1 662:1 674:1 733:1 743:1 782:1 798:1 822:1 851:1 893:1 919:1 931:1 947:1 965:1 1031:1 1106:1 1192:1 1203:1 1236:1 1294:1 1329:1 1342:1 1358:1 1453:1 1470:1 1479:1 1490:1 1554:1 1556:1 1682:1 1762:1 1798:1 1832:1 1871:1 1882:1 1900:1 1912:1 2001:1 
1 3:1 31:1 82:1 180:1 188:1 190:1 442:1 471:1 491:1 581:1 599:1 667:1 827:1 919:1 1224:1 1239:1 1335:1 1344:1 1479:1 1494:1 1593:1 1667:1 1682:1 1747:1 1829:1 1928:1 2000:1 
1 3:1 81:1 82:1 166:1 229:1 412:1 442:1 471:1 491:1 518:1 521:1 523:1 581:1 606:1 718:1 734:1 775:1 854:1 1031:1 1312:1 1341:1 1344:1 1375:1 1417:1 1494:1 1803:1 1829:1 2000:1 
1 82:1 119:1 137:1 415:1 554:1 666:1 677:1 708:1 822:1 959:1 1022:1 1158:1 1197:1 1203:1 1479:1 1490:1 1494:1 1601:1 1762:1 1832:1 1873:1 1895:1 1912:1 1915:1 
1 24:1 82:1 83:1 111:1 130:1 137:1 223:1 229:1 386:1 393:1 398:1 442:1 581:1 610:1 611:1 622:1 626:1 629:1 674:1 708:1 740:1 746:1 779:1 822:1 846:1 919:1 931:1 951:1 959:1 994:1 999:1 1031:1 1095:1 1203:1 1220:1 1244:1 1251:1 1294:1 1329:1 1336:1 1417:1 1454:1 1470:1 1479:1 1490:1 1494:1 1566:1 1682:1 1716:1 1754:1 1762:1 1829:1 1832:1 1837:1 1873:1 1882:1 1942:1 2000:1 
1 3:1 73:1 82:1 98:1 123:1 137:1 139:1 143:1 145:1 165:1 167:1 169:1 180:1 188:1 190:1 205:1 223:1 229:1 293:1 328:1 337:1 353:1 376:1 441:1 442:1 469:1 481:1 489:1 491:1 521:1 523:1 524:1 533:1 564:1 578:1 581:1 599:1 610:1 666:1 674:1 722:1 739:1 740:1 741:1 775:1 803:1 806:1 822:1 851:1 854:1 876:1 892:1 896:1 919:1 921:1 947:1 959:1 970:1 994:1 1017:1 1031:1 1035:1 1036:1 1047:1 1051:1 1064:1 1091:1 1118:1 1151:1 1177:1 1203:1 1224:1 1225:1 1251:1 1256:1 1327:1 1329:1 1335:1 1342:1 1344:1 1417:1 1452:1 1453:1 1454:1 1479:1 1490:1 1494:1 1549:1 1587:1 1593:1 1599:1 1623:1 1625:1 1700:1 1713:1 1716:1 1718:1 1734:1 1742:1 1801:1 1809:1 1818:1 1822:1 1829:1 1832:1 1835:1 1839:1 1842:1 1871:1 1882:1 1915:1 1960:1 1981:1 1997:1 1998:1 1999:1 2000:1 
1 24:1 43:1 82:1 83:1 98:1 123:1 137:1 157:1 167:1 190:1 191:1 193:1 216:1 223:1 229:1 276:1 309:1 315:1 323:1 340:1 353:1 362:1 364:1 442:1 455:1 456:1 489:1 491:1 503:1 516:1 555:1 564:1 572:1 581:1 596:1 609:1 616:1 622:1 629:1 640:1 649:1 668:1 674:1 689:1 708:1 718:1 722:1 726:1 740:1 764:1 782:1 785:1 806:1 807:1 822:1 851:1 858:1 889:1 893:1 896:1 919:1 957:1 959:1 965:1 990:1 996:1 999:1 1020:1 1031:1 1036:1 1041:1 1047:1 1057:1 1093:1 1095:1 1105:1 1106:1 1108:1 1192:1 1203:1 1220:1 1251:1 1272:1 1273:1 1281:1 1329:1 1344:1 1381:1 1417:1 1425:1 1453:1 1454:1 1476:1 1479:1 1483:1 1490:1 1494:1 1498:1 1513:1 1560:1 1593:1 1601:1 1650:1 1668:1 1677:1 1682:1 1689:1 1716:1 1723:1 1731:1 1762:1 1768:1 1774:1 1777:1 1798:1 1799:1 1826:1 1829:1 1832:1 1835:1 1839:1 1854:1 1871:1 1873:1 1882:1 1898:1 1912:1 1946:1 1981:1 1997:1 1998:1 1999:1 2000:1 2001:1 
1 7:1 24:1 43:1 78:1 79:1 81:1 82:1 83:1 85:1 88:1 89:1 110:1 123:1 129:1 130:1 133:1 137:1 156:1 163:1 167:1 180:1 190:1 191:1 193:1 215:1 217:1 223:1 229:1 246:1 264:1 278:1 290:1 308:1 309:1 321:1 323:1 337:1 364:1 367:1 392:1 398:1 401:1 418:1 420:1 442:1 445:1 451:1 457:1 462:1 471:1 481:1 489:1 491:1 516:1 520:1 521:1 523:1 554:1 555:1 557:1 578:1 580:1 581:1 592:1 603:1 609:1 610:1 611:1 629:1 642:1 648:1 668:1 674:1 677:1 680:1 707:1 708:1 718:1 722:1 728:1 740:1 743:1 750:1 791:1 806:1 822:1 824:1 858:1 859:1 876:1 892:1 893:1 904:1 907:1 911:1 919:1 921:1 947:1 957:1 987:1 990:1 991:1 994:1 999:1 1001:1 1022:1 1031:1 1036:1 1047:1 1057:1 1064:1 1066:1 1091:1 1093:1 1095:1 1106:1 1109:1 1119:1 1166:1 1168:1 1170:1 1190:1 1192:1 1203:1 1204:1 1208:1 1223:1 1224:1 1225:1 1229:1 1245:1 1251:1 1263:1 1294:1 1301:1 1329:1 1330:1 1335:1 1342:1 1344:1 1393:1 1402:1 1417:1 1430:1 1435:1 1453:1 1454:1 1455:1 1479:1 1490:1 1494:1 1495:1 1504:1 1513:1 1532:1 1560:1 1601:1 1619:1 1649:1 1663:1 1682:1 1686:1 1687:1 1700:1 1714:1 1716:1 1723:1 1731:1 1738:1 1740:1 1743:1 1754:1 1762:1 1775:1 1777:1 1798:1 1811:1 1826:1 1829:1 1832:1 1836:1 1837:1 1839:1 1841:1 1842:1 1843:1 1861:1 1871:1 1882:1 1887:1 1898:1 1912:1 1914:1 1930:1 1941:1 1942:1 1981:1 1993:1 1997:1 1998:1 1999:1 2000:1 2001:1 
1 82:1 137:1 229:1 362:1 418:1 451:1 569:1 674:1 708:1 733:1 740:1 753:1 822:1 893:1 999:1 1203:1 1225:1 1230:1 1244:1 1344:1 1417:1 1458:1 1479:1 1490:1 1494:1 1596:1 1601:1 1682:1 1738:1 1768:1 1774:1 1826:1 1829:1 1835:1 1997:1 2000:1 
1 82:1 83:1 137:1 167:1 223:1 229:1 278:1 398:1 415:1 431:1 521:1 569:1 572:1 581:1 722:1 775:1 798:1 816:1 822:1 851:1 1031:1 1057:1 1064:1 1203:1 1240:1 1309:1 1329:1 1344:1 1479:1 1490:1 1494:1 1601:1 1650:1 1674:1 1731:1 1762:1 1829:1 1832:1 1835:1 1848:1 1882:1 2000:1 
1 46:1 78:1 79:1 82:1 87:1 88:1 123:1 130:1 223:1 229:1 244:1 320:1 364:1 366:1 410:1 442:1 461:1 477:1 481:1 491:1 493:1 503:1 521:1 561:1 564:1 578:1 609:1 629:1 674:1 708:1 722:1 728:1 775:1 798:1 803:1 806:1 815:1 822:1 851:1 889:1 893:1 940:1 947:1 990:1 999:1 1031:1 1064:1 1091:1 1111:1 1203:1 1244:1 1251:1 1335:1 1344:1 1352:1 1377:1 1402:1 1413:1 1479:1 1490:1 1494:1 1513:1 1565:1 1574:1 1650:1 1676:1 1687:1 1700:1 1716:1 1749:1 1785:1 1815:1 1829:1 1832:1 1837:1 1838:1 1852:1 1895:1 1941:1 1997:1 1998:1 1999:1 2000:1 2001:1 
1 43:1 73:1 74:1 82:1 88:1 103:1 124:1 137:1 144:1 170:1 180:1 223:1 229:1 264:1 418:1 420:1 442:1 491:1 521:1 523:1 554:1 572:1 599:1 600:1 609:1 619:1 629:1 640:1 726:1 740:1 798:1 822:1 889:1 955:1 959:1 1031:1 1057:1 1093:1 1095:1 1203:1 1251:1 1263:1 1316:1 1318:1 1331:1 1417:1 1435:1 1479:1 1504:1 1557:1 1599:1 1716:1 1718:1 1731:1 1762:1 1785:1 1801:1 1832:1 1837:1 1844:1 1850:1 1912:1 1960:1 1997:1 
0.0948827816665003 3:1 10:1 43:1 78:1 79:1 81:1 82:1 83:1 88:1 101:1 106:1 123:1 131:1 137:1 144:1 168:1 170:1 180:1 181:1 188:1 190:1 195:1 205:1 207:1 208:1 217:1 223:1 229:1 230:1 240:1 246:1 278:1 282:1 288:1 309:1 312:1 323:1 353:1 385:1 393:1 398:1 401:1 415:1 442:1 471:1 491:1 521:1 523:1 550:1 554:1 557:1 558:1 572:1 578:1 581:1 610:1 611:1 629:1 643:1 644:1 653:1 665:1 666:1 668:1 669:1 671:1 674:1 675:1 700:1 708:1 718:1 722:1 726:1 728:1 740:1 741:1 768:1 775:1 803:1 822:1 836:1 851:1 858:1 876:1 889:1 890:1 893:1 896:1 911:1 919:1 921:1 922:1 931:1 947:1 959:1 991:1 994:1 999:1 1010:1 1022:1 1031:1 1035:1 1043:1 1046:1 1052:1 1057:1 1088:1 1091:1 1119:1 1125:1 1130:1 1190:1 1203:1 1224:1 1232:1 1251:1 1294:1 1312:1 1329:1 1341:1 1342:1 1344:1 1386:1 1417:1 1432:1 1439:1 1442:1 1453:1 1454:1 1479:1 1490:1 1494:1 1495:1 1504:1 1508:1 1513:1 1557:1 1563:1 1601:1 1627:1 1670:1 1682:1 1713:1 1719:1 1729:1 1731:1 1738:1 1742:1 1762:1 1768:1 1808:1 1826:1 1829:1 1837:1 1839:1 1842:1 1850:1 1871:1 1882:1 1883:1 1912:1 1915:1 1946:1 1998:1 1999:1 2000:1 2001:1 
1 3:1 43:1 81:1 82:1 137:1 165:1 167:1 180:1 193:1 218:1 223:1 229:1 361:1 406:1 439:1 449:1 471:1 491:1 498:1 521:1 523:1 599:1 600:1 722:1 726:1 728:1 739:1 740:1 750:1 753:1 775:1 803:1 806:1 846:1 892:1 893:1 919:1 959:1 990:1 1031:1 1036:1 1057:1 1115:1 1203:1 1232:1 1294:1 1317:1 1387:1 1479:1 1485:1 1490:1 1494:1 1499:1 1554:1 1556:1 1601:1 1626:1 1682:1 1785:1 1837:1 1871:1 1997:1 
1 3:1 180:1 190:1 229:1 521:1 653:1 688:1 708:1 722:1 739:1 740:1 775:1 817:1 822:1 836:1 854:1 893:1 919:1 965:1 1031:1 1190:1 1281:1 1329:1 1335:1 1397:1 1479:1 1490:1 1557:1 1601:1 1682:1 1709:1 1882:1 1997:1 
1 82:1 83:1 123:1 137:1 170:1 180:1 190:1 191:1 223:1 229:1 403:1 431:1 440:1 442:1 453:1 456:1 491:1 518:1 523:1 535:1 557:1 558:1 578:1 581:1 610:1 629:1 662:1 718:1 728:1 740:1 775:1 798:1 836:1 846:1 854:1 893:1 931:1 965:1 999:1 1031:1 1047:1 1057:1 1070:1 1091:1 1192:1 1203:1 1329:1 1330:1 1357:1 1453:1 1479:1 1576:1 1599:1 1618:1 1628:1 1656:1 1682:1 1762:1 1832:1 1848:1 1858:1 1875:1 1882:1 1890:1 1997:1 
1 1:1 3:1 83:1 123:1 130:1 131:1 137:1 180:1 188:1 190:1 193:1 229:1 309:1 431:1 449:1 471:1 491:1 521:1 522:1 559:1 578:1 581:1 599:1 601:1 611:1 652:1 653:1 662:1 668:1 674:1 722:1 726:1 743:1 747:1 775:1 798:1 805:1 822:1 836:1 851:1 893:1 919:1 999:1 1031:1 1064:1 1091:1 1195:1 1203:1 1244:1 1251:1 1294:1 1301:1 1344:1 1369:1 1386:1 1479:1 1490:1 1494:1 1506:1 1556:1 1560:1 1599:1 1601:1 1625:1 1670:1 1682:1 1697:1 1705:1 1722:1 1766:1 1777:1 1810:1 1829:1 1832:1 1836:1 1837:1 1848:1 1865:1 1959:1 2000:1 
1 3:1 229:1 639:1 722:1 775:1 893:1 921:1 1082:1 1203:1 1344:1 1479:1 1494:1 1601:1 1666:1 1677:1 1682:1 1829:1 1882:1 2000:1 
0.9223981257652273 3:1 83:1 123:1 207:1 229:1 296:1 411:1 449:1 521:1 557:1 578:1 581:1 599:1 617:1 629:1 659:1 668:1 674:1 718:1 722:1 726:1 731:1 753:1 775:1 822:1 896:1 908:1 919:1 1031:1 1036:1 1091:1 1171:1 1329:1 1335:1 1344:1 1462:1 1479:1 1490:1 1494:1 1500:1 1599:1 1682:1 1703:1 1714:1 1716:1 1731:1 1759:1 1762:1 1829:1 1832:1 1838:1 1877:1 1882:1 2000:1 
1 1:1 3:1 83:1 98:1 190:1 214:1 229:1 312:1 364:1 423:1 581:1 708:1 1011:1 1031:1 1224:1 1237:1 1344:1 1417:1 1446:1 1494:1 1677:1 1731:1 1829:1 2000:1 
1 3:1 82:1 106:1 229:1 279:1 309:1 341:1 392:1 406:1 418:1 531:1 578:1 581:1 599:1 718:1 722:1 782:1 799:1 893:1 1024:1 1031:1 1335:1 1344:1 1389:1 1453:1 1479:1 1490:1 1494:1 1508:1 1601:1 1622:1 1731:1 1811:1 1829:1 1875:1 1882:1 2000:1 
1 3:1 81:1 82:1 166:1 229:1 412:1 442:1 471:1 491:1 518:1 521:1 523:1 581:1 606:1 718:1 734:1 775:1 854:1 1031:1 1312:1 1341:1 1344:1 1375:1 1417:1 1494:1 1803:1 1829:1 2000:1 
0.07399773561222975 3:1 21:1 33:1 83:1 216:1 223:1 229:1 232:1 308:1 398:1 441:1 449:1 469:1 470:1 489:1 491:1 521:1 581:1 704:1 708:1 789:1 851:1 893:1 1057:1 1203:1 1262:1 1309:1 1329:1 1344:1 1354:1 1413:1 1479:1 1490:1 1494:1 1579:1 1580:1 1599:1 1601:1 1762:1 1766:1 1801:1 1826:1 1829:1 1871:1 1912:1 1951:1 2000:1 
1 89:1 246:1 353:1 442:1 477:1 481:1 722:1 812:1 928:1 931:1 991:1 1192:1 1454:1 1479:1 1486:1 1494:1 1601:1 1997:1 
1 83:1 137:1 144:1 229:1 283:1 489:1 514:1 521:1 533:1 550:1 611:1 690:1 718:1 731:1 791:1 893:1 959:1 965:1 991:1 999:1 1031:1 1203:1 1329:1 1341:1 1454:1 1479:1 1494:1 1627:1 1682:1 1829:1 1894:1 1912:1 2000:1 
1 82:1 137:1 188:1 229:1 278:1 564:1 581:1 599:1 708:1 893:1 931:1 1203:1 1244:1 1344:1 1402:1 1479:1 1494:1 1682:1 1829:1 2000:1 
1 82:1 137:1 167:1 229:1 258:1 264:1 272:1 337:1 392:1 420:1 480:1 489:1 491:1 521:1 557:1 578:1 611:1 629:1 741:1 782:1 801:1 806:1 822:1 893:1 919:1 947:1 999:1 1031:1 1064:1 1091:1 1274:1 1335:1 1344:1 1402:1 1417:1 1454:1 1479:1 1490:1 1494:1 1504:1 1601:1 1642:1 1682:1 1754:1 1762:1 1829:1 1832:1 1878:1 1941:1 2000:1 
1 3:1 82:1 137:1 216:1 223:1 229:1 308:1 353:1 401:1 415:1 418:1 457:1 468:1 491:1 521:1 523:1 554:1 599:1 601:1 629:1 668:1 674:1 718:1 722:1 740:1 791:1 822:1 851:1 854:1 922:1 987:1 1031:1 1041:1 1047:1 1050:1 1058:1 1064:1 1091:1 1203:1 1213:1 1220:1 1311:1 1329:1 1341:1 1344:1 1399:1 1401:1 1410:1 1456:1 1479:1 1490:1 1494:1 1700:1 1746:1 1754:1 1762:1 1766:1 1826:1 1829:1 1848:1 1968:1 2000:1 
1 43:1 64:1 111:1 137:1 180:1 190:1 197:1 223:1 229:1 264:1 272:1 278:1 323:1 398:1 418:1 442:1 518:1 521:1 578:1 580:1 596:1 599:1 629:1 652:1 708:1 722:1 726:1 822:1 824:1 851:1 893:1 919:1 959:1 999:1 1017:1 1038:1 1047:1 1091:1 1186:1 1224:1 1274:1 1316:1 1329:1 1386:1 1451:1 1479:1 1490:1 1762:1 1837:1 1912:1 2001:1 
1 3:1 88:1 110:1 137:1 144:1 223:1 229:1 278:1 581:1 726:1 1057:1 1341:1 1344:1 1494:1 1504:1 1506:1 1556:1 1697:1 1762:1 1829:1 2000:1 
1 82:1 83:1 223:1 229:1 272:1 415:1 427:1 518:1 533:1 557:1 690:1 718:1 740:1 822:1 893:1 919:1 1031:1 1047:1 1050:1 1057:1 1064:1 1203:1 1329:1 1479:1 1490:1 1494:1 1513:1 1682:1 1997:1 
1 82:1 103:1 137:1 139:1 161:1 229:1 415:1 578:1 629:1 718:1 722:1 919:1 999:1 1031:1 1057:1 1076:1 1091:1 1294:1 1329:1 1416:1 1423:1 1479:1 1490:1 1494:1 1504:1 1601:1 1757:1 1829:1 1981:1 2000:1 
1 3:1 35:1 49:1 73:1 82:1 131:1 137:1 149:1 197:1 279:1 338:1 408:1 415:1 441:1 471:1 491:1 514:1 521:1 523:1 581:1 629:1 722:1 726:1 731:1 740:1 806:1 824:1 1026:1 1031:1 1076:1 1203:1 1252:1 1282:1 1344:1 1417:1 1453:1 1479:1 1490:1 1494:1 1504:1 1533:1 1557:1 1627:1 1701:1 1729:1 1731:1 1777:1 1801:1 1811:1 1829:1 1836:1 1837:1 1882:1 1946:1 1981:1 2000:1 
1 3:1 82:1 83:1 101:1 123:1 137:1 162:1 195:1 229:1 278:1 309:1 564:1 578:1 611:1 629:1 646:1 648:1 708:1 722:1 740:1 806:1 822:1 836:1 854:1 893:1 919:1 923:1 1031:1 1050:1 1091:1 1190:1 1203:1 1311:1 1344:1 1417:1 1479:1 1490:1 1494:1 1601:1 1682:1 1762:1 1829:1 1848:1 1865:1 1882:1 1997:1 2000:1 
1 82:1 137:1 144:1 229:1 246:1 418:1 420:1 489:1 521:1 523:1 698:1 822:1 893:1 959:1 1031:1 1064:1 1088:1 1122:1 1203:1 1311:1 1335:1 1370:1 1479:1 1490:1 1494:1 1646:1 1731:1 1757:1 1762:1 1785:1 1826:1 1839:1 1882:1 1997:1 1998:1 1999:1 
1 1:1 2:1 7:1 72:1 82:1 83:1 88:1 123:1 137:1 170:1 190:1 229:1 289:1 339:1 398:1 401:1 418:1 442:1 523:1 557:1 568:1 578:1 581:1 584:1 599:1 629:1 643:1 708:1 726:1 740:1 824:1 850:1 866:1 999:1 1010:1 1031:1 1036:1 1064:1 1091:1 1203:1 1211:1 1224:1 1243:1 1294:1 1329:1 1341:1 1407:1 1416:1 1458:1 1479:1 1490:1 1495:1 1538:1 1592:1 1599:1 1601:1 1605:1 1716:1 1882:1 1974:1 1981:1 1998:1 2000:1 2001:1 
1 7:1 8:1 195:1 229:1 439:1 521:1 629:1 708:1 722:1 728:1 760:1 785:1 846:1 1031:1 1479:1 1490:1 1500:1 1601:1 1762:1 1808:1 1826:1 1838:1 1997:1 
1 82:1 137:1 181:1 190:1 229:1 581:1 708:1 782:1 806:1 893:1 919:1 1224:1 1334:1 1454:1 1479:1 1627:1 1682:1 1801:1 1832:1 1882:1 
1 82:1 83:1 168:1 170:1 212:1 223:1 229:1 261:1 309:1 353:1 369:1 389:1 420:1 461:1 521:1 523:1 578:1 599:1 629:1 649:1 722:1 780:1 889:1 892:1 1031:1 1041:1 1091:1 1224:1 1329:1 1335:1 1401:1 1451:1 1479:1 1490:1 1494:1 1599:1 1659:1 1762:1 1829:1 1837:1 1848:1 1882:1 1915:1 1998:1 1999:1 2000:1 
1 3:1 72:1 82:1 83:1 88:1 130:1 137:1 159:1 167:1 170:1 190:1 213:1 223:1 229:1 240:1 246:1 264:1 285:1 323:1 424:1 460:1 477:1 481:1 489:1 491:1 520:1 521:1 556:1 578:1 629:1 674:1 722:1 736:1 745:1 775:1 824:1 854:1 889:1 892:1 893:1 896:1 919:1 959:1 985:1 994:1 999:1 1017:1 1031:1 1041:1 1047:1 1064:1 1091:1 1203:1 1214:1 1218:1 1243:1 1263:1 1335:1 1370:1 1451:1 1479:1 1490:1 1494:1 1498:1 1504:1 1513:1 1601:1 1726:1 1754:1 1762:1 1772:1 1826:1 1829:1 1832:1 1835:1 1836:1 1838:1 1849:1 1871:1 1881:1 1882:1 1997:1 2000:1 2001:1 
1 83:1 167:1 172:1 223:1 229:1 264:1 278:1 293:1 398:1 521:1 578:1 611:1 674:1 690:1 806:1 822:1 842:1 846:1 876:1 893:1 911:1 959:1 1057:1 1091:1 1274:1 1335:1 1435:1 1454:1 1479:1 1490:1 1601:1 1623:1 1627:1 1682:1 1726:1 1731:1 1744:1 1793:1 1912:1 1932:1 
1 144:1 217:1 223:1 278:1 782:1 822:1 893:1 896:1 959:1 1031:1 1168:1 1203:1 1329:1 1335:1 1418:1 1479:1 1490:1 1494:1 1682:1 1842:1 1882:1 
1 81:1 82:1 131:1 133:1 137:1 171:1 205:1 223:1 229:1 278:1 312:1 319:1 398:1 439:1 442:1 456:1 491:1 521:1 557:1 581:1 599:1 623:1 667:1 722:1 866:1 902:1 919:1 955:1 1041:1 1047:1 1203:1 1224:1 1246:1 1251:1 1304:1 1329:1 1344:1 1403:1 1451:1 1453:1 1458:1 1473:1 1479:1 1490:1 1494:1 1504:1 1533:1 1588:1 1599:1 1601:1 1634:1 1637:1 1716:1 1731:1 1762:1 1819:1 1826:1 1829:1 1832:1 1835:1 1842:1 1890:1 1996:1 2000:1 
1 3:1 81:1 82:1 83:1 88:1 137:1 190:1 223:1 229:1 302:1 489:1 521:1 555:1 599:1 623:1 700:1 822:1 1041:1 1106:1 1107:1 1203:1 1224:1 1246:1 1294:1 1307:1 1341:1 1490:1 1554:1 1634:1 1635:1 1653:1 1832:1 
1 1:1 125:1 439:1 498:1 648:1 
1 3:1 82:1 137:1 195:1 204:1 276:1 442:1 759:1 806:1 832:1 836:1 893:1 919:1 1017:1 1031:1 1203:1 1344:1 1386:1 1479:1 1494:1 1601:1 1682:1 1777:1 1829:1 1838:1 1965:1 2000:1 
1 3:1 82:1 191:1 223:1 229:1 398:1 418:1 469:1 470:1 489:1 521:1 523:1 640:1 674:1 740:1 822:1 931:1 1031:1 1057:1 1231:1 1282:1 1301:1 1329:1 1490:1 1494:1 1601:1 1650:1 1663:1 1681:1 1701:1 1729:1 1731:1 1762:1 1912:1 1981:1 
1 63:1 223:1 323:1 420:1 659:1 836:1 1031:1 1199:1 1203:1 1329:1 1344:1 1417:1 1454:1 1479:1 1490:1 1494:1 1829:1 1962:1 2000:1 
1 3:1 46:1 47:1 63:1 83:1 88:1 123:1 137:1 144:1 170:1 180:1 190:1 193:1 229:1 239:1 246:1 270:1 279:1 309:1 312:1 353:1 364:1 383:1 418:1 428:1 442:1 449:1 459:1 471:1 491:1 503:1 522:1 555:1 593:1 599:1 640:1 674:1 675:1 698:1 726:1 785:1 827:1 836:1 850:1 891:1 893:1 933:1 959:1 970:1 987:1 990:1 1031:1 1041:1 1047:1 1058:1 1064:1 1106:1 1192:1 1203:1 1220:1 1237:1 1274:1 1275:1 1344:1 1417:1 1435:1 1442:1 1451:1 1453:1 1457:1 1479:1 1494:1 1601:1 1606:1 1667:1 1789:1 1829:1 1832:1 1867:1 1908:1 1912:1 1916:1 1930:1 2000:1 
1 1:1 88:1 119:1 137:1 223:1 229:1 278:1 340:1 354:1 491:1 501:1 521:1 557:1 581:1 596:1 599:1 613:1 722:1 754:1 780:1 785:1 822:1 893:1 904:1 1031:1 1064:1 1117:1 1192:1 1203:1 1236:1 1344:1 1370:1 1453:1 1454:1 1479:1 1490:1 1494:1 1523:1 1593:1 1599:1 1663:1 1682:1 1699:1 1731:1 1762:1 1827:1 1829:1 1837:1 1895:1 2000:1 
1 3:1 82:1 123:1 229:1 278:1 410:1 456:1 461:1 462:1 481:1 489:1 558:1 642:1 674:1 822:1 904:1 919:1 940:1 999:1 1050:1 1057:1 1064:1 1065:1 1093:1 1152:1 1203:1 1329:1 1453:1 1454:1 1479:1 1490:1 1495:1 1523:1 1527:1 1599:1 1677:1 1736:1 1773:1 1895:1 1898:1 1981:1 1997:1 2000:1 2001:1 
1 3:1 83:1 89:1 137:1 169:1 217:1 431:1 740:1 822:1 827:1 959:1 1391:1 1393:1 1479:1 1738:1 1946:1 
1 3:1 21:1 43:1 46:1 62:1 123:1 130:1 190:1 229:1 364:1 398:1 401:1 471:1 521:1 578:1 581:1 599:1 623:1 674:1 684:1 708:1 722:1 740:1 893:1 906:1 990:1 1031:1 1091:1 1203:1 1224:1 1243:1 1305:1 1344:1 1479:1 1480:1 1490:1 1494:1 1564:1 1663:1 1682:1 1716:1 1731:1 1762:1 1829:1 1832:1 2000:1 
1 88:1 89:1 134:1 137:1 190:1 204:1 218:1 223:1 229:1 264:1 354:1 359:1 392:1 420:1 442:1 461:1 495:1 581:1 674:1 675:1 822:1 847:1 893:1 919:1 926:1 955:1 967:1 990:1 1078:1 1203:1 1224:1 1329:1 1369:1 1417:1 1435:1 1454:1 1479:1 1490:1 1557:1 1599:1 1681:1 1682:1 1762:1 1815:1 1871:1 1895:1 
1 3:1 82:1 137:1 183:1 207:1 223:1 229:1 272:1 303:1 442:1 489:1 592:1 616:1 629:1 708:1 749:1 822:1 854:1 919:1 959:1 1024:1 1031:1 1050:1 1064:1 1399:1 1479:1 1490:1 1494:1 1504:1 1599:1 1731:1 1742:1 1829:1 1838:1 1843:1 1873:1 1895:1 2000:1 2001:1 
1 82:1 83:1 103:1 111:1 137:1 170:1 223:1 229:1 296:1 308:1 323:1 353:1 415:1 504:1 564:1 642:1 661:1 668:1 690:1 722:1 726:1 743:1 782:1 789:1 790:1 833:1 893:1 919:1 1017:1 1031:1 1036:1 1091:1 1203:1 1329:1 1479:1 1490:1 1494:1 1601:1 1666:1 1678:1 1682:1 1731:1 1829:1 2000:1 
1 1:1 3:1 123:1 137:1 163:1 166:1 180:1 188:1 190:1 229:1 278:1 293:1 415:1 708:1 785:1 822:1 1031:1 1041:1 1052:1 1224:1 1244:1 1251:1 1335:1 1401:1 1417:1 1433:1 1451:1 1470:1 1479:1 1490:1 1552:1 1566:1 1593:1 1599:1 1704:1 1713:1 1726:1 1977:1 
1 82:1 83:1 123:1 137:1 229:1 264:1 312:1 336:1 415:1 439:1 445:1 521:1 554:1 569:1 610:1 639:1 648:1 680:1 726:1 741:1 822:1 999:1 1017:1 1031:1 1050:1 1108:1 1111:1 1175:1 1329:1 1344:1 1479:1 1490:1 1494:1 1503:1 1754:1 1757:1 1762:1 1772:1 1829:1 2000:1 
1 8:1 21:1 24:1 30:1 43:1 81:1 82:1 83:1 88:1 99:1 123:1 137:1 160:1 177:1 178:1 191:1 193:1 205:1 218:1 223:1 224:1 229:1 240:1 251:1 264:1 278:1 287:1 308:1 309:1 311:1 320:1 323:1 364:1 389:1 393:1 398:1 418:1 420:1 424:1 425:1 442:1 489:1 491:1 518:1 521:1 523:1 524:1 528:1 555:1 561:1 599:1 609:1 620:1 623:1 667:1 674:1 677:1 682:1 696:1 708:1 722:1 726:1 728:1 733:1 743:1 745:1 746:1 770:1 782:1 798:1 822:1 854:1 883:1 893:1 911:1 919:1 922:1 970:1 1031:1 1036:1 1057:1 1064:1 1088:1 1203:1 1205:1 1231:1 1243:1 1301:1 1329:1 1335:1 1344:1 1369:1 1394:1 1400:1 1417:1 1439:1 1448:1 1451:1 1456:1 1479:1 1490:1 1494:1 1504:1 1545:1 1601:1 1625:1 1659:1 1666:1 1669:1 1678:1 1682:1 1743:1 1760:1 1762:1 1791:1 1793:1 1809:1 1826:1 1829:1 1832:1 1837:1 1848:1 1871:1 1872:1 1878:1 1882:1 1892:1 1911:1 1915:1 1977:1 1981:1 1998:1 1999:1 2000:1 2001:1 
1 21:1 82:1 137:1 190:1 229:1 353:1 599:1 708:1 790:1 958:1 1041:1 1177:1 1203:1 1224:1 1246:1 1301:1 1451:1 1479:1 1625:1 1704:1 1731:1 1997:1 
1 3:1 21:1 81:1 82:1 83:1 88:1 137:1 212:1 229:1 240:1 312:1 353:1 389:1 399:1 449:1 491:1 514:1 523:1 599:1 708:1 718:1 722:1 726:1 893:1 921:1 926:1 1041:1 1047:1 1106:1 1203:1 1251:1 1274:1 1281:1 1344:1 1479:1 1490:1 1494:1 1601:1 1682:1 1762:1 1790:1 1829:1 1873:1 1882:1 1911:1 1942:1 1977:1 2000:1 
1 82:1 418:1 812:1 959:1 985:1 1031:1 1294:1 1554:1 1556:1 1796:1 1832:1 
1 3:1 40:1 78:1 79:1 82:1 99:1 106:1 123:1 137:1 229:1 278:1 353:1 430:1 442:1 449:1 521:1 581:1 599:1 668:1 850:1 872:1 893:1 911:1 921:1 935:1 1031:1 1036:1 1041:1 1192:1 1203:1 1281:1 1294:1 1329:1 1344:1 1443:1 1479:1 1494:1 1513:1 1536:1 1554:1 1593:1 1619:1 1643:1 1645:1 1716:1 1731:1 1754:1 1766:1 1829:1 1915:1 1997:1 2000:1 
1 3:1 24:1 81:1 137:1 229:1 364:1 415:1 495:1 498:1 578:1 590:1 990:1 1119:1 1148:1 1214:1 1402:1 1479:1 1494:1 1552:1 1619:1 1677:1 1743:1 1754:1 1768:1 1848:1 1882:1 1941:1 
1 3:1 43:1 81:1 82:1 85:1 88:1 110:1 123:1 137:1 156:1 170:1 180:1 190:1 207:1 216:1 223:1 229:1 276:1 278:1 284:1 312:1 338:1 353:1 354:1 415:1 442:1 449:1 469:1 470:1 471:1 489:1 491:1 494:1 500:1 521:1 522:1 523:1 549:1 559:1 581:1 596:1 599:1 629:1 648:1 674:1 708:1 718:1 735:1 806:1 822:1 842:1 854:1 874:1 893:1 896:1 908:1 911:1 919:1 921:1 931:1 1031:1 1048:1 1057:1 1064:1 1093:1 1165:1 1177:1 1203:1 1224:1 1236:1 1251:1 1274:1 1294:1 1301:1 1335:1 1341:1 1344:1 1347:1 1410:1 1417:1 1453:1 1454:1 1479:1 1490:1 1494:1 1499:1 1504:1 1599:1 1601:1 1655:1 1682:1 1731:1 1738:1 1762:1 1809:1 1829:1 1832:1 1837:1 1841:1 1843:1 1861:1 1882:1 1935:1 1960:1 1981:1 1997:1 1998:1 1999:1 2000:1 
1 7:1 43:1 82:1 106:1 190:1 223:1 229:1 364:1 581:1 709:1 806:1 893:1 919:1 1031:1 1082:1 1095:1 1224:1 1329:1 1335:1 1479:1 1490:1 1627:1 1682:1 1716:1 1832:1 1878:1 1997:1 
1 11:1 32:1 43:1 78:1 79:1 82:1 83:1 123:1 130:1 137:1 165:1 180:1 190:1 223:1 229:1 235:1 239:1 242:1 246:1 264:1 300:1 383:1 398:1 410:1 420:1 442:1 453:1 456:1 489:1 518:1 523:1 524:1 557:1 575:1 578:1 581:1 599:1 605:1 609:1 652:1 674:1 675:1 693:1 708:1 722:1 770:1 774:1 782:1 812:1 817:1 822:1 851:1 854:1 874:1 889:1 893:1 896:1 919:1 931:1 998:1 1031:1 1036:1 1088:1 1091:1 1170:1 1203:1 1250:1 1251:1 1294:1 1329:1 1341:1 1344:1 1345:1 1386:1 1403:1 1453:1 1454:1 1464:1 1479:1 1490:1 1494:1 1503:1 1504:1 1533:1 1554:1 1564:1 1566:1 1595:1 1599:1 1601:1 1670:1 1682:1 1687:1 1713:1 1716:1 1731:1 1762:1 1764:1 1781:1 1809:1 1815:1 1822:1 1829:1 1837:1 1842:1 1844:1 1856:1 1882:1 1895:1 1912:1 1917:1 1997:1 1998:1 1999:1 2000:1 2001:1 
1 82:1 110:1 137:1 139:1 144:1 489:1 599:1 665:1 947:1 959:1 1227:1 1403:1 1494:1 1716:1 
1 82:1 83:1 137:1 229:1 323:1 690:1 722:1 740:1 893:1 965:1 1031:1 1041:1 1190:1 1194:1 1203:1 1250:1 1274:1 1341:1 1344:1 1358:1 1403:1 1479:1 1490:1 1494:1 1532:1 1601:1 1682:1 1789:1 1829:1 1832:1 2000:1 2001:1 
1 11:1 20:1 34:1 82:1 83:1 123:1 155:1 188:1 229:1 491:1 578:1 581:1 623:1 674:1 705:1 708:1 722:1 782:1 893:1 959:1 1031:1 1047:1 1091:1 1186:1 1203:1 1250:1 1330:1 1344:1 1417:1 1453:1 1479:1 1490:1 1494:1 1601:1 1682:1 1723:1 1829:1 1832:1 2000:1 
1 3:1 137:1 229:1 315:1 561:1 599:1 662:1 674:1 740:1 893:1 964:1 1057:1 1225:1 1238:1 1251:1 1281:1 1354:1 1557:1 1682:1 1766:1 
1 83:1 144:1 229:1 278:1 556:1 964:1 1203:1 1453:1 1490:1 1532:1 1601:1 1627:1 1713:1 1814:1 
1 3:1 137:1 150:1 180:1 223:1 229:1 278:1 289:1 489:1 775:1 803:1 893:1 921:1 1031:1 1203:1 1220:1 1232:1 1251:1 1317:1 1329:1 1341:1 1417:1 1427:1 1453:1 1479:1 1677:1 1682:1 1754:1 1762:1 1882:1 1898:1 1997:1 
1 3:1 81:1 82:1 83:1 123:1 124:1 131:1 137:1 190:1 191:1 223:1 229:1 289:1 399:1 418:1 441:1 489:1 491:1 521:1 523:1 554:1 583:1 599:1 659:1 665:1 674:1 675:1 708:1 740:1 782:1 816:1 822:1 824:1 889:1 931:1 995:1 1203:1 1251:1 1277:1 1305:1 1329:1 1359:1 1453:1 1454:1 1456:1 1479:1 1490:1 1494:1 1504:1 1548:1 1557:1 1601:1 1754:1 1757:1 1762:1 1793:1 1836:1 1864:1 
1 82:1 137:1 144:1 165:1 190:1 229:1 581:1 718:1 722:1 728:1 731:1 806:1 822:1 854:1 893:1 919:1 959:1 984:1 996:1 1031:1 1064:1 1076:1 1151:1 1251:1 1335:1 1344:1 1454:1 1479:1 1494:1 1504:1 1627:1 1682:1 1731:1 1770:1 1785:1 1829:1 1838:1 2000:1 
1 82:1 106:1 123:1 137:1 170:1 223:1 229:1 232:1 278:1 453:1 491:1 521:1 578:1 581:1 599:1 659:1 666:1 893:1 965:1 999:1 1031:1 1091:1 1203:1 1244:1 1329:1 1370:1 1479:1 1490:1 1494:1 1564:1 1731:1 1817:1 1829:1 1912:1 2000:1 
1 3:1 81:1 82:1 88:1 137:1 138:1 229:1 581:1 582:1 708:1 718:1 919:1 987:1 1024:1 1031:1 1057:1 1076:1 1224:1 1336:1 1344:1 1399:1 1479:1 1494:1 1504:1 1599:1 1701:1 1998:1 2000:1 
1 3:1 42:1 43:1 81:1 82:1 83:1 130:1 131:1 137:1 190:1 195:1 217:1 229:1 415:1 442:1 444:1 449:1 491:1 521:1 557:1 580:1 599:1 620:1 668:1 674:1 682:1 722:1 740:1 817:1 822:1 851:1 904:1 912:1 919:1 933:1 957:1 994:1 1031:1 1047:1 1088:1 1092:1 1186:1 1203:1 1205:1 1223:1 1225:1 1242:1 1281:1 1286:1 1294:1 1344:1 1357:1 1453:1 1479:1 1490:1 1494:1 1500:1 1513:1 1557:1 1593:1 1599:1 1609:1 1682:1 1731:1 1774:1 1789:1 1802:1 1815:1 1826:1 1829:1 1832:1 1837:1 1847:1 1869:1 1882:1 1898:1 1920:1 1997:1 1998:1 1999:1 2000:1 
1 40:1 110:1 137:1 229:1 312:1 353:1 449:1 555:1 599:1 611:1 674:1 722:1 726:1 812:1 876:1 955:1 1031:1 1041:1 1047:1 1171:1 1218:1 1242:1 1246:1 1335:1 1362:1 1417:1 1479:1 1762:1 1826:1 1842:1 1846:1 1877:1 
0.6602666897503808 3:1 28:1 63:1 82:1 83:1 88:1 103:1 120:1 123:1 126:1 130:1 137:1 188:1 190:1 205:1 207:1 214:1 223:1 229:1 232:1 246:1 256:1 287:1 323:1 355:1 367:1 415:1 439:1 442:1 449:1 455:1 471:1 491:1 521:1 523:1 564:1 569:1 581:1 592:1 599:1 609:1 610:1 611:1 619:1 622:1 662:1 674:1 709:1 722:1 726:1 728:1 753:1 775:1 782:1 806:1 822:1 827:1 836:1 850:1 851:1 874:1 893:1 911:1 919:1 959:1 965:1 990:1 991:1 993:1 994:1 999:1 1031:1 1047:1 1088:1 1177:1 1180:1 1197:1 1203:1 1220:1 1224:1 1250:1 1252:1 1263:1 1329:1 1335:1 1341:1 1342:1 1344:1 1386:1 1394:1 1400:1 1416:1 1417:1 1439:1 1453:1 1460:1 1479:1 1504:1 1522:1 1540:1 1543:1 1556:1 1601:1 1645:1 1647:1 1658:1 1663:1 1677:1 1682:1 1700:1 1713:1 1716:1 1731:1 1747:1 1754:1 1762:1 1793:1 1811:1 1821:1 1826:1 1832:1 1837:1 1858:1 1871:1 1898:1 1912:1 1981:1 1998:1 1999:1 
1 2:1 3:1 103:1 137:1 278:1 353:1 362:1 392:1 430:1 521:1 560:1 722:1 725:1 728:1 740:1 893:1 990:1 1013:1 1024:1 1031:1 1038:1 1064:1 1088:1 1117:1 1203:1 1274:1 1335:1 1344:1 1407:1 1454:1 1479:1 1494:1 1601:1 1623:1 1682:1 1740:1 1829:1 1832:1 1839:1 1911:1 2000:1 
1 88:1 137:1 229:1 418:1 581:1 822:1 893:1 990:1 1106:1 1167:1 1453:1 1479:1 1494:1 1504:1 1564:1 1663:1 1762:1 1829:1 2000:1 
1 3:1 83:1 111:1 229:1 353:1 415:1 498:1 682:1 690:1 827:1 919:1 1029:1 1223:1 1243:1 1251:1 1281:1 1335:1 1460:1 1479:1 1494:1 1500:1 1551:1 1552:1 1677:1 1829:1 1848:1 1861:1 1882:1 1898:1 1997:1 2000:1 
1 3:1 21:1 81:1 82:1 111:1 137:1 276:1 572:1 580:1 599:1 688:1 807:1 814:1 893:1 959:1 987:1 1026:1 1220:1 1344:1 1454:1 1479:1 1485:1 1494:1 1656:1 1682:1 1729:1 1799:1 1826:1 1829:1 1848:1 1882:1 2000:1 
1 3:1 82:1 137:1 155:1 162:1 229:1 278:1 415:1 427:1 491:1 521:1 564:1 760:1 822:1 824:1 876:1 917:1 1031:1 1050:1 1203:1 1220:1 1446:1 1479:1 1494:1 1754:1 1796:1 1912:1 
1 3:1 82:1 137:1 162:1 170:1 223:1 229:1 287:1 398:1 459:1 521:1 533:1 599:1 775:1 847:1 893:1 959:1 1057:1 1344:1 1435:1 1479:1 1494:1 1601:1 1682:1 1829:1 1842:1 1882:1 1946:1 2000:1 
1 3:1 81:1 82:1 103:1 129:1 137:1 144:1 167:1 168:1 190:1 199:1 214:1 216:1 223:1 229:1 278:1 307:1 323:1 324:1 353:1 415:1 426:1 431:1 440:1 442:1 449:1 489:1 512:1 514:1 521:1 523:1 557:1 569:1 599:1 601:1 604:1 610:1 611:1 620:1 629:1 651:1 668:1 674:1 722:1 743:1 753:1 770:1 782:1 789:1 798:1 822:1 896:1 902:1 917:1 919:1 961:1 990:1 994:1 998:1 999:1 1000:1 1013:1 1022:1 1031:1 1033:1 1045:1 1047:1 1057:1 1061:1 1064:1 1097:1 1118:1 1126:1 1180:1 1203:1 1294:1 1305:1 1317:1 1386:1 1417:1 1420:1 1434:1 1442:1 1473:1 1479:1 1490:1 1494:1 1500:1 1564:1 1595:1 1601:1 1637:1 1643:1 1729:1 1731:1 1762:1 1785:1 1809:1 1829:1 1832:1 1838:1 1842:1 1867:1 1871:1 1874:1 1875:1 1882:1 1883:1 1889:1 1912:1 1997:1 1998:1 1999:1 2000:1 2001:1 
1 3:1 21:1 42:1 82:1 131:1 169:1 191:1 229:1 611:1 675:1 720:1 722:1 740:1 817:1 850:1 923:1 1031:1 1093:1 1111:1 1335:1 1344:1 1369:1 1435:1 1479:1 1494:1 1552:1 1759:1 1762:1 1826:1 1829:1 1838:1 1898:1 1915:1 1946:1 1997:1 2000:1 
1 81:1 82:1 83:1 88:1 137:1 178:1 223:1 229:1 232:1 235:1 264:1 323:1 392:1 393:1 418:1 423:1 489:1 504:1 531:1 599:1 629:1 659:1 666:1 668:1 674:1 688:1 696:1 722:1 889:1 919:1 965:1 967:1 994:1 1017:1 1033:1 1041:1 1043:1 1107:1 1168:1 1190:1 1203:1 1220:1 1281:1 1301:1 1329:1 1335:1 1345:1 1435:1 1479:1 1494:1 1513:1 1601:1 1623:1 1762:1 1829:1 1887:1 1915:1 2000:1 2001:1 
1 113:1 137:1 264:1 441:1 521:1 611:1 629:1 722:1 920:1 990:1 1024:1 1192:1 1203:1 1274:1 1454:1 1473:1 1494:1 1622:1 1623:1 1630:1 1677:1 1723:1 1762:1 1832:1 
1 3:1 137:1 217:1 229:1 353:1 367:1 369:1 418:1 559:1 684:1 782:1 1083:1 1243:1 1335:1 1344:1 1454:1 1460:1 1479:1 1485:1 1490:1 1494:1 1564:1 1718:1 1729:1 1762:1 1829:1 2000:1 
1 123:1 130:1 137:1 144:1 223:1 229:1 278:1 289:1 308:1 364:1 398:1 456:1 457:1 491:1 521:1 522:1 558:1 578:1 581:1 599:1 629:1 674:1 728:1 842:1 851:1 876:1 919:1 990:1 1017:1 1031:1 1035:1 1057:1 1091:1 1093:1 1203:1 1236:1 1294:1 1329:1 1335:1 1402:1 1407:1 1417:1 1439:1 1446:1 1452:1 1479:1 1490:1 1555:1 1578:1 1601:1 1677:1 1715:1 1744:1 1826:1 1832:1 1837:1 1847:1 1882:1 
1 3:1 8:1 73:1 83:1 106:1 123:1 229:1 272:1 278:1 353:1 366:1 414:1 442:1 523:1 561:1 578:1 599:1 657:1 667:1 674:1 682:1 708:1 718:1 722:1 740:1 827:1 893:1 911:1 919:1 931:1 955:1 990:1 1031:1 1048:1 1091:1 1203:1 1214:1 1281:1 1303:1 1335:1 1399:1 1453:1 1470:1 1479:1 1494:1 1522:1 1632:1 1682:1 1731:1 1762:1 1801:1 1829:1 1892:1 1895:1 1898:1 2000:1 
1 63:1 82:1 83:1 88:1 131:1 137:1 148:1 170:1 223:1 229:1 276:1 308:1 366:1 440:1 471:1 489:1 521:1 611:1 632:1 668:1 680:1 722:1 740:1 775:1 803:1 805:1 806:1 854:1 880:1 893:1 919:1 959:1 994:1 999:1 1011:1 1017:1 1031:1 1036:1 1047:1 1190:1 1192:1 1203:1 1251:1 1294:1 1341:1 1344:1 1453:1 1479:1 1490:1 1494:1 1623:1 1627:1 1682:1 1723:1 1762:1 1819:1 1829:1 1838:1 1866:1 2000:1 
1 3:1 82:1 83:1 180:1 191:1 229:1 278:1 309:1 439:1 442:1 456:1 491:1 581:1 674:1 696:1 708:1 726:1 775:1 798:1 803:1 822:1 893:1 1031:1 1036:1 1047:1 1091:1 1203:1 1294:1 1329:1 1479:1 1490:1 1532:1 1557:1 1599:1 1622:1 1682:1 1713:1 1764:1 1808:1 1841:1 1882:1 
1 137:1 229:1 320:1 415:1 427:1 489:1 521:1 708:1 718:1 782:1 801:1 805:1 822:1 834:1 919:1 947:1 959:1 990:1 1238:1 1378:1 1479:1 1622:1 1731:1 1762:1 
1 3:1 82:1 123:1 137:1 195:1 223:1 229:1 264:1 323:1 440:1 564:1 619:1 629:1 740:1 743:1 775:1 798:1 822:1 948:1 965:1 1031:1 1203:1 1344:1 1435:1 1453:1 1479:1 1490:1 1494:1 1504:1 1513:1 1716:1 1762:1 1798:1 1829:1 1832:1 1997:1 2000:1 
1 82:1 144:1 162:1 181:1 195:1 229:1 246:1 420:1 521:1 722:1 731:1 816:1 822:1 836:1 893:1 907:1 919:1 931:1 959:1 1024:1 1050:1 1064:1 1244:1 1344:1 1479:1 1494:1 1544:1 1623:1 1666:1 1681:1 1682:1 1709:1 1719:1 1789:1 1829:1 1832:1 1882:1 2000:1 
1 82:1 83:1 137:1 144:1 161:1 223:1 229:1 367:1 445:1 501:1 521:1 554:1 708:1 718:1 722:1 874:1 919:1 990:1 1203:1 1425:1 1490:1 1557:1 1627:1 1808:1 1882:1 1997:1 
1 83:1 89:1 137:1 180:1 190:1 229:1 235:1 312:1 333:1 457:1 521:1 523:1 572:1 581:1 705:1 722:1 726:1 938:1 947:1 994:1 1031:1 1088:1 1093:1 1224:1 1335:1 1343:1 1344:1 1345:1 1435:1 1479:1 1490:1 1494:1 1564:1 1623:1 1682:1 1716:1 1762:1 1777:1 1795:1 1829:1 1836:1 1837:1 2000:1 
1 3:1 82:1 123:1 137:1 163:1 170:1 229:1 364:1 490:1 521:1 578:1 580:1 581:1 599:1 601:1 623:1 659:1 674:1 722:1 743:1 785:1 798:1 806:1 822:1 893:1 919:1 999:1 1031:1 1090:1 1091:1 1093:1 1185:1 1203:1 1214:1 1329:1 1344:1 1358:1 1435:1 1479:1 1490:1 1494:1 1552:1 1601:1 1666:1 1682:1 1762:1 1768:1 1829:1 1909:1 2000:1 
1 3:1 33:1 43:1 54:1 82:1 83:1 188:1 190:1 223:1 229:1 408:1 491:1 601:1 684:1 708:1 718:1 722:1 728:1 743:1 822:1 893:1 919:1 1106:1 1203:1 1224:1 1329:1 1344:1 1375:1 1402:1 1417:1 1479:1 1490:1 1494:1 1682:1 1688:1 1789:1 1829:1 1832:1 1882:1 1942:1 1997:1 2000:1 
1 69:1 82:1 106:1 144:1 195:1 229:1 264:1 401:1 489:1 504:1 521:1 623:1 731:1 822:1 893:1 896:1 955:1 959:1 1031:1 1294:1 1329:1 1335:1 1344:1 1435:1 1479:1 1494:1 1554:1 1599:1 1601:1 1682:1 1829:1 1882:1 1898:1 1912:1 2000:1 
